<?xml version="1.0"?>
<opencv_storage>
<my_nn type_id="opencv-ml-ann-mlp">
  <layer_sizes type_id="opencv-matrix">
    <rows>1</rows>
    <cols>4</cols>
    <dt>i</dt>
    <data>
      1080 100 100 10</data></layer_sizes>
  <activation_function>SIGMOID_SYM</activation_function>
  <f_param1>5.0000000000000000e-01</f_param1>
  <f_param2>1.</f_param2>
  <min_val>-9.4999999999999996e-01</min_val>
  <max_val>9.4999999999999996e-01</max_val>
  <min_val1>-9.7999999999999998e-01</min_val1>
  <max_val1>9.7999999999999998e-01</max_val1>
  <training_params>
    <train_method>BACKPROP</train_method>
    <dw_scale>1.0000000000000000e-03</dw_scale>
    <moment_scale>1.0000000149011612e-01</moment_scale>
    <term_criteria><epsilon>1.1920928955078125e-07</epsilon>
      <iterations>1000</iterations></term_criteria></training_params>
  <input_scale>
    7.7626491538408855e+00 -5.7427568460351841e-01
    4.2120322516311752e+00 -6.5169310247495327e-01
    4.3072320482957958e+00 -6.6344394628223424e-01
    4.6186720492545073e+00 -6.6653351510510772e-01
    4.5833492809881999e+00 -6.6720371434243952e-01
    4.3568699180467512e+00 -6.9703631235741637e-01
    4.1124957333389851e+00 -7.2126302806383025e-01
    4.0001629411136115e+00 -7.1828566130224281e-01
    7.3630598571407324e+00 -6.3104194265594826e-01
    6.8680246445181181e+00 -5.9290263916530295e-01
    3.5930254454413735e+00 -6.7948426955293684e-01
    3.4035478812488167e+00 -7.5670944639009363e-01
    3.6890312530545741e+00 -7.7000030302599742e-01
    3.9777588279931173e+00 -7.6104274310617359e-01
    3.6363710475898441e+00 -8.2259382802682768e-01
    3.2432444530968279e+00 -9.2548803387984346e-01
    3.1736394091237297e+00 -9.0780308384334818e-01
    6.2668602967840608e+00 -7.4849199413988621e-01
    5.6760687567078403e+00 -6.0825020774437055e-01
    3.0002101442940416e+00 -7.1411957302418583e-01
    2.7190971122655618e+00 -9.0601031309222579e-01
    2.8637267307697942e+00 -9.2943492255749727e-01
    3.2208649333930768e+00 -8.3356465136587510e-01
    3.0069298975601719e+00 -8.7583799836886711e-01
    2.7123981154081855e+00 -1.0832300728309243e+00
    2.6069033009215241e+00 -1.1428925998371557e+00
    4.9798006427647392e+00 -8.9391441063343713e-01
    5.1845026662534410e+00 -6.6771448389450561e-01
    2.7929905702784406e+00 -8.5413206499134009e-01
    2.6056719807730992e+00 -1.1570254483934503e+00
    2.6836575651794612e+00 -1.0617188821938479e+00
    3.1089062743786231e+00 -8.3710426979591346e-01
    2.9914372266854552e+00 -7.8070900917348551e-01
    2.7563914373973217e+00 -9.2863960888033903e-01
    2.5658799836744053e+00 -1.1342843595310628e+00
    4.6196332898534909e+00 -9.4298677557860633e-01
    5.1577110504410628e+00 -7.2282032989590528e-01
    2.8107138762656625e+00 -9.7276231965733662e-01
    2.6284944993092871e+00 -1.2406168012288270e+00
    2.6940890227915042e+00 -9.9979934554018057e-01
    3.1945950141450963e+00 -8.0548092248599068e-01
    2.9463084370419144e+00 -7.6309939864683152e-01
    2.8659045001598713e+00 -8.0923915086252163e-01
    2.6421007805174535e+00 -1.0169985344402397e+00
    4.6007933747564680e+00 -8.8933371111219983e-01
    5.2617785965977433e+00 -6.9861686620461760e-01
    2.8963385845379892e+00 -9.0748155294668631e-01
    2.6307189611583151e+00 -1.1051742078596187e+00
    2.7470693608438497e+00 -9.1593503944125965e-01
    3.1911317620586841e+00 -7.9420495367734545e-01
    2.8744109824948598e+00 -8.0529266158337109e-01
    2.8120751759654521e+00 -8.4305966168903734e-01
    2.6491658446077913e+00 -1.0107899949522210e+00
    4.6362284417270221e+00 -8.5803891494265094e-01
    5.2550134603235863e+00 -6.8567326889762770e-01
    2.9138031721236199e+00 -8.2294145201721691e-01
    2.6768295113473641e+00 -9.6602891061927798e-01
    2.8119976211889748e+00 -8.9439634446235583e-01
    3.1329634674306530e+00 -8.3252088446590689e-01
    2.8557596834129195e+00 -8.7788821652523286e-01
    2.7128765911567299e+00 -9.7694383134745211e-01
    2.6152930834231194e+00 -1.1249045048014636e+00
    4.6616833200484820e+00 -8.9205736376369460e-01
    5.1848130624831574e+00 -7.1258715227371372e-01
    2.8532959056882805e+00 -8.0686610723072727e-01
    2.7330252297598920e+00 -8.8461362947409317e-01
    2.8837290060364595e+00 -8.7320005955452218e-01
    3.0351937050068454e+00 -8.7298943607883395e-01
    2.7932563178825056e+00 -9.4682298129820530e-01
    2.6316918352423122e+00 -1.0634018192972228e+00
    2.5614276457488634e+00 -1.2053910552673230e+00
    4.5824798362557582e+00 -9.3198613709997247e-01
    5.1782030465914630e+00 -7.4829270526220060e-01
    2.8170778230599707e+00 -8.8836208411954432e-01
    2.7276392228333597e+00 -9.7984333447157013e-01
    2.8380025441513612e+00 -9.0281923150656418e-01
    3.0795020037827232e+00 -8.5241403348242484e-01
    2.8564296032809029e+00 -8.7951680062259341e-01
    2.7464211070143376e+00 -9.4568702525610404e-01
    2.5814714015945492e+00 -1.1276358298709246e+00
    4.5336487513079895e+00 -9.2470967360026812e-01
    5.4018418747809811e+00 -7.2909296951389746e-01
    2.9391037916545111e+00 -9.1550578795424176e-01
    2.7613854139076199e+00 -1.0534907713058084e+00
    2.8333068416261198e+00 -9.1505261583350883e-01
    3.1755637608368397e+00 -8.1433969809921847e-01
    2.8409475114325735e+00 -8.1358642768042810e-01
    2.7717296642119766e+00 -8.4178507814988801e-01
    2.6113247325476858e+00 -1.0483437941685316e+00
    4.5178922330794249e+00 -8.9644947006325337e-01
    5.6032232001428879e+00 -6.7153999013549748e-01
    3.1228673648526377e+00 -8.2064249563368419e-01
    2.8461764726574943e+00 -9.5706950678349989e-01
    2.9109941462467770e+00 -8.7136130155983060e-01
    3.1856507116319306e+00 -7.9790927230037689e-01
    2.7956532405406493e+00 -8.2851038739459304e-01
    2.6950943928633082e+00 -8.8080429410683714e-01
    2.6060381340136232e+00 -1.0921740241206417e+00
    4.5213089749859732e+00 -9.0813815837697909e-01
    5.3811862179066585e+00 -6.6506581908248230e-01
    3.0879726091163513e+00 -7.4824353612432548e-01
    2.9507133885279329e+00 -8.7174770442004390e-01
    2.9774742478529168e+00 -8.6898382544771791e-01
    3.1825827177464965e+00 -8.1747076866156110e-01
    2.8193224415342937e+00 -8.7384462103811800e-01
    2.6521105770233073e+00 -1.0274293048308163e+00
    2.5967400401848577e+00 -1.2336780840937993e+00
    4.5433980233028537e+00 -9.5902465075523335e-01
    5.1682104974491736e+00 -7.2644518285655535e-01
    2.8862338303218218e+00 -7.6600964778054426e-01
    2.9906927888851507e+00 -8.1218280621980732e-01
    3.0739582531862304e+00 -8.3251330783389599e-01
    3.1472560475655387e+00 -8.3975493642122279e-01
    2.7833025533924567e+00 -9.4751182040650428e-01
    2.6201366533208028e+00 -1.1142240130647019e+00
    2.5643303702090776e+00 -1.1654839243905744e+00
    4.6776220565112050e+00 -8.7522019479214086e-01
    5.4422968835011787e+00 -8.0464719457834333e-01
    2.8838718087784652e+00 -8.8330351806991336e-01
    3.0862581798616908e+00 -8.5493397097005563e-01
    3.4084660765139212e+00 -8.0979275586013744e-01
    3.4295848268287159e+00 -8.1472218186881395e-01
    3.0210320838368618e+00 -8.9666810520879214e-01
    2.8495401237016229e+00 -9.2671959734595266e-01
    2.9178332124854833e+00 -8.4341077773642004e-01
    5.7190484178872678e+00 -6.6426159234898874e-01
    6.1670512369244612e+00 -7.5132414168835837e-01
    3.1979907994292764e+00 -8.6392133638740976e-01
    3.4084784226855405e+00 -8.4013827021434750e-01
    3.8919716933129300e+00 -7.7885548180411390e-01
    3.9556692447426256e+00 -7.4662977490302596e-01
    3.5954782998182595e+00 -7.5968677054328326e-01
    3.4739265010222105e+00 -7.1263248828591286e-01
    3.8563319199462196e+00 -6.2684533712573165e-01
    7.5509029179186697e+00 -5.2855780069610647e-01
    7.2627957984987122e+00 -6.1076720007013052e-01
    6.7757585494288559e+00 -6.1103581296487619e-01
    6.3344516618167583e+00 -6.1456752641307055e-01
    6.1239169017179691e+00 -6.1977500098044203e-01
    5.9999576554606895e+00 -6.2209482903395596e-01
    6.0682368650417171e+00 -6.2416617693448206e-01
    6.3893588446718024e+00 -6.2968878945981366e-01
    7.0119785109045978e+00 -6.4150380864893985e-01
    7.5122011777187581e+00 -6.3204469229415050e-01
    3.4546923813236097e+00 -7.1755219559571926e-01
    3.1808978320550763e+00 -6.9108999338055810e-01
    3.0329687989233962e+00 -6.8053127880256969e-01
    3.0224463303180302e+00 -6.9277543882905313e-01
    3.0250206489053322e+00 -6.8621210976360192e-01
    3.0294262359125024e+00 -6.8004976901152603e-01
    3.0928343985382911e+00 -6.9415770317314163e-01
    3.2783737150641095e+00 -7.3337656960011610e-01
    3.6066171534533784e+00 -7.4854044149549037e-01
    3.0570409733966204e+00 -8.2771717586447169e-01
    2.7611407310242395e+00 -8.5052144496057058e-01
    2.6402594523939849e+00 -9.2226288508356180e-01
    2.6245965237745343e+00 -1.0095118541954400e+00
    2.6173020809950129e+00 -1.0004599135433243e+00
    2.6488420227045255e+00 -9.4398371429471251e-01
    2.7647417765256184e+00 -8.5556555305602877e-01
    2.9095047553925557e+00 -8.0847319080158331e-01
    3.1537955401732916e+00 -8.1863219289428146e-01
    2.9528217578108547e+00 -9.2835815112670872e-01
    2.6262019393655383e+00 -1.1141546565365044e+00
    2.6016012076241393e+00 -1.3477011805971386e+00
    2.6021759199841155e+00 -1.4366165750905375e+00
    2.5426470073282745e+00 -1.3828153003074168e+00
    2.5373564218898221e+00 -1.3207311068937322e+00
    2.5993665481469388e+00 -1.1529472170173436e+00
    2.7880805932893398e+00 -9.5419960376223512e-01
    3.1016160067814456e+00 -8.5822798289643554e-01
    3.1958476263054107e+00 -8.5185091366850929e-01
    2.7561909400844913e+00 -9.9755134504327059e-01
    2.6659944795897808e+00 -1.0451202232225372e+00
    2.6884144455257442e+00 -9.7336901885287375e-01
    2.6994930458130906e+00 -9.3167477565075785e-01
    2.6833744727503022e+00 -9.5927118946447365e-01
    2.7567796050247848e+00 -9.6811223602678720e-01
    2.9933360164022487e+00 -9.1269335509177241e-01
    3.4263391534711167e+00 -8.2486568367903079e-01
    3.7257521213151823e+00 -7.9800987718970573e-01
    3.2958602563075186e+00 -8.4842059181495499e-01
    3.3220646281122925e+00 -7.7601742411800589e-01
    3.4255349253220091e+00 -7.0020965890310061e-01
    3.4035787118120382e+00 -6.9381267945037528e-01
    3.3398097508819942e+00 -7.2205307525173867e-01
    3.2929917901783057e+00 -7.7763303492586811e-01
    3.3791468113248846e+00 -8.2873098858787742e-01
    3.7780077521384241e+00 -7.9168308874165327e-01
    3.7384956056217411e+00 -7.8179514997436184e-01
    3.2216405904213632e+00 -8.3027361268400890e-01
    3.1383758778494211e+00 -7.5851009996025398e-01
    3.1380065021637051e+00 -6.8146218756186605e-01
    3.0970591573302859e+00 -6.7024403542071365e-01
    3.1164639530513929e+00 -6.9669653298071654e-01
    3.0499794416832491e+00 -7.7089404267134110e-01
    3.1100170111368501e+00 -8.3051021040834916e-01
    3.5960289576341680e+00 -7.7817386624343143e-01
    3.5745139965803623e+00 -7.8030141475603332e-01
    2.9426406239523080e+00 -8.9634296510290579e-01
    2.7430771733620190e+00 -9.6996137712514241e-01
    2.6987526708142049e+00 -9.7259345458749469e-01
    2.6703517882553953e+00 -9.6641335122173966e-01
    2.6914687067152938e+00 -9.6298833382934979e-01
    2.7396672571133101e+00 -9.4900241364437332e-01
    2.9077069500323658e+00 -8.8000568589883399e-01
    3.3638431439787255e+00 -7.7400064364513710e-01
    3.5379060471918597e+00 -7.7800559092085675e-01
    2.9109330698531397e+00 -8.8898691196326740e-01
    2.6076657613141054e+00 -1.0402555520344681e+00
    2.5089185382289076e+00 -1.1329543683947205e+00
    2.4849299452250864e+00 -1.1458862738324367e+00
    2.5246539883137418e+00 -1.1136292022321097e+00
    2.6607371402313817e+00 -1.0315094946517562e+00
    2.9153527581160543e+00 -8.9457160796082003e-01
    3.2934770025505715e+00 -7.9226288304860071e-01
    3.8101293284633222e+00 -7.5456788552214193e-01
    3.3554500395409477e+00 -7.8227853290343230e-01
    3.0672463132956640e+00 -7.9794121417190178e-01
    2.9261873233553315e+00 -7.9150277523946877e-01
    2.9347089667835191e+00 -7.8527669320625115e-01
    2.9529329674600118e+00 -7.9944645116649826e-01
    3.0139722053990510e+00 -8.2474643298018324e-01
    3.2297212959183459e+00 -8.2927176708609729e-01
    3.5920899904667727e+00 -7.9093572391705680e-01
    3.7465927831294326e+00 -7.6059288100032041e-01
    3.4145274593758463e+00 -7.6578502659685632e-01
    3.4586121220346020e+00 -6.9651260954999328e-01
    3.5791158702368264e+00 -6.4269602344127275e-01
    3.5901331887862900e+00 -6.3638154088694610e-01
    3.5209436830289658e+00 -6.5578712185300092e-01
    3.3638004324650357e+00 -7.3295657379915058e-01
    3.3266712699518299e+00 -8.2322833688607577e-01
    3.6521875432663564e+00 -7.9378831852128817e-01
    3.2440233332248196e+00 -8.0706408983844602e-01
    2.9160800872202159e+00 -8.6114589583125045e-01
    2.9455512080921364e+00 -7.9006306213661792e-01
    3.0306957094994269e+00 -7.2252111557273646e-01
    2.9929613779015880e+00 -7.2307338222583528e-01
    2.9327425693962690e+00 -7.6548242588556648e-01
    2.8191397176211850e+00 -8.9229526537958193e-01
    2.8077909199306128e+00 -9.7904416393273430e-01
    3.1169372904064154e+00 -8.6003978604581799e-01
    3.0119316577220689e+00 -8.8198096123183556e-01
    2.6482435251290593e+00 -1.0551463651919317e+00
    2.5721636198141997e+00 -1.1100886695205581e+00
    2.5950479948446805e+00 -1.0878746939519159e+00
    2.5906841253673729e+00 -1.1214268108894865e+00
    2.6041082268663955e+00 -1.2387808852287838e+00
    2.6273332859687466e+00 -1.3736516828880558e+00
    2.6167798877029820e+00 -1.2452954778185610e+00
    2.8545410641895432e+00 -9.3155137222425111e-01
    3.1755594131566642e+00 -7.8460397908996005e-01
    2.6675788352426770e+00 -9.2887983769895621e-01
    2.4928143504163596e+00 -1.0469029713804652e+00
    2.4802628731351617e+00 -1.1043076020263494e+00
    2.4865778957302878e+00 -1.1634941203824607e+00
    2.5039774313548429e+00 -1.2405430643719415e+00
    2.5169051110731231e+00 -1.2372258897196857e+00
    2.5840291499315717e+00 -1.0299863785780181e+00
    2.9812441041215259e+00 -7.9665737060807662e-01
    6.8470492507692766e+00 -5.8210247971395768e-01
    5.8351791453050490e+00 -6.2692418794022142e-01
    5.2208580538615532e+00 -6.6458716305278542e-01
    5.0390428306368502e+00 -6.8276098912288508e-01
    4.9479046844954127e+00 -6.9791962109079797e-01
    4.9143982563394184e+00 -7.0950749186672624e-01
    5.0401549139228274e+00 -6.9649229477567065e-01
    5.5237594814400195e+00 -6.3667464693073472e-01
    6.3908275762143880e+00 -5.7381100437863863e-01
    7.4362310465339512e+00 -6.4489952519835669e-01
    3.9939532135984592e+00 -7.3567181366737400e-01
    4.0566891959557863e+00 -7.2622736551982503e-01
    4.3702990884797828e+00 -7.0907738535798670e-01
    4.5603508082019308e+00 -6.8773335335226948e-01
    4.4742368365116469e+00 -6.6629984353099136e-01
    4.4014432918424102e+00 -6.5176068235546003e-01
    4.6125728725068953e+00 -6.4529707108443723e-01
    8.5360408059350696e+00 -5.6428889276705829e-01
    5.8287037441957246e+00 -8.4167337414818510e-01
    3.0553200426975486e+00 -9.8968790335825174e-01
    3.2152539044523660e+00 -8.9768472663036480e-01
    3.6127382132770669e+00 -7.9461363439090082e-01
    3.9018344451852625e+00 -7.5165227832552439e-01
    3.8929111624235566e+00 -7.2391265953523665e-01
    3.8516866411297306e+00 -6.7388137367011613e-01
    3.8853964531592746e+00 -6.5545332141327617e-01
    7.3854855557212025e+00 -6.0227032434167083e-01
    4.7254227008073526e+00 -1.0781038885543590e+00
    2.6129973299309111e+00 -1.3035806386523872e+00
    2.7084351318748414e+00 -1.0325347861345582e+00
    2.9439650701442681e+00 -8.5319597197847119e-01
    3.0717578367767668e+00 -8.5252424454665876e-01
    3.0057769369445535e+00 -8.6399262376515706e-01
    3.0851404767835584e+00 -7.6644370105783877e-01
    3.2376492154607526e+00 -6.7349713373236986e-01
    6.0018247849559989e+00 -6.3270290891424197e-01
    4.5360158650955542e+00 -1.0869416883920897e+00
    2.5716942288928011e+00 -1.2174474528553996e+00
    2.8019320859246917e+00 -8.9171316335757078e-01
    2.8874293405707308e+00 -8.0954653393002740e-01
    2.9008157234189138e+00 -9.2981778190392528e-01
    2.6869207020170403e+00 -1.0609887512008562e+00
    2.6992631688628541e+00 -1.0053527268856481e+00
    3.0191336529904471e+00 -7.7670719764859453e-01
    5.4486129766855553e+00 -6.6239850292555980e-01
    4.5786377525112094e+00 -9.4319960626143107e-01
    2.6656025347584467e+00 -9.9595335331992829e-01
    3.0592787476581891e+00 -7.6450066519559934e-01
    2.8720147001360106e+00 -8.0644165947048507e-01
    2.9250869252493645e+00 -9.3512287747854195e-01
    2.6319271571846818e+00 -1.0693405293707006e+00
    2.5845390497728555e+00 -1.1258693411930862e+00
    2.9435194377490905e+00 -8.7344827408785874e-01
    5.3148780323255860e+00 -6.8550305885668239e-01
    4.6433696600717616e+00 -8.8173486664756573e-01
    2.6980269449436354e+00 -9.5151691211258171e-01
    3.0225399356226803e+00 -7.8461431212125199e-01
    2.8258575662240215e+00 -8.4360564465441834e-01
    2.9407148167112496e+00 -9.2031775744453004e-01
    2.6755820049471106e+00 -9.9885761622437286e-01
    2.5959014172090211e+00 -1.0718258971684584e+00
    2.9548978329652549e+00 -8.6001596937710689e-01
    5.2891247273480060e+00 -6.9060943781211392e-01
    4.7327078503738225e+00 -8.8447916434729534e-01
    2.6579384702903979e+00 -1.0395297230680196e+00
    2.7888353485365251e+00 -9.3732893549863927e-01
    2.8033647618879831e+00 -9.2181771021366288e-01
    2.9740876545095332e+00 -9.2950358424112522e-01
    2.7525240405168612e+00 -9.7636184738165943e-01
    2.6624289683171805e+00 -9.9365818105525849e-01
    2.9221528098834986e+00 -8.1379352128162874e-01
    5.1758739371253979e+00 -7.0748561679986144e-01
    4.8193567822461700e+00 -8.7413846177129406e-01
    2.6074484518412455e+00 -1.0793963511939295e+00
    2.6346073631740961e+00 -1.0450325140551651e+00
    2.7734994350665874e+00 -9.8244244615207943e-01
    2.9934480152941316e+00 -9.3253085056674800e-01
    2.7930468468064440e+00 -9.6182698373372522e-01
    2.6773705221944879e+00 -9.6621937925626933e-01
    2.8165221922930104e+00 -8.1160699280088566e-01
    4.9946598251409871e+00 -7.3766433124836939e-01
    4.9721582854731059e+00 -8.2119155282767275e-01
    2.7210949752214719e+00 -9.5022661932702901e-01
    2.8518273431256560e+00 -9.0297722734365859e-01
    2.9075420517981896e+00 -9.0338578352427035e-01
    2.9787291789982429e+00 -9.3612779367476262e-01
    2.7080193854579426e+00 -1.0337599743327259e+00
    2.6464114293222449e+00 -1.1099525884808628e+00
    2.7792705933598425e+00 -8.9275032841907009e-01
    4.9195159180056276e+00 -7.5780023023282150e-01
    5.0674715875153860e+00 -7.7470756038204047e-01
    2.8894319684750078e+00 -8.2660291107399930e-01
    3.2381186916044382e+00 -7.3349129543621694e-01
    3.0133369875173464e+00 -7.8763779259853761e-01
    2.9796489620562094e+00 -9.0990750993584435e-01
    2.6540737780904018e+00 -1.0649355826305611e+00
    2.5984967757329436e+00 -1.1942444265391410e+00
    2.8104192105743135e+00 -9.4081592521652146e-01
    4.9489557379482036e+00 -7.5202001131649154e-01
    5.0706225777032472e+00 -8.0655604807296277e-01
    2.8783745592099006e+00 -8.7864177131054400e-01
    3.1516512345014140e+00 -7.5059770255388891e-01
    2.9814993969111634e+00 -7.7874133301633863e-01
    3.0109073983643726e+00 -8.8582820333866374e-01
    2.6743618570844236e+00 -1.0181108160140186e+00
    2.5971885473752265e+00 -1.1103812072041277e+00
    2.8803871242850718e+00 -8.8950151625105089e-01
    4.9853057104892526e+00 -7.2800755550797203e-01
    4.8952151061688101e+00 -8.8466529572944785e-01
    2.6751679835481048e+00 -1.0267858475973073e+00
    2.8757569055273802e+00 -8.8359094053441167e-01
    3.0015435013429621e+00 -8.2405343746473447e-01
    3.0467475176662897e+00 -8.9127452662773576e-01
    2.7406040496305915e+00 -9.8771317739384368e-01
    2.6986105126364635e+00 -9.8860578322942017e-01
    2.8886004642537313e+00 -8.2252447701801301e-01
    4.8911041882766559e+00 -7.4443374858072831e-01
    4.9249515925332057e+00 -8.4592001666183347e-01
    2.5922414123213580e+00 -1.0108548463227258e+00
    2.7434741455589422e+00 -9.4630475954460858e-01
    2.9927372263217085e+00 -8.5652043624592400e-01
    3.1278258457653707e+00 -8.6092261570569917e-01
    2.9047785374114374e+00 -8.9478949278477493e-01
    2.8031893681608464e+00 -8.9971899104792019e-01
    2.7222611884109416e+00 -8.6628181145178884e-01
    4.7904402114474527e+00 -8.4806973796697616e-01
    5.9802207588526457e+00 -6.8615925084997498e-01
    3.0760706920483281e+00 -7.8492815823013617e-01
    3.1815672056418642e+00 -7.9238329738037960e-01
    3.4159160783005209e+00 -7.6920341160206673e-01
    3.6425476682779037e+00 -7.6697129876899117e-01
    3.3671618829091234e+00 -8.0259898254245876e-01
    2.9430636690583571e+00 -9.1857665363393803e-01
    2.7731194064878504e+00 -1.0369566345514383e+00
    5.1097080555952701e+00 -9.6975076539643257e-01
    7.5851551364795018e+00 -5.6494414902848211e-01
    4.1250461224956014e+00 -6.1533864210957678e-01
    4.1692968907158461e+00 -6.2707333104148333e-01
    4.2120250474897816e+00 -6.4772945216923872e-01
    4.3699645872293171e+00 -6.7835930340299477e-01
    4.0074623882462861e+00 -7.3256026056423595e-01
    3.3020897313402160e+00 -8.6152623126451222e-01
    3.0849894483275553e+00 -9.8778566280965363e-01
    5.7134989290692593e+00 -8.8131208715727671e-01
    6.9910404850941390e+00 -6.6106470202622680e-01
    5.9999159716719621e+00 -7.5958672038932695e-01
    5.4471145575024131e+00 -8.1336766753864653e-01
    5.3195858762466814e+00 -8.1597179744795478e-01
    5.2606510221610820e+00 -8.1299111946475255e-01
    5.3324900237969377e+00 -8.0357670342020315e-01
    5.7672952910323749e+00 -7.5347466700375498e-01
    6.7395786582084982e+00 -6.7268262983448224e-01
    7.6322457690527212e+00 -6.0825622838615601e-01
    3.2569221961987966e+00 -8.0953264223363763e-01
    2.6983883287297852e+00 -1.0559876260245487e+00
    2.5723352237931425e+00 -1.2177168138701771e+00
    2.5664135434744395e+00 -1.2169119556295531e+00
    2.5505728588461083e+00 -1.2144075625755260e+00
    2.5443692653166163e+00 -1.1976749475693624e+00
    2.6030892942896200e+00 -1.0683491342908924e+00
    2.9419751925256619e+00 -8.6644656522123942e-01
    3.6641785539553919e+00 -7.0958348248657821e-01
    3.0284938801883277e+00 -8.2990264558924198e-01
    2.5789258511989908e+00 -1.0892733061355462e+00
    2.5349741214164996e+00 -1.1620451773068450e+00
    2.5915730023398731e+00 -1.0717101611684476e+00
    2.5839484496891707e+00 -1.0529576505909375e+00
    2.5605868505781046e+00 -1.0894987023360423e+00
    2.5581619050034914e+00 -1.0794881362024666e+00
    2.7033705212178836e+00 -9.4579035999736139e-01
    3.3048119694486657e+00 -7.3671344969660602e-01
    3.2400568086115840e+00 -7.4786381572090677e-01
    2.8621744450399498e+00 -8.3975452499892222e-01
    2.9396490324793279e+00 -7.9479742112959628e-01
    3.0572430473935821e+00 -7.3159568440743405e-01
    2.9888724274950467e+00 -7.3260573240529314e-01
    2.9764221465712777e+00 -7.5650738141351126e-01
    2.9372512866424079e+00 -7.9801026699261990e-01
    2.9459514443252259e+00 -8.1478560376862263e-01
    3.3702216359396897e+00 -7.1505058483916206e-01
    3.4082534352522131e+00 -7.2369910495705680e-01
    2.9709106292604011e+00 -7.9323466795985120e-01
    2.8390407371094524e+00 -8.5410885953684912e-01
    2.7470661847962257e+00 -9.1289159107163464e-01
    2.6947278660851182e+00 -9.3242382347355424e-01
    2.7617476458201100e+00 -8.9177727456993072e-01
    2.9469854582043666e+00 -8.2492009406318678e-01
    3.2037633613197514e+00 -7.5918275608255648e-01
    3.6324310391913812e+00 -6.9081369355079525e-01
    3.8302084500447156e+00 -7.0179439640254460e-01
    3.2572270858424743e+00 -8.1232656406712556e-01
    2.9132164204274633e+00 -9.9661681115502865e-01
    2.7673097476976207e+00 -1.1029678144936350e+00
    2.7161640680033043e+00 -1.0898944262510570e+00
    2.7431056230249697e+00 -1.0442235864568175e+00
    2.9297343689123725e+00 -9.4847831202282784e-01
    3.3796961947311237e+00 -7.9882686798714420e-01
    3.9271537849270786e+00 -6.9153757569424301e-01
    3.9559131936595771e+00 -6.8872912361637884e-01
    3.3040614092413549e+00 -7.9630331485928496e-01
    2.7675876019988634e+00 -1.0038701982074310e+00
    2.5618861952430807e+00 -1.1379283517022845e+00
    2.5307566885722284e+00 -1.1446346782380277e+00
    2.5843107428123915e+00 -1.1047782600611240e+00
    2.7312489679914558e+00 -1.0004267568516561e+00
    3.0671040318156169e+00 -8.3442171563395151e-01
    3.6103309956639960e+00 -7.1743658933367205e-01
    3.6911599935496056e+00 -7.0149167712012006e-01
    3.2057559223934344e+00 -7.6296980446376628e-01
    2.9308619853089311e+00 -8.5333119336073404e-01
    2.8005033700149542e+00 -9.0529065064217129e-01
    2.7720929668937710e+00 -9.1435023804900162e-01
    2.8274890862160111e+00 -9.0710971017485698e-01
    2.8651539999348210e+00 -8.9001689799398342e-01
    2.9678232094910277e+00 -8.4608928650785165e-01
    3.3775317152054836e+00 -7.6110608541381197e-01
    3.5095544968605816e+00 -7.1088828932137371e-01
    3.0920980650437886e+00 -7.6648775159931415e-01
    3.0511077565870637e+00 -7.6997877645928592e-01
    3.0930057070749930e+00 -7.3968202907106007e-01
    3.0562908003247640e+00 -7.2667282285287482e-01
    3.0822143763739378e+00 -7.4967281476167458e-01
    3.0712689678392509e+00 -8.0842901238951770e-01
    3.0693587656990862e+00 -8.3165137323701988e-01
    3.4365452727388370e+00 -7.4864088924814909e-01
    3.6068994677528203e+00 -7.1743404443020409e-01
    3.0992435467583119e+00 -8.3181120136691555e-01
    2.8702212046441233e+00 -9.4139919489750956e-01
    2.7275234740389918e+00 -9.9119314360629396e-01
    2.6988692497083115e+00 -9.9541736529185976e-01
    2.7661693818894446e+00 -9.7558886186070948e-01
    2.9037349696901460e+00 -9.3475419613884569e-01
    3.1486574159690011e+00 -8.3851059842278652e-01
    3.6477523266442495e+00 -7.1957491095183856e-01
    3.8267447187178716e+00 -7.1544592760740144e-01
    3.1811072475849009e+00 -8.4510878195432504e-01
    2.8263244104706060e+00 -1.0322873298219133e+00
    2.7222552085329039e+00 -1.1441288797667155e+00
    2.7079113402992534e+00 -1.1442237635825019e+00
    2.7217857382874544e+00 -1.1332366376972323e+00
    2.8303069963275749e+00 -1.0374219287148678e+00
    3.2069715148516358e+00 -8.4899713873281413e-01
    3.8169775779156678e+00 -7.1692213248982684e-01
    3.4931609227287059e+00 -7.1665822167010496e-01
    2.9134710482397841e+00 -8.2641929370098310e-01
    2.6444341747103937e+00 -9.9905330824827510e-01
    2.5522938718777719e+00 -1.1076521743011059e+00
    2.5383648721030334e+00 -1.1141840866534687e+00
    2.5538432667523039e+00 -1.1108632727469192e+00
    2.6691598037201052e+00 -9.9188050478780820e-01
    2.9588715008276987e+00 -8.1818110998530258e-01
    3.4033983565240620e+00 -7.2434230206566164e-01
    3.4210917709070299e+00 -7.1203518558546852e-01
    3.0762070644796657e+00 -7.3908848586665665e-01
    2.9843781535408578e+00 -7.8188653519570994e-01
    2.9062272828009417e+00 -8.3668023300578620e-01
    2.8667721109529198e+00 -8.4338476775889160e-01
    2.9057831529988807e+00 -8.1622238542948977e-01
    2.9811706589241727e+00 -7.5799816720890290e-01
    2.9655987418949734e+00 -7.4197881019008749e-01
    3.1647848943769761e+00 -7.5116445224935791e-01
    3.1427956470064915e+00 -7.7801906798102627e-01
    2.8439664539656309e+00 -7.9998221849632323e-01
    2.7875242747832409e+00 -7.7720371945819244e-01
    2.8293134800500277e+00 -7.6954088413331256e-01
    2.8127242210544789e+00 -7.7156438832495000e-01
    2.7504060578955838e+00 -7.8371227760075901e-01
    2.6511712835029506e+00 -8.2177915656641276e-01
    2.6908107711589677e+00 -8.8475393197962404e-01
    2.9517340607575298e+00 -8.7245450716086870e-01
    5.5633839442006980e+00 -7.8220608362313437e-01
    5.0087981682572842e+00 -8.6216738706169593e-01
    4.6873611578547232e+00 -8.9392941492700506e-01
    4.5908811919073864e+00 -9.0325825549053318e-01
    4.5375596153409150e+00 -9.2427816587717770e-01
    4.5166052490420920e+00 -9.7508926179750954e-01
    4.5629046334996062e+00 -1.0321669132891518e+00
    4.8165228510030413e+00 -1.0127486906532042e+00
    5.2454947952823732e+00 -8.8783013207941885e-01
    4.7759080922743493e+00 -9.0413847239147105e-01
    3.3564782156456028e+00 -9.7252562513778840e-01
    3.3754200403201686e+00 -1.0062515602517483e+00
    3.5263593894046510e+00 -1.0219128382740785e+00
    3.6546975014397529e+00 -1.0304675578381632e+00
    3.7316606627556008e+00 -1.0072560197783134e+00
    3.8787655995336960e+00 -9.3940731710229386e-01
    4.1228499912408854e+00 -8.4788484755732985e-01
    5.6622688297194692e+00 -8.1273563666667115e-01
    2.9037266801477211e+00 -1.0341641691581738e+00
    2.5258710972447052e+00 -1.2613434606430101e+00
    2.5254958246948012e+00 -1.3117370885561428e+00
    2.5196661645854288e+00 -1.2912327437598659e+00
    2.5122966628355048e+00 -1.3037705342975840e+00
    2.5186892302309585e+00 -1.2339061483729847e+00
    2.6548913307569082e+00 -1.0439004811098769e+00
    3.1514417029895259e+00 -8.4850908053678842e-01
    3.6473346118327381e+00 -8.2697437115084482e-01
    2.7584655318140925e+00 -1.1255140361798919e+00
    2.4589017386417678e+00 -1.3647072011983379e+00
    2.5000497390599121e+00 -1.2245765892579346e+00
    2.5277110933676816e+00 -1.1231041348771964e+00
    2.5224522465734518e+00 -1.1430347598753308e+00
    2.5285937992143261e+00 -1.1354380994290119e+00
    2.6264499505659722e+00 -1.0232800441025578e+00
    3.0575901671539083e+00 -8.3600489073130324e-01
    3.6630469927018772e+00 -9.0407571638893525e-01
    3.0025568298889382e+00 -1.0962032570500426e+00
    2.5346027717814543e+00 -1.1188556101203686e+00
    2.7326204960251030e+00 -8.6648230264923576e-01
    2.7182072691676011e+00 -8.1859191850761381e-01
    2.6870524205729800e+00 -8.7447528871220570e-01
    2.7148412396935111e+00 -9.2695714480766600e-01
    2.7471235916570871e+00 -9.2666479019557968e-01
    2.9659056218401898e+00 -7.8947963974391200e-01
    3.6249918133158823e+00 -9.2893188995805731e-01
    3.1886512710974158e+00 -1.0923231430191438e+00
    2.5966515874162615e+00 -1.0552707198258158e+00
    2.6591234522528775e+00 -8.8734298169961767e-01
    2.5145604354578155e+00 -1.0184337274305895e+00
    2.5528359109929490e+00 -1.1584290693369403e+00
    2.5569260475862978e+00 -1.1801157928565016e+00
    2.5827916586820612e+00 -1.1499321675418872e+00
    2.7824669351666027e+00 -9.0118178762274448e-01
    3.4943217606655304e+00 -9.2631431812929921e-01
    3.3947535431742804e+00 -1.1043878269348182e+00
    2.6253372428116597e+00 -1.1094486327130044e+00
    2.6418005751293250e+00 -1.0261111143478807e+00
    2.5547358530197672e+00 -1.2228226839818666e+00
    2.5921835954582879e+00 -1.3413172953541548e+00
    2.5143975596939403e+00 -1.3126364917308868e+00
    2.5385274295363152e+00 -1.2628795693646724e+00
    2.7608735179316186e+00 -9.5477190390040056e-01
    3.4985258279361444e+00 -9.2186422978713267e-01
    3.5270988088498023e+00 -1.1015599553579933e+00
    2.5990541192930356e+00 -1.1333112239366250e+00
    2.5633113415813997e+00 -1.1179553129188327e+00
    2.5090258819380367e+00 -1.2836782955386652e+00
    2.5031284768807396e+00 -1.3452844272361972e+00
    2.4728401832971163e+00 -1.3140250587214473e+00
    2.5288238298667327e+00 -1.2260755236645542e+00
    2.7584615847731890e+00 -9.3734969093680442e-01
    3.3046473205787117e+00 -9.1885823738630346e-01
    3.4325833149166445e+00 -1.0606472961782836e+00
    2.5964018582963009e+00 -1.0624323596775354e+00
    2.5974096719413633e+00 -1.0188016888278755e+00
    2.5921015215257399e+00 -1.0602489662578676e+00
    2.6069680577570185e+00 -1.0697600945463281e+00
    2.5615031449340173e+00 -1.0758236313939467e+00
    2.5652891403998339e+00 -1.0769365830238771e+00
    2.7439695462964315e+00 -9.1597745250434304e-01
    3.2810514158479851e+00 -9.8425898907279030e-01
    3.3154903357940384e+00 -1.0040273736718308e+00
    2.6672562111363800e+00 -9.6056692653533005e-01
    2.7705304146258509e+00 -8.7274675804142121e-01
    2.7083444582592162e+00 -8.5559019014070659e-01
    2.6975497594128766e+00 -8.8013312444583292e-01
    2.6370715260227584e+00 -9.6644750303232552e-01
    2.6017761541933959e+00 -1.0681794640758868e+00
    2.6944437990449441e+00 -9.3309752467331564e-01
    3.4039699049397560e+00 -1.0289516512412902e+00
    3.2981435030537862e+00 -1.0119627607808175e+00
    2.6877797227521940e+00 -1.0136819317670180e+00
    2.6951217728825365e+00 -9.7253198033847321e-01
    2.5282241676014330e+00 -1.0724085215209795e+00
    2.5419248391990346e+00 -1.1828134089662754e+00
    2.5458842954334937e+00 -1.2577044185491073e+00
    2.5617096090852347e+00 -1.2911419393133405e+00
    2.6508373552752693e+00 -1.0038516134014044e+00
    3.3947597075530589e+00 -1.0002399339256476e+00
    3.3184082597717475e+00 -1.0326076363603005e+00
    2.6476865165433749e+00 -1.0975435261277779e+00
    2.6523133079484631e+00 -1.0837428239991707e+00
    2.5693574586922563e+00 -1.2160916231351968e+00
    2.5684012641381107e+00 -1.3311315994713204e+00
    2.5057722315539102e+00 -1.3688303612152271e+00
    2.5234664036732743e+00 -1.3355644501142530e+00
    2.6671221695580209e+00 -1.0035192776575226e+00
    3.3356386473954265e+00 -9.5641102137194078e-01
    3.2007711862794723e+00 -1.0253502525207270e+00
    2.5206396189116451e+00 -1.0976483000757435e+00
    2.5633786373402221e+00 -1.1163290709194491e+00
    2.5391622950376278e+00 -1.1950500489949794e+00
    2.4875887987282708e+00 -1.2704527402575603e+00
    2.4626094374608924e+00 -1.2936251824606873e+00
    2.5061954310103847e+00 -1.1827458519045171e+00
    2.6789694574054010e+00 -9.3038150854914747e-01
    3.0865497952496392e+00 -9.1575777311142037e-01
    3.4680083266784285e+00 -9.7949695838623285e-01
    2.7676853071800376e+00 -9.1507417391663770e-01
    2.8319408100825791e+00 -9.0358015130859348e-01
    2.7866001738591635e+00 -9.1711089665233736e-01
    2.7017520590515400e+00 -9.4946705248403140e-01
    2.6811423185649916e+00 -9.3320959563848882e-01
    2.7053856371717075e+00 -8.8003017273500916e-01
    2.6498933653268262e+00 -8.5587089025390173e-01
    2.8737771738089077e+00 -9.3003530460113548e-01
    3.3700775030964083e+00 -9.4021710319856477e-01
    3.0301299287990910e+00 -8.3458059549429242e-01
    2.8247770893080348e+00 -8.2907712668422839e-01
    2.7456454906807775e+00 -8.2263984356032738e-01
    2.7255014167330587e+00 -8.2382570785886733e-01
    2.6800717584969243e+00 -8.2842486228719681e-01
    2.5537679811381220e+00 -8.9620867855365682e-01
    2.4534943053119207e+00 -1.0422203948415278e+00
    2.7028868004928333e+00 -1.0821742685965829e+00
    4.9222488269984082e+00 -9.8794292569313780e-01
    3.7680914306514945e+00 -9.5203439976647930e-01
    3.6957206988393754e+00 -1.0467477952617381e+00
    3.5704489527266756e+00 -1.0792593868260574e+00
    3.4934301803535712e+00 -1.0899999118062647e+00
    3.2735460083978385e+00 -1.1068632855983247e+00
    2.9528050441484326e+00 -1.1959918262183127e+00
    2.8549487776945379e+00 -1.3063204465467495e+00
    3.8045564576446651e+00 -1.2034712194992703e+00
    5.1954285525715846e+00 -8.7343616950711445e-01
    3.7088578008570590e+00 -8.9094732795121800e-01
    3.7154348225277269e+00 -8.9644954728417403e-01
    3.8125854614366612e+00 -8.9156757434879241e-01
    3.8273317106622353e+00 -8.6788331843182764e-01
    3.6976765433594250e+00 -8.3506135870858567e-01
    3.5856992630123767e+00 -8.0469971678836449e-01
    3.7035212248025613e+00 -7.9235648946159398e-01
    5.1452685293724141e+00 -7.9405928536109072e-01
    3.3439812896402108e+00 -9.2316445017229753e-01
    2.9678253218843840e+00 -8.7180278511666920e-01
    2.8401851616626543e+00 -7.8183507582318390e-01
    2.8243787516585166e+00 -7.7104487537070354e-01
    2.8493481554282938e+00 -7.6960554156731498e-01
    2.8409660961408338e+00 -7.5057062623269755e-01
    2.8314685137048334e+00 -7.4565999969493446e-01
    2.8829049105180702e+00 -7.8154328533278816e-01
    3.2252193694474016e+00 -8.5234317220514622e-01
    3.1856097798343201e+00 -1.2072889882042672e+00
    2.6537295083778663e+00 -1.1687448023427389e+00
    2.5562125134067681e+00 -1.0061003334712422e+00
    2.5398342948553565e+00 -1.0564770304900331e+00
    2.5569009037453019e+00 -1.1104312997900136e+00
    2.5652599827085014e+00 -1.0268462332139254e+00
    2.6394101968249921e+00 -8.8758679402313601e-01
    2.7211827054079070e+00 -8.1058593878225249e-01
    2.9482479545302103e+00 -9.1331779948396585e-01
    3.0116424100022696e+00 -1.3535477248641525e+00
    2.5335145981854019e+00 -1.4092910247759864e+00
    2.5218093063119804e+00 -1.2621015883798856e+00
    2.5467257474700040e+00 -1.4066829602530757e+00
    2.5691902203040979e+00 -1.5346799590160118e+00
    2.5076461271271984e+00 -1.4480437648132796e+00
    2.5118376167858618e+00 -1.2359816390255747e+00
    2.6664114300620816e+00 -9.5035559479846121e-01
    2.9798042804143092e+00 -9.7347117649428860e-01
    2.9914947573540656e+00 -1.2050228517233608e+00
    2.4980512514854585e+00 -1.1830189386620749e+00
    2.6282331305221747e+00 -9.6719664219919965e-01
    2.5560226096654572e+00 -1.0177097877965717e+00
    2.5180736360383480e+00 -1.1021423293350689e+00
    2.4546555974824353e+00 -1.1701881397621077e+00
    2.4934683166709593e+00 -1.2085740486641496e+00
    2.7011746635298723e+00 -9.7751682233086701e-01
    3.2322042944691622e+00 -9.9145324803211288e-01
    3.1602151319375178e+00 -1.1157215082981478e+00
    2.5775541950704293e+00 -1.0437983509840021e+00
    2.8421596177571837e+00 -8.1296022683778291e-01
    2.6800276802698977e+00 -8.2214055280630527e-01
    2.6884014288912699e+00 -8.8717379456264334e-01
    2.5985114256172790e+00 -9.7503110798573678e-01
    2.5563506488824355e+00 -1.0723933476823946e+00
    2.7594292123475075e+00 -9.2100363197003032e-01
    3.4597627401470845e+00 -1.0052364480366864e+00
    3.1490097095279053e+00 -1.0837476698301203e+00
    2.5696910816197795e+00 -1.0877736816926620e+00
    2.7090944139564286e+00 -8.9940520935875157e-01
    2.6254255703922977e+00 -8.4250844271023018e-01
    2.6533137462361824e+00 -8.5494784053523454e-01
    2.6124554075236142e+00 -9.2021353853690524e-01
    2.5651762095018502e+00 -9.8771450750339418e-01
    2.7160060914038313e+00 -8.7792457923287348e-01
    3.3920534919898113e+00 -1.0120886883755775e+00
    3.1281203040069259e+00 -1.0685705790636595e+00
    2.5299712285651355e+00 -1.1558677502375709e+00
    2.5464719891799241e+00 -1.1298810596997395e+00
    2.5403756455710669e+00 -1.1447774793604970e+00
    2.5622129954540296e+00 -1.1417262052199033e+00
    2.5424789153024103e+00 -1.1624033223068642e+00
    2.5450710105661121e+00 -1.1343239308850193e+00
    2.6467493692036026e+00 -9.2176312448340780e-01
    3.1874865142797333e+00 -9.8802346164035149e-01
    3.1940294402385581e+00 -1.0617916193502432e+00
    2.5431543012988933e+00 -1.1002434630162909e+00
    2.5175256204378900e+00 -1.1318144212541974e+00
    2.5014424444261927e+00 -1.2762998719786323e+00
    2.5027504801776406e+00 -1.3480975313129506e+00
    2.4920917925387012e+00 -1.3800352309803909e+00
    2.5545329601420925e+00 -1.3405439206749121e+00
    2.6354704456601472e+00 -1.0093878818496662e+00
    3.0535440919685164e+00 -9.7858809039019190e-01
    3.3474976443038913e+00 -1.0306261475870129e+00
    2.6746396460140183e+00 -9.5141740515929363e-01
    2.8099857693428216e+00 -8.6501461423972370e-01
    2.6806411464790223e+00 -9.1806515463573046e-01
    2.6076680769172191e+00 -9.8831753677118384e-01
    2.4819237222830375e+00 -1.0864845897295612e+00
    2.5102727305935857e+00 -1.1883605265341910e+00
    2.6995824314431509e+00 -9.7702401266900840e-01
    3.2272834619556798e+00 -9.8491809068790781e-01
    3.2737609948867368e+00 -1.0237702932864912e+00
    2.6852021361379435e+00 -9.4234605160830809e-01
    2.9014880949659738e+00 -7.8835197172554039e-01
    2.8209620600238603e+00 -7.7119639435054854e-01
    2.7903618378348836e+00 -8.2951377355444966e-01
    2.6258856026477715e+00 -9.3520559909744583e-01
    2.5469632609270447e+00 -1.0402893364224564e+00
    2.7265679915089400e+00 -9.1720783185332666e-01
    3.4081295063573793e+00 -1.0404005655399027e+00
    3.0175204353894718e+00 -1.0719152549453290e+00
    2.5817595134563023e+00 -1.0746638315874046e+00
    2.6820535162695642e+00 -9.1092244313453030e-01
    2.7027054776693338e+00 -8.3164538559420853e-01
    2.6614285247929947e+00 -8.6397199387207757e-01
    2.6127223138002083e+00 -9.4880472993251186e-01
    2.5759669831309187e+00 -1.0070164800845485e+00
    2.6331304845842545e+00 -9.3927968235812287e-01
    3.3065156494058243e+00 -1.1748534461977520e+00
    2.8189673370177295e+00 -1.0932736013438060e+00
    2.4743832870928419e+00 -1.2067340526605410e+00
    2.5159561391592224e+00 -1.2057122320318587e+00
    2.5397075253203689e+00 -1.1710034682207895e+00
    2.5395051994063356e+00 -1.2171853724943382e+00
    2.5447337981130245e+00 -1.2964325991704833e+00
    2.5584441025370013e+00 -1.3023100660232951e+00
    2.6277577628743756e+00 -1.1960784146973424e+00
    3.2193013268691764e+00 -1.3079361971548797e+00
    2.8741398519737249e+00 -9.0628198653332392e-01
    2.4955510986725100e+00 -9.9355428886444497e-01
    2.4649639710733720e+00 -1.1048381629045485e+00
    2.4697308032505370e+00 -1.1706504862217011e+00
    2.4638843843456724e+00 -1.2239437008813607e+00
    2.4622120902113287e+00 -1.2552046243264248e+00
    2.5109705633644528e+00 -1.2419915428365351e+00
    2.6799412430054432e+00 -1.1738670904140411e+00
    3.1067353933215096e+00 -1.0891305695164182e+00
    4.7308538232106354e+00 -7.4477005122169659e-01
    3.4523515323177425e+00 -7.6679066147686781e-01
    3.4571115234066969e+00 -8.1816590535181777e-01
    3.5072473244245312e+00 -8.7211382941218518e-01
    3.5956365841688296e+00 -9.1924602989742821e-01
    3.5694221946551723e+00 -9.7254229783806223e-01
    3.4422970908474118e+00 -1.0870957417346130e+00
    3.3624496841052691e+00 -1.1647698426637418e+00
    4.8240659096224796e+00 -1.0573420864113228e+00
    4.9348674328840829e+00 -7.7931949991029570e-01
    3.5955642031342525e+00 -7.8933303826469947e-01
    3.6576431829483798e+00 -8.1570243104208540e-01
    3.7833689752218103e+00 -8.2874953087918057e-01
    3.7855182039837527e+00 -8.4045211891131932e-01
    3.7611397501110591e+00 -8.7374518105741417e-01
    3.7569976282337305e+00 -9.0330754127509150e-01
    3.6912890184596647e+00 -8.9079519174390387e-01
    5.1677269632772900e+00 -8.7772941466716670e-01
    3.1211632994091558e+00 -8.0043624995310836e-01
    2.8403788993276713e+00 -7.3740455985674946e-01
    2.8207123609665343e+00 -7.5999723410628428e-01
    2.8328127951263089e+00 -7.6536692264711181e-01
    2.8303700145374227e+00 -7.5022598453896217e-01
    2.8319288515657788e+00 -7.6812221827848060e-01
    2.8687208031408824e+00 -8.3228850262700649e-01
    2.9967901981103617e+00 -9.0704412849648197e-01
    3.3796523212635310e+00 -9.2610080162504227e-01
    2.8890945549609328e+00 -8.9221486313202758e-01
    2.6216352951969077e+00 -8.2516920436769281e-01
    2.5494026772846592e+00 -1.0228344575385724e+00
    2.5429090511879298e+00 -1.1053145444798123e+00
    2.5544466975313451e+00 -1.0504095469260488e+00
    2.5823638498352657e+00 -1.0167852270370217e+00
    2.6235339784102849e+00 -1.0336426756527459e+00
    2.7021500049360481e+00 -1.1138723730781317e+00
    3.2060410194527931e+00 -1.1102137802850323e+00
    2.9784132035902218e+00 -1.0588973325822206e+00
    2.5564115970251913e+00 -1.0878122552686496e+00
    2.5725109432277669e+00 -1.5189857465275838e+00
    2.5453039213813442e+00 -1.5396122448838199e+00
    2.5074151430077003e+00 -1.3833629546424508e+00
    2.5385786982979619e+00 -1.2957105391576926e+00
    2.5656456926408895e+00 -1.2276480982388716e+00
    2.5474472894037943e+00 -1.2881075053771467e+00
    3.1398860140670939e+00 -1.2366802439145874e+00
    3.1697899923274826e+00 -1.0339375746974357e+00
    2.5971588607578560e+00 -1.0797853240406945e+00
    2.4918146513643440e+00 -1.3482815690298342e+00
    2.4546799182523169e+00 -1.1325296215848724e+00
    2.5984678160385029e+00 -9.7828969220799944e-01
    2.6375153622004381e+00 -9.6598615006877719e-01
    2.6598068652922775e+00 -9.8798970400516017e-01
    2.5443252908384513e+00 -1.1693290401132539e+00
    3.1327551228212434e+00 -1.1630533635014892e+00
    3.4590831518977585e+00 -9.9738177857123222e-01
    2.7110485380437850e+00 -9.4481432664325771e-01
    2.5441517507920586e+00 -1.0888312771848256e+00
    2.6739910132913614e+00 -8.9712325777882573e-01
    2.8972236559176934e+00 -7.9412633222581219e-01
    2.7302630597390616e+00 -8.1547287732976059e-01
    2.7152102178038886e+00 -8.7808723358515028e-01
    2.5821689985179863e+00 -1.0959282655439364e+00
    3.2085306751142659e+00 -1.0997782313461728e+00
    3.5529759807943240e+00 -1.0220322828802475e+00
    2.7440644034688653e+00 -9.0357910924463025e-01
    2.6053760117096312e+00 -9.7826196502186546e-01
    2.7011453466297528e+00 -8.5392814143329931e-01
    2.7462998216904748e+00 -7.9880936760647148e-01
    2.6144071942793610e+00 -8.5046968955957347e-01
    2.6088959316784592e+00 -9.4659662554905033e-01
    2.5644816233793697e+00 -1.1420675359030996e+00
    3.1689138693922874e+00 -1.0877199496227825e+00
    3.4330828460634102e+00 -1.0282791758729399e+00
    2.6707156352746781e+00 -9.6515810263957091e-01
    2.5544745535639648e+00 -1.1005836919621714e+00
    2.5671935095605320e+00 -1.1054071451092251e+00
    2.5748197894929028e+00 -1.1080471926677693e+00
    2.5349188011071910e+00 -1.1282406607166056e+00
    2.5329817237792409e+00 -1.1193597954962891e+00
    2.5536896462284511e+00 -1.2216531093538319e+00
    3.2108517112890183e+00 -1.1320237060736675e+00
    3.2830130454294326e+00 -9.9378316176191395e-01
    2.6576203200232325e+00 -1.0375115885952020e+00
    2.5517656866525669e+00 -1.2762608970755505e+00
    2.4935027989708760e+00 -1.3210532428289927e+00
    2.4971437468515636e+00 -1.2930397118351338e+00
    2.5172870426308136e+00 -1.2394802771866151e+00
    2.5537402039563388e+00 -1.1327588690724339e+00
    2.5378477628648897e+00 -1.2162837552897723e+00
    3.2906735740587720e+00 -1.2010075091459218e+00
    3.3698688682233682e+00 -9.2552281002852532e-01
    2.7807645483758110e+00 -9.2998150759164522e-01
    2.5930811304845345e+00 -1.0594332292126729e+00
    2.5489612401191444e+00 -9.7511639179025367e-01
    2.6723803654356342e+00 -9.1714317941076262e-01
    2.6730731899202378e+00 -9.2309755210460231e-01
    2.6823234151156230e+00 -9.2863478281701484e-01
    2.5503217340245805e+00 -1.1301804541416987e+00
    3.2994907786448064e+00 -1.1740533899304118e+00
    3.3587109960438775e+00 -9.2056672033185627e-01
    2.8261555094521804e+00 -8.4564202438329994e-01
    2.7124969761669142e+00 -9.0031913571849720e-01
    2.8132446555723409e+00 -8.1561967841308214e-01
    2.9140471813927440e+00 -7.7441762568783445e-01
    2.7148486055855647e+00 -8.0125897742467522e-01
    2.6520193864839996e+00 -8.8082532250801893e-01
    2.5380446186427905e+00 -1.1379340552618447e+00
    3.1396929755657834e+00 -1.1223030047948117e+00
    3.1674620694062736e+00 -9.9290322524945895e-01
    2.7086641589086646e+00 -8.5154723320843895e-01
    2.7444772290022481e+00 -8.7955985212973620e-01
    2.7816734179261124e+00 -8.5268268037656048e-01
    2.7162593056633448e+00 -8.3328231108335504e-01
    2.5840550921131924e+00 -8.8867176436383222e-01
    2.5305391781422624e+00 -1.0482063662678991e+00
    2.5142762963882652e+00 -1.2809443511100165e+00
    2.8498482402482765e+00 -1.1363355149183250e+00
    3.1456898864688316e+00 -1.1253234088284996e+00
    2.6541036173030892e+00 -1.0502980246391649e+00
    2.6085248946376565e+00 -1.1330092678916697e+00
    2.5730674452144506e+00 -1.1767104802518247e+00
    2.5548668988346313e+00 -1.2138114337996302e+00
    2.5430634935895444e+00 -1.3358986289930910e+00
    2.5598976372261912e+00 -1.4695686164144914e+00
    2.4954229007976956e+00 -1.3983027237983228e+00
    2.6831109955777679e+00 -1.1201692892175523e+00
    3.2091708270958050e+00 -1.0151421119829032e+00
    2.7287130540291988e+00 -1.0688821008561435e+00
    2.5407705281109179e+00 -1.1324966169344690e+00
    2.4805716633604771e+00 -1.1942661169992754e+00
    2.4969518001290489e+00 -1.2727723000223006e+00
    2.5181153242146164e+00 -1.3649569793447045e+00
    2.4864234228830822e+00 -1.3122487146445634e+00
    2.4486981507469787e+00 -1.0680359276649825e+00
    2.7571901831128791e+00 -8.9047172636554006e-01
    5.0449847273899096e+00 -9.6593285793998018e-01
    3.4127102390198427e+00 -1.0525397639642708e+00
    3.4924370534861042e+00 -1.0674963466117435e+00
    3.5436243598303498e+00 -1.0114015405467240e+00
    3.4695600120127921e+00 -9.8714187596444702e-01
    3.2601077669888983e+00 -9.8329315889675917e-01
    3.1608328123373983e+00 -8.9898354951020332e-01
    3.3484605595292765e+00 -7.6721216284150140e-01
    4.6449355856199848e+00 -7.0260718211409934e-01
    5.2030282237369843e+00 -8.5496206334859648e-01
    3.7759542253308487e+00 -8.9476948463562844e-01
    3.6825230627356240e+00 -9.7128526319972297e-01
    3.7357530941038357e+00 -1.0055670888823394e+00
    3.6918281567881497e+00 -1.0123915939073207e+00
    3.5406283894884187e+00 -1.0102518143927042e+00
    3.3856638122725560e+00 -9.6697431162467173e-01
    3.3989268001393178e+00 -9.0486427196225439e-01
    4.9045035590976243e+00 -8.3733236131153799e-01
    3.3285463889991016e+00 -9.1535576997173640e-01
    2.8444427309680056e+00 -9.9118947494302723e-01
    2.5496327608300784e+00 -1.2093107597089321e+00
    2.5338036957415420e+00 -1.2828005609152506e+00
    2.5283906730682024e+00 -1.2784434252519681e+00
    2.5133390533097253e+00 -1.2990973048313823e+00
    2.4887997121791021e+00 -1.2394722341909683e+00
    2.5586918717894704e+00 -1.0728974325633984e+00
    3.1228122384784447e+00 -8.8798214001170139e-01
    3.4528637349148359e+00 -9.7698966642475638e-01
    2.8066939050071409e+00 -9.3336429140828980e-01
    2.4906937037162313e+00 -1.1569456001719809e+00
    2.5150709152104485e+00 -1.1570824423785917e+00
    2.5519728796861232e+00 -1.0931464449834425e+00
    2.5128113684922031e+00 -1.1563466729835343e+00
    2.4737086552384717e+00 -1.2548481366352995e+00
    2.4425108529991744e+00 -1.2014225198999773e+00
    2.8734083209117909e+00 -9.5836478229558386e-01
    3.3792932432925684e+00 -9.1442408033137990e-01
    2.7362591553626414e+00 -8.2726990841089032e-01
    2.5872745002909214e+00 -9.8941635153763918e-01
    2.7005974539176778e+00 -9.0138897506453308e-01
    2.8155562776528056e+00 -7.9814848109692493e-01
    2.7356618140379041e+00 -8.1873468566028307e-01
    2.6503798370415415e+00 -9.4572880766224587e-01
    2.5301283903254768e+00 -1.1111524388643423e+00
    2.9657841748004099e+00 -9.8998044992928236e-01
    3.1880806215444935e+00 -9.2315540905725180e-01
    2.5878507507730770e+00 -9.7712454764784540e-01
    2.5402197698818418e+00 -1.2620493860760922e+00
    2.5371233357978520e+00 -1.1537389799383833e+00
    2.5718160242487045e+00 -1.0226529473626116e+00
    2.5583136987728521e+00 -9.4610043855669013e-01
    2.6481911492540902e+00 -9.2054801271986630e-01
    2.5910660480391794e+00 -1.0766616916270073e+00
    3.1612470010654588e+00 -1.0147718230110412e+00
    3.3288186384412288e+00 -9.1907121176174755e-01
    2.6488396032824442e+00 -1.0297612932369300e+00
    2.5809205705439688e+00 -1.3830536939109614e+00
    2.5126036753888332e+00 -1.2968996026770601e+00
    2.5591641757060399e+00 -1.1932877827634658e+00
    2.5494955061379634e+00 -1.1225309396119350e+00
    2.5973658034926141e+00 -1.0367449309246237e+00
    2.5864758599828224e+00 -1.1359571797637908e+00
    3.3438854288223245e+00 -1.0538656287327919e+00
    3.3769233436571819e+00 -8.8233017246581036e-01
    2.7255958254980142e+00 -9.3500729534109717e-01
    2.5510421895629465e+00 -1.2278269990731663e+00
    2.4637065818871342e+00 -1.2797040886352846e+00
    2.4830944482150978e+00 -1.2611057207136975e+00
    2.4963698764968165e+00 -1.2281045528636496e+00
    2.5059410224274936e+00 -1.1530250322609767e+00
    2.5237773872147304e+00 -1.2194873203332552e+00
    3.2791472702037994e+00 -1.0992125870380989e+00
    3.2745692632136145e+00 -8.9575620096605779e-01
    2.7180648221297417e+00 -8.7835044341086610e-01
    2.6129915541566611e+00 -1.0044797571564159e+00
    2.5906185334547724e+00 -1.0235401282745593e+00
    2.6104165086127318e+00 -1.0354496939938023e+00
    2.5776158679060583e+00 -1.0452922926360151e+00
    2.5523819493015902e+00 -1.0629753650862193e+00
    2.4994156724299534e+00 -1.2001238466894144e+00
    3.1203129434011281e+00 -1.1062329509297526e+00
    3.2192879521029751e+00 -9.2753703107881291e-01
    2.6446982119547111e+00 -9.2231516710302031e-01
    2.5920183845540086e+00 -9.7044806533332839e-01
    2.6840447577364070e+00 -8.8471700799358755e-01
    2.7425221233893096e+00 -8.4120756578431166e-01
    2.6594945742899618e+00 -8.5221329883780417e-01
    2.6895792691671310e+00 -9.1590033775026869e-01
    2.5453951548170104e+00 -1.1211762754949952e+00
    3.0869763787632536e+00 -1.0695487774294019e+00
    3.2728328244012426e+00 -9.4841256703712729e-01
    2.6202718556781188e+00 -1.0316426027686469e+00
    2.5530273508825050e+00 -1.2348515636181110e+00
    2.5368889592947861e+00 -1.1691745435069736e+00
    2.5602641824073737e+00 -1.0912851641277179e+00
    2.5051763881218538e+00 -1.0283892882528496e+00
    2.5952475661143657e+00 -9.8299068942541201e-01
    2.5764353900292365e+00 -1.1491712597129846e+00
    3.2227398011651420e+00 -1.0841167984425395e+00
    3.4031380426170639e+00 -9.1970844261605111e-01
    2.7067484450278383e+00 -1.0053963185843389e+00
    2.5579252430983597e+00 -1.2700138441035018e+00
    2.5072384199089655e+00 -1.2747032960420734e+00
    2.5537009539435980e+00 -1.2293336000056736e+00
    2.5275346128590503e+00 -1.1858182649392712e+00
    2.5455013403894742e+00 -1.1209777470612836e+00
    2.5658716236280994e+00 -1.2401686353502492e+00
    3.3544629305163562e+00 -1.1314356585437362e+00
    3.2905662414325714e+00 -8.8298819379545690e-01
    2.7589792265752360e+00 -9.1201573738460839e-01
    2.5389420695651106e+00 -1.1212133832832416e+00
    2.4649146091470695e+00 -1.2135144617742530e+00
    2.4825500275110266e+00 -1.2186023778220667e+00
    2.5103423816947652e+00 -1.2223626918778212e+00
    2.5263467822054690e+00 -1.1996308251513408e+00
    2.5191597117957958e+00 -1.2306714271811978e+00
    3.3208358855264271e+00 -1.1273566343678383e+00
    3.0975816769482880e+00 -8.4751260169081710e-01
    2.7673719615365875e+00 -8.0760774295832671e-01
    2.7827101245346735e+00 -8.7235011898924186e-01
    2.7113315529660986e+00 -9.3338828429685139e-01
    2.6896168131763591e+00 -9.4697858667275236e-01
    2.6638458523463573e+00 -9.5080781102067591e-01
    2.6691065018367119e+00 -9.5198688372040086e-01
    2.7056198184735107e+00 -9.6499739637762105e-01
    3.4750129586167833e+00 -1.0432281909577346e+00
    2.8138541185646369e+00 -9.2389808453924971e-01
    2.5296102967576739e+00 -9.2324593530848342e-01
    2.6171448510187032e+00 -8.8156616568292645e-01
    2.6712058078790348e+00 -8.6801218978861983e-01
    2.6455647219259468e+00 -8.7401613535538236e-01
    2.5698519130126174e+00 -9.0381626623680511e-01
    2.6068119423785459e+00 -9.0915873233201838e-01
    2.8867673258007653e+00 -8.7752054425190829e-01
    3.2758817401493383e+00 -1.0021221426788050e+00
    3.9137478937681842e+00 -1.0076690338649170e+00
    2.8506815011930007e+00 -1.0980943061638175e+00
    2.9910680223235495e+00 -1.1297744086294363e+00
    3.2613587702402826e+00 -1.1461934757084946e+00
    3.3736854099099562e+00 -1.1808461458677075e+00
    3.3303698929184451e+00 -1.2452016000345771e+00
    3.3578801829143430e+00 -1.1946735941799471e+00
    3.5739873654264458e+00 -1.0128368840722168e+00
    4.8081433510570308e+00 -1.0399739935237795e+00</input_scale>
  <output_scale>
    5.2631578947368418e-01 4.9999999999999994e-01 5.2631578947368418e-01
    4.9999999999999994e-01 5.2631578947368418e-01 4.9999999999999994e-01
    5.2631578947368418e-01 4.9999999999999994e-01 5.2631578947368418e-01
    4.9999999999999994e-01 5.2631578947368418e-01 4.9999999999999994e-01
    5.2631578947368418e-01 4.9999999999999994e-01 5.2631578947368418e-01
    4.9999999999999994e-01 5.2631578947368418e-01 4.9999999999999994e-01
    5.2631578947368418e-01 4.9999999999999994e-01</output_scale>
  <inv_output_scale>
    1.8999999999999999e+00 -9.4999999999999996e-01
    1.8999999999999999e+00 -9.4999999999999996e-01
    1.8999999999999999e+00 -9.4999999999999996e-01
    1.8999999999999999e+00 -9.4999999999999996e-01
    1.8999999999999999e+00 -9.4999999999999996e-01
    1.8999999999999999e+00 -9.4999999999999996e-01
    1.8999999999999999e+00 -9.4999999999999996e-01
    1.8999999999999999e+00 -9.4999999999999996e-01
    1.8999999999999999e+00 -9.4999999999999996e-01
    1.8999999999999999e+00 -9.4999999999999996e-01</inv_output_scale>
  <weights>
    <_>
      -6.0491971864133898e-01 -5.1954346673916796e-02
      1.1833574073136038e-02 1.0189023644955808e-01
      1.0278376606195183e-01 3.1831143003992098e-02
      1.2967977423357449e-01 9.5445665430732046e-02
      -1.2325255550752791e-02 6.2995687356386595e-02
      1.7943063507980778e-02 -7.1360118347789686e-02
      7.0098932942892350e-02 3.5544016738811947e-02
      2.6648923216557131e-02 2.3179666891800552e-02
      -2.7908974792717204e-02 -4.7051650674684933e-02
      1.7088616063233508e-01 -5.6405313643960828e-02
      1.5193159103360562e-01 2.0693692855404638e-01
      1.4677231468921659e-02 3.8155501163092950e-02
      -1.9048736645216075e-02 4.1508076310348689e-02
      5.1280125970584074e-02 9.1190830970052997e-02
      3.5526757224676596e-02 5.7803798120317836e-02
      5.7842936780779459e-02 1.4431328695148052e-01
      1.1021594388242770e-01 9.3898628287100300e-02
      -1.4299670263044661e-01 -5.0682957917246467e-02
      4.9964980034044759e-02 9.5731297680149041e-02
      4.1280446351833346e-02 -4.9867552046673463e-03
      5.0211054382046080e-02 1.4255569394603027e-01
      5.0930557705344666e-02 2.5512935178403234e-01
      5.5139885274099340e-02 1.3408131092388889e-01
      -1.2835449127286153e-01 -6.9404581174180666e-03
      4.9000718359470841e-02 9.1041381643119271e-02
      -4.0815826347300951e-02 -1.9240503900340356e-01
      -4.1947089094035481e-02 -3.9869324000686275e-02
      -4.3876874169785911e-02 -1.3711385162106926e-02
      4.0957275477925152e-02 -1.3074831046669702e-01
      -9.5413901052563227e-02 -1.9372942434261034e-02
      2.1337112811169897e-02 9.5715974542350299e-02
      4.3744761039958445e-03 -1.1473656163055868e-02
      9.5490336183461422e-02 -5.8314205750901738e-02
      1.6368326186464210e-01 2.6824474782707452e-02
      -4.2564384065240768e-02 -5.6192013878375739e-02
      -5.4298012715958473e-02 8.2440039749478360e-04
      1.6000574480434862e-01 -4.2595243181075160e-02
      3.9863065440819169e-03 -1.4229829568770835e-01
      3.5268234074856727e-02 6.5149097880637441e-02
      5.3899818756439011e-02 5.1987072683663225e-02
      7.9990798182885223e-02 -1.1490623202910831e-01
      -1.6381701853262924e-02 -6.8139315018908603e-02
      -5.2275658920014796e-02 6.0570665528329563e-02
      6.5699553044380452e-02 -3.9399355887743126e-03
      -3.1298656465040431e-02 -7.9700386217158692e-02
      1.4579624575971976e-02 -1.9776948697479269e-01
      -1.3531226574617099e-02 -3.1549974940014214e-02
      1.5783088696517639e-02 -6.4572541852402410e-02
      -8.3626197451582659e-02 2.0175454609729065e-02
      -1.5865747918997922e-02 1.6560007241962463e-01
      -1.4939127243541966e-01 1.4320756164136932e-02
      8.8558522461174863e-02 6.5338883135972123e-02
      1.6802536289444131e-01 9.6896420843020331e-02
      -1.2108551930407369e-03 9.4019218448483474e-02
      -9.0313131878543812e-02 1.0112630006157357e-01
      -8.7990460176606503e-03 -4.8484802759963634e-02
      -7.2022784967746237e-02 1.7694516992205464e-02
      -4.2713297802862947e-02 8.9803619657437925e-02
      1.0838678610213792e-02 -1.7110235770217350e-01
      1.0566290793184929e-01 -2.1976440680356460e-03
      1.3918542554673924e-01 7.9222315601863269e-02
      1.7221089309522866e-01 9.3232893023691019e-02
      -2.8824764116789747e-04 -1.2048440526467778e-01
      -3.0655516154590508e-02 -2.7340825210967316e-02
      -1.6866256445917358e-02 3.7302371546404443e-02
      -8.2918785063560124e-02 4.0245138267915515e-01
      -1.0869813572338700e-01 -1.8361348144861289e-02
      6.4593071185848366e-02 -1.7902856556986313e-01
      7.7241765139357044e-02 -1.6859090195812616e-02
      2.4164897056467047e-02 -1.2844291482922240e-01
      -1.2082907606826986e-03 4.9559800208322811e-02
      -3.1067134308308604e-02 2.0265370692640997e-01
      6.9041562909341880e-02 2.3575490161754510e-02
      4.6322254867814459e-02 -7.5941722618921140e-02
      -1.1712221658960453e-01 -5.5803357243682052e-02
      -1.7189940949221303e-02 -5.5196017941843110e-02
      -1.5812815410803266e-01 1.1327291344808060e-01
      -5.4849895037757487e-02 -5.7005570260710729e-02
      -5.7072652537275871e-02 -1.0685922152739877e-01
      -5.7315914688027117e-02 1.5755432968349076e-01
      -1.2520123385313370e-01 8.1424444289934395e-02
      -3.2149215006883204e-02 -3.1674883718269341e-02
      -5.2211347722724705e-03 -1.6632654135663830e-01
      -2.8671129566674832e-02 -2.9232594918761595e-02
      -1.7422438083520543e-02 -1.0203787245676821e-01
      -3.8497799014287459e-02 -3.8271388626630300e-02
      1.6262108145909457e-01 2.0676612060721208e-01
      4.2887683868143796e-02 -2.9792034252666633e-02
      2.4888571890369224e-01 6.1948059695048845e-02
      1.3951082129430337e-01 6.7493367061561366e-02
      -7.7432524436988073e-02 -5.6557356050347930e-02
      -1.6910803767950060e-02 -4.2145968163985643e-02
      -1.1407780369907884e-01 -9.2472476744063739e-02
      -8.0982201422981626e-02 2.7982501210876764e-02
      7.3661271359430319e-02 -1.5709670326046277e-01
      -2.4681028552016038e-02 -2.9935815652195358e-02
      9.1001785976580263e-02 -1.7967806481366405e-01
      6.5544470037968955e-02 -1.0006245810811691e-01
      -3.5442939566635974e-02 1.4439533637066887e-01
      5.4032603150511373e-02 2.2943519063868847e-01
      -3.9175538723768866e-01 -7.3122449341378362e-02
      1.2818165472556747e-02 1.1171607600901053e-01
      5.4511384683228518e-02 6.2912947409619835e-02
      -3.9604841151811537e-02 -1.3340575996132020e-01
      -5.5441251303232041e-02 2.2120608736053327e-01
      -9.3930733467891270e-02 -2.6698929398365472e-02
      -3.6304972440809088e-02 1.4644471511729626e-01
      3.8027737298711528e-03 8.1015869689978856e-02
      1.0426270366818043e-01 2.2168204774862751e-02
      -7.1783427186614887e-02 1.8238052128817080e-02
      -1.5553666753557802e-01 -2.3139059199093980e-03
      1.1321952117498514e-01 1.9733487574614139e-01
      -8.9821150749813759e-03 -2.8793804245405962e-02
      -6.0123901229975740e-02 -2.2481342152102007e-01
      2.3271854943983228e-01 1.9460277576620227e-01
      -1.8893177902510758e-01 -1.7813098069416240e-02
      -1.7380718933192936e-02 5.3879078063389874e-02
      8.9898253860464655e-02 -1.6797169040480611e-01
      -5.7197868025047498e-02 -6.8762158302112283e-02
      -5.4992745779779958e-02 -2.2582527803212299e-01
      -5.6840921120850790e-03 2.7602797779992031e-02
      -7.8661988976865715e-02 1.9198925722740026e-01
      1.3848989406386608e-01 5.4781099725040670e-03
      1.9585918392162385e-01 -3.6506353610607459e-02
      -7.9380984655537279e-02 -8.5542555195051703e-02
      6.0707678182365672e-02 9.4450466520788444e-03
      -1.4978146595429939e-01 1.1921394677583787e-01
      -1.2381223709047068e-01 3.7774343857845387e-02
      -9.4434011161664569e-02 -1.1228084995850126e-02
      1.1833975362784595e-01 9.8382924549998738e-02
      -4.0402221933224305e-02 -4.7324591070954429e-02
      -6.4177140232879251e-02 4.7291947728697915e-02
      6.8670105147893221e-02 -2.6782585228141964e-01
      -1.1555738037310555e-01 -1.5296331483109132e-01
      1.6325499303595342e-01 1.1307307715303945e-02
      -4.3050998174331834e-02 -3.0709160127726681e-01
      7.6447143508755486e-03 -5.2302123908566159e-02
      -4.2955083125150839e-02 1.7023751732978720e-01
      2.2549294878987167e-01 4.3472847082980527e-02
      -1.5336051860591036e-02 -8.1708582976292549e-02
      -7.3474401521078057e-03 -1.1082344033078002e-01
      2.0640522358154213e-02 -5.7799680474565109e-03
      3.7763892504928336e-02 9.5943502303358491e-02
      -1.1446089985583027e-01 4.9250181384086135e-02
      5.3325365432419308e-02 -1.0820594879830389e-01
      1.4485382604332242e-01 2.5093168778623026e-01
      2.9887094883539082e-02 -1.1455089598437375e-01
      3.2437558731902773e-02 -1.1467260690599967e-01
      -1.5656777389776250e-02 3.5490333207141550e-01
      -1.6955514859300101e-02 -1.0245467062772809e-02
      -8.2176483858115934e-01 1.4274636430666263e-02
      1.8225723458609462e-02 5.4297279939993920e-02
      6.8622709506994561e-02 -3.3267538202326787e-02
      1.1219398934768013e-01 -8.0237478753750674e-02
      -7.7772769987201687e-02 7.5281777643937522e-02
      -4.3523216782577499e-02 -9.1916304298358717e-02
      -7.9025069090576938e-02 1.9556284939045258e-02
      4.3767251921443241e-02 1.4500028688891517e-02
      -3.9348649789762808e-03 1.1693304857784151e-01
      -5.2390585930335971e-02 -2.3914107643034831e-02
      -3.3994003876443434e-02 6.8259698855828430e-02
      -4.1820152815084111e-02 1.5083654677749450e-01
      2.6611109720175469e-02 1.2061783607599162e-01
      9.2976889916470601e-02 -8.3096848003078941e-02
      2.4347658779870970e-01 -9.8997415180706819e-03
      -1.4535126912255755e-01 1.2386810943997920e-01
      -4.5635868441549494e-02 1.5549446708819603e-02
      1.1424938226590503e-01 -8.7213549257523171e-02
      9.8895204320923209e-03 1.3398540912246887e-01
      2.5933907280770434e-02 6.3603506569954449e-02
      3.5338961995785741e-02 5.4426162807506617e-02
      -1.2114693573550409e-01 5.4876152441961590e-02
      6.1288796303538999e-02 1.1158631176171374e-01
      1.0351393836238983e-01 -2.1863634578760646e-01
      5.4022400520089955e-02 2.1472515712654761e-01
      -4.3675769175300964e-02 -8.7058037627684048e-02
      -1.2683982869613103e-01 4.6233287261753173e-02
      -1.1638626253148168e-01 -8.1218976175892646e-02
      -9.1689425567994212e-02 -1.2939633921974528e-01
      3.5718284662471358e-02 1.0461200041208726e-01
      -3.9652096970849848e-04 5.5119629327716031e-02
      -2.6648484186995992e-02 -6.3156348199719298e-02
      6.3966515974584762e-02 -1.9429148329371060e-01
      -8.4307991651954961e-02 3.5155807974614268e-02
      5.6703913235273518e-02 -4.3372018613623421e-02
      -6.5072148120394219e-02 -2.1824632619976708e-01
      1.0196930558859615e-01 -3.8544746360227998e-02
      5.4567778867890958e-02 6.9784170033156484e-02
      7.6286228465971731e-02 7.2006346436950450e-04
      1.0896759779029831e-01 -7.0333052282613676e-02
      5.8000947123216365e-02 -7.5039357716588262e-02
      -1.1418634712433460e-02 -3.1534378348040118e-03
      -1.3131758001822730e-01 -8.1721513332815465e-02
      1.7675767956040483e-01 2.2048387852179380e-01
      -1.2813182416123822e-01 -1.8728230462241371e-01
      2.9443909380175624e-03 1.6796441353191635e-01
      3.4495789545005942e-02 -3.2726787070312742e-02
      -4.7919931286894625e-02 3.3457357880400586e-02
      -1.3638311880468157e-01 2.7189291583493735e-01
      3.5825654500222334e-02 -1.3399417856333784e-01
      -2.2354861572306750e-01 -6.1965347826187511e-02
      2.9714365827040724e-02 3.1425295743068224e-02
      6.7595242851371737e-02 6.7561748781847550e-02
      -1.3033569148019303e-01 -1.3144232181147640e-03
      9.6452713813205998e-02 3.2944663196310765e-02
      7.1332190394543249e-02 1.2349649517470035e-01
      -1.4548475808665726e-01 -2.1269184521083950e-01
      -2.9267383645416100e-02 8.5452939474883707e-02
      -7.6931233770041504e-02 -2.3229773023045961e-04
      6.5579731904883268e-02 6.3219962907611407e-02
      3.3114917416772902e-02 1.2484184300170528e-01
      -3.1678455228839164e-02 5.8431931889832381e-02
      -2.7799916188306292e-02 8.7607124499495981e-02
      -4.7571280293620295e-02 -7.1747348376786910e-02
      5.3014442952911418e-02 -2.2929363752006751e-01
      -2.2337568717512132e-02 -9.0291057128914359e-02
      -3.9187146087725021e-02 -1.0190176493552773e-01
      1.2795458010882074e-01 -7.5490344597268486e-02
      -1.2078523651340407e-01 5.2202676535703034e-02
      -1.4605997918912686e-01 9.3526491478277532e-02
      1.2356330472658071e-01 6.4881371160104770e-02
      4.5872384018338401e-03 7.2405315201250320e-02
      -5.3885549030573396e-02 -3.6427395618493008e-02
      8.9951925103553529e-02 -3.1621444681739469e-02
      1.1812729932144850e-01 3.3333308322006455e-02
      -1.4076063998521732e-02 -5.5423664802741426e-02
      -1.0418524802949453e-01 3.6185511949506706e-02
      -1.0681291946661196e-01 -6.6634258339264452e-02
      -1.2167649033376768e-01 -1.6369074086956793e-02
      3.2160071415929165e-02 2.2188210360730840e-01
      -4.5189122198427578e-02 -9.1126271545593246e-02
      -2.5050578754849888e-02 -2.9129848246172872e-03
      -2.9121029479527127e-01 2.7624228924810548e-02
      -5.1176441334169417e-02 1.1216190293652568e-01
      3.5662762066632457e-02 -3.8552056749954322e-02
      3.6055628610509739e-02 -1.1990710697542232e-02
      -9.5536506261857321e-02 7.8912041377648012e-02
      1.0521239164816620e-01 9.1239761162408367e-02
      8.5896574136016868e-02 1.5630794729690384e-02
      1.2553275422051730e-01 -6.7584125002953688e-02
      1.0790313635927577e-01 -6.8839742722659039e-02
      2.4439733652124564e-02 7.6153705859225193e-02
      -2.0348668649802751e-03 -1.2694048171049899e-01
      1.5686735532407908e-01 -5.8870326286679861e-02
      -1.4637061639641027e-01 -5.4893888315437504e-02
      2.4874710929254910e-02 1.1606265676045953e-02
      -1.3915388276593854e-01 1.4509304070034404e-01
      6.2201139864882283e-04 7.9301371026305509e-02
      -2.7689650408898963e-02 1.4585540015632539e-01
      -4.5161263817985936e-02 6.4017860526317402e-02
      2.6355124368869232e-01 3.4325904970480487e-03
      5.8314360822030120e-02 9.2848953359620963e-03
      -4.3229534969695269e-02 -5.3371124399085562e-02
      -2.2507326356394644e-01 1.8125810831071679e-01
      2.0569077742430341e-02 6.4169142268404294e-03
      8.1200686130391234e-02 2.7322903300817297e-02
      -2.0578423283644215e-01 -2.5686381966994909e-01
      2.4896698240050554e-02 8.7154574702758156e-02
      -6.8940155792125049e-02 1.6184386928921474e-01
      2.7448953240402262e-02 5.4107344695209975e-02
      8.1990728832625231e-02 2.1780817919540618e-02
      1.3539800435235227e-01 6.9181659059985148e-02
      -2.0899921083008283e-01 1.1582933012206838e-01
      5.4947327712348240e-02 -3.1132766342249632e-03
      -6.4091304108572621e-03 -1.3719272434005017e-02
      -5.1549031534156374e-02 9.1627204130445474e-03
      -2.2290286750341667e-02 -2.2385527884317133e-01
      -5.3791018334524543e-02 3.2262016591989226e-02
      -1.0536928437089402e-01 4.2176655546220548e-02
      2.7787803226060635e-02 8.3408399296813429e-02
      3.5598296240473178e-03 6.1280019919943043e-02
      -5.4836299193983175e-02 -2.2915698787148813e-02
      7.3781827853267576e-02 -1.4679525598526985e-01
      -3.7401166523518270e-02 -5.2000021025716776e-02
      1.4632279233981377e-01 8.1146312775933593e-02
      9.6288143839684745e-02 -1.0548180602345036e-02
      8.9801837496699025e-02 -4.7301000987126210e-02
      -9.2571724522207993e-02 5.5465095525865350e-02
      1.0487487720129370e-02 5.8712103019220009e-02
      6.6201101423719252e-02 2.0295338926696146e-01
      -9.4591528629136504e-03 -1.5868594165973873e-01
      -4.8571457166761763e-02 -5.7115135048451518e-02
      -1.3718706684552179e-01 5.0632143454413116e-02
      1.5061691772038477e-01 -1.3619706074932605e-01
      1.8193756209213506e-03 3.5421430771676775e-02
      1.2732702998645251e-01 -2.2041205622946591e-02
      -5.0909791034634132e-02 -1.7212534433666944e-02
      1.2973391412829563e-03 3.2637005640295130e-04
      -9.4116259808912528e-02 -8.9501528754776429e-03
      2.2242006190555796e-01 -6.4482703375731681e-03
      1.5493821350769696e-01 5.4922572191749619e-02
      1.8363509197894087e-01 -5.9671315244422089e-02
      -4.1999152833547160e-02 -2.2666813736578497e-02
      4.0570689133548464e-02 -9.8268465935288374e-02
      -1.2699796223444632e-01 -1.2645948855881092e-01
      -9.4226540912937320e-02 -1.7174589330286295e-02
      -1.1769887536423171e-01 -6.4569203205880860e-02
      1.5443582983294070e-02 1.5586574396733777e-02
      -8.2860488733498966e-02 -2.4519952456610154e-02
      3.7706047725657346e-02 -2.4533316984859367e-02
      -5.2840090660047367e-01 4.0538594909951351e-03
      -1.3228357220626102e-01 1.0494648237557014e-03
      -8.4877160553302161e-02 1.4641011001982857e-01
      -8.4094763508241979e-02 2.7113611313848474e-01
      6.6061155287481674e-02 -1.9897898918621548e-01
      1.5711478905391818e-01 6.6711882537332748e-02
      -1.7521875866298015e-01 -1.7777731210729533e-01
      -6.1152883532402003e-02 8.0437436382017977e-03
      -5.3094430924209790e-02 1.4307676428777316e-01
      -4.9293208468297801e-02 1.9477730889316508e-02
      1.2394394001873413e-01 -3.2025450593107518e-02
      8.2391975155608727e-02 -3.9798223084451426e-02
      2.8674427518062338e-02 8.2786397715202353e-02
      1.0715628862408079e-01 8.1383697510415881e-02
      -3.9942934719240160e-02 -2.2761057288173740e-02
      -1.6324225769220888e-01 9.5960903543727175e-02
      4.2770680135234107e-02 -9.3201654692624356e-02
      -2.9530778822077153e-02 7.4887426095049774e-03
      -1.5555830002663554e-01 -1.0219269541372962e-01
      1.4566499492578393e-02 6.5742398363257598e-02
      -2.8462808030013657e-02 1.4343206091444613e-01
      -3.2026782990862215e-02 1.1195978072245820e-01
      1.2483311399878172e-01 -3.7727748117886051e-03
      -1.7259852801839201e-01 9.5626176078998315e-02
      -7.2455076250511716e-02 -3.2486009992592269e-02
      4.8222650229554180e-02 8.1976976283953562e-02
      6.0778321325049768e-02 2.1692272253795614e-01
      -7.6619354363975434e-02 -5.2000947323393734e-02
      4.0894426176803236e-02 1.9825173465623697e-01
      -8.2008325030731966e-02 1.1579021941504210e-01
      -9.7592739451151753e-02 -1.7106205324963150e-01
      1.3385989923834152e-01 -1.0555451869529252e-01
      -1.1704100761403784e-01 -4.8373895383365804e-02
      -4.6533259306921045e-02 1.2101253319752869e-01
      -1.0562233362129636e-01 -2.1196377463564960e-02
      -4.9039990439571371e-02 -1.1029089965829424e-01
      2.2018092359262963e-02 -1.8656291842839998e-01
      1.1404447584842993e-01 -1.0065997371733730e-01
      -1.3134118196956165e-01 -6.2367391018288268e-02
      2.4593193133144187e-01 -1.2799736860638788e-01
      1.5262431454122111e-01 -1.0480892593059479e-02
      -5.2338070795493664e-02 3.0674146367432278e-02
      -2.5251428866818720e-02 -4.9437962484746731e-02
      1.2006594335805848e-01 -3.0565241940214784e-02
      -1.0873071368252177e-01 -5.5880618347325939e-02
      -2.0176719819862746e-01 1.9691944723283939e-02
      -1.6657077237629722e-01 5.1882974265060527e-02
      1.5045024539345894e-01 -8.4924368137123493e-02
      3.7254360421083738e-02 -1.5144683384112720e-01
      1.7918412465313519e-02 -2.6678401399784848e-02
      1.6969150497822741e-01 7.5645298123488150e-02
      -9.6314402823818021e-02 -4.4643630026132093e-02
      -7.6506627351568858e-03 -1.8315581949888354e-01
      1.0636481142137609e-01 1.1858882302769015e-01
      2.0362353887766924e-01 -1.9855442377407334e-01
      1.1843273034259989e-01 7.7397198762065147e-02
      1.4928192110296390e-02 -1.5833138604242944e-02
      -1.2847708571833827e-01 1.8631548876131018e-01
      7.0767771427391019e-02 -4.7811008576643367e-02
      -2.4198264068713534e-03 -3.6061663266762828e-02
      -1.1063242095500195e-02 2.8815879438730565e-02
      8.8242810125805149e-02 -5.5942084906073566e-03
      4.8523145315998051e-02 8.2473098074681020e-02
      7.9870380012074874e-02 -4.6092071638488656e-02
      2.5725515041835328e-02 -5.8109516241984946e-02
      -2.5959131379496386e-02 -1.1795789490329207e-01
      -7.3265131826457650e-02 -1.5914257589357188e-03
      -2.8813621215234900e-02 -7.2763566403239541e-02
      2.5266362562384619e-02 7.1819867555228973e-03
      -9.4001801641028213e-02 6.9230381859092097e-02
      -6.7448025515354101e-02 3.3596682684725099e-02
      7.0676088735318415e-02 7.6300491371931831e-02
      -4.0139072625334615e-02 2.9186234238178344e-02
      -1.3968731494015696e-01 -6.8150263222975724e-02
      -3.6762613066585813e-02 1.0204090554353498e-01
      1.1662324537345285e-02 -3.0423036373680979e-02
      -7.4907197783065468e-02 1.5205975072136276e-02
      2.7948256833065264e-02 -7.8195363011360292e-02
      8.6895781385907020e-02 1.1531516446306159e-01
      -6.7578382227415764e-03 -2.3518337845218538e-02
      -1.0957977619329166e-01 -9.2515019475224365e-04
      -1.1412015467572821e-01 4.7160012764595567e-03
      -1.3740761011537396e-03 -1.6320372706240777e-02
      -7.9641416350508920e-02 -1.4230793041841502e-01
      -4.4796217864112003e-02 -6.4189712854364089e-02
      7.4169007170248992e-03 4.4012633432849044e-02
      1.1689466642003438e-01 -1.1958957281892854e-01
      -1.0282781201398457e-01 5.6402186466450670e-02
      2.1281541394813832e-02 -7.4398265071835251e-02
      8.2403855961607692e-04 6.1660815373507989e-02
      -2.5787196708257559e-02 -8.6662166898880497e-02
      6.5970990785106281e-03 -1.9214834469708966e-02
      -3.6785828729044318e-02 -3.9361267282784329e-02
      2.7426244890731231e-02 -8.4864442042398999e-02
      -2.4858986841162681e-02 -1.2878429011518164e-01
      1.0906649432228171e-02 -6.4574339861330946e-02
      -9.4319412198682562e-02 -3.8780234343508209e-03
      4.0804221124149428e-02 -6.3197189639599166e-02
      -1.0579585908129979e-01 5.2902772914169310e-02
      -1.0113095643783332e-01 -1.2380627362612805e-03
      2.7736477076727395e-01 -5.6231693512723203e-02
      -4.3864780500090537e-02 -5.5146855491049328e-02
      -3.2592384170914847e-02 -6.4815343160636002e-02
      -1.0592995965283221e-02 -4.6885341550687555e-02
      -9.5480418683859306e-04 1.0774905882122923e-02
      4.1271501147457902e-02 -4.5333769552433872e-02
      5.0340708725792660e-02 5.6706662035004704e-03
      -8.2002701489161389e-02 -6.8619907234417077e-03
      1.5272859831398570e-02 1.5405992980085726e-02
      -4.7405571513804874e-02 -3.5441294495676824e-02
      1.5132186973127668e-01 -3.9733670514159422e-02
      1.0729671147756956e-01 -5.4212179604752081e-02
      8.9531024563801846e-03 -1.1345041412322031e-01
      2.2149447428984313e-02 3.5350965921139191e-02
      1.3213696694888168e-02 -2.4235322746031271e-03
      4.9858906508168335e-02 -1.6887988196194925e-01
      1.1008863758854981e-01 1.1176272678220857e-01
      -1.2041441961636015e-01 5.6715383940835792e-02
      1.0567085748621202e-01 -2.2300017823592862e-02
      5.1896657393099253e-02 6.0442522046508006e-03
      2.0898843330212882e-02 6.2374340523950626e-02
      4.2550911997258162e-02 -1.0821448983147857e-02
      5.9202274762904447e-02 -4.6588424977240042e-02
      2.5816023389272139e-02 -2.6372358739177270e-02
      -3.0012317731401592e-02 1.7213871320490812e-01
      -4.9708806184366600e-03 -1.4940722100508913e-03
      6.2793107066876741e-02 -2.7281664762453185e-03
      -7.7083170457077674e-02 -3.2482305333464537e-02
      8.9391043217679336e-02 1.0758711082390675e-01
      1.0121931455366784e-01 -6.1135424813436132e-02
      -6.5554233263007827e-02 1.8397364329551258e-01
      -8.8575486006414808e-02 1.1772539425622954e-02
      9.9782028849606672e-02 -9.5799536736324353e-02
      3.6638974189524907e-02 1.3045337825890643e-02
      -5.2710852043279882e-02 -1.7317907674970762e-01
      -9.5777220313238223e-02 7.8670579106875310e-04
      9.2489516750665322e-03 1.0864700331652079e-02
      -7.3812465797478813e-02 -1.6104365054726275e-01
      3.1697721685087728e-02 -1.2244379260964561e-01
      7.4603306314560858e-02 8.5933034159345369e-03
      -6.1146421987158632e-03 2.0647020225407060e-02
      -2.4830696022976932e-02 -6.3625131760292553e-02
      -1.3972097705853214e-04 5.1279680741746700e-03
      3.6660050412542583e-02 -8.6778515079243390e-02
      2.5360359398264522e-04 -5.9299438274046289e-02
      -7.3590890802868875e-02 -8.3937798978693162e-02
      3.7525943495110440e-03 2.4527560135180978e-02
      -4.1729640095470477e-02 -1.0625266333706130e-02
      -1.6980289065133417e-01 1.4117134369498013e-01
      -3.9482662653915514e-02 -7.9743280101775879e-02
      5.7768663106393170e-02 4.7715415628387020e-02
      -5.7168866476129912e-02 1.1821809283088677e-01
      4.6794776307373810e-02 6.1329437569076536e-02
      9.9021539354262236e-02 9.4819769971277654e-03
      6.0314190550764405e-03 1.7853328361587209e-01
      -4.6095252721230176e-02 -1.5220108218513761e-01
      -2.3835786721362599e-02 -2.9797966992023650e-04
      4.9122521476250236e-02 -6.2869003704335430e-02
      -3.9648992756146945e-02 -1.2824025106467157e-02
      1.5399953145826809e-01 -3.7768322418611985e-02
      2.9414355862732201e-02 1.1253918766595333e-01
      -1.0585725024698628e-01 9.0379224131386104e-03
      1.7541551932353273e-02 2.2600780985373440e-02
      -4.5204665153610046e-02 1.1523672034598156e-01
      1.2311942372198965e-01 -1.0716189789330947e-02
      2.3717570054371848e-01 2.1631700307146152e-02
      1.1122072622560400e-01 4.3189849444943494e-02
      -6.9961083823943712e-02 -7.6365949223672971e-02
      -2.2361321769262702e-02 8.1704164600892529e-03
      -3.5135414054777624e-02 -8.6190991320522714e-02
      -1.2813372377534160e-02 5.5623053705225835e-02
      -3.4280452448132534e-02 1.1048667543857633e-01
      1.2609097045083024e-02 3.8235633405106745e-02
      -3.7369503873989733e-02 9.4529098405095810e-02
      3.5590631961952535e-03 -6.7943811900081377e-02
      -1.6824614726187195e-02 -5.1918404422202791e-03
      1.2931654867822778e-01 -1.5764527690913330e-01
      -2.0503452891894808e-01 -1.9378005315265484e-02
      -5.7817192169177335e-02 -8.3609459463476518e-02
      -5.3500987761382533e-02 1.8968836118000890e-02
      3.3938435252276751e-02 4.0757971638037259e-02
      -2.5329419380503908e-02 -7.1764703273818661e-02
      8.5779260283188830e-02 -1.8276808778173723e-01
      2.5074810064547887e-01 1.8824259600619220e-01
      9.1679883874162260e-02 -5.2507594210856094e-02
      5.0888580524601636e-02 1.3710834606707533e-02
      9.5400905658738263e-03 -1.7304308725837984e-02
      2.0556041394403493e-01 -4.2174537009744904e-02
      1.5603288418796945e-02 1.3300418612018242e-01
      -5.4035741604475371e-02 1.7026192451411107e-01
      -5.1998405849533323e-02 1.2785347190724081e-02
      1.0530758207027531e-01 -1.0724832493064577e-01
      -9.6927365002892910e-02 -3.5697385498093315e-02
      1.4866716763437834e-01 -1.5719604872865672e-01
      2.5212187429440969e-02 3.0828291732584532e-02
      -3.9420046495064857e-02 -2.0162125063965611e-01
      8.2698993930699446e-02 -4.9383519426710293e-02
      -6.0168498913840102e-02 -6.4926659704392251e-02
      2.7937982939565811e-02 -1.4492034659468433e-01
      -9.3087787836947794e-02 1.5592085875926082e-01
      9.6923440890967716e-02 1.4154186342978778e-01
      -4.4250857049900359e-02 6.4241134751624462e-02
      -9.0577203117403228e-03 4.3011703631662080e-03
      1.0807278849252615e-01 -9.0572319323713388e-02
      7.1261716534412031e-02 7.3310882375614145e-02
      -4.4451696930993309e-02 -1.5511033047743439e-01
      -3.0302319435041872e-02 9.7910080137572700e-02
      1.1639321597442957e-01 1.1375288257928491e-01
      -1.6965162867269737e-01 -1.4283331271526634e-01
      1.7787562939175793e-02 -5.2951999671936478e-02
      -4.7089499625220223e-02 3.8459653963567701e-02
      9.4572786364087585e-02 -3.5178172783137382e-02
      -2.2639098503080018e-02 1.2833470213157760e-02
      -1.4993408499615721e-01 7.9543891951678602e-02
      1.9452914622106077e-02 1.1117952873783001e-01
      6.5975262571364615e-02 2.5056537197773082e-01
      1.2972149220547319e-01 4.8451941584458272e-02
      7.3415757859557604e-02 -1.0381681124022162e-01
      6.8476008292334065e-02 -2.1708728062312613e-02
      6.7958729126590513e-03 -1.2047638652094418e-01
      6.0605652021202050e-02 1.0085179678630117e-01
      7.6579055817679138e-03 5.2564376969541478e-02
      -1.9726613958757348e-02 -3.9637992058891819e-02
      5.1764889372219361e-02 -6.3935448091641048e-02
      -9.5930189108528283e-02 9.6522321492428249e-03
      -6.5343505045927605e-02 1.9320251145101869e-01
      4.3914897498091403e-02 -6.6436329376186126e-02
      4.1170550679467649e-02 -8.3499705906432478e-02
      1.4298685249785000e-02 -3.1551391607557412e-02
      -6.3464437943938717e-02 1.1726133476049806e-01
      -1.0393350186585059e-02 1.6133900573411220e-01
      -1.3209818364641807e-01 -2.6777782572032786e-02
      3.2175081147051188e-01 4.8790022280759307e-02
      1.0636628629015991e-01 1.0974112754170542e-01
      1.4766925539359721e-01 -1.1089718518463862e-01
      -2.2502957708465898e-02 5.1749322563987739e-04
      1.0583226325072062e-02 1.3586261804040614e-01
      6.2658782618430858e-02 9.7806669804730878e-02
      1.1741637945664072e-02 8.3165519854779518e-02
      3.6772297104866271e-02 3.8880431604114703e-02
      -6.7260769619555558e-02 -7.1763154655985401e-02
      -9.9947689374595028e-02 -1.5040182034939589e-01
      -6.6567626474405880e-02 -3.2140825010031099e-02
      -6.4563243861862893e-02 -1.2050591031047088e-01
      1.0576880376926018e-02 -7.2303803402723257e-02
      2.3515915307666415e-02 1.0754657555653722e-02
      3.4290441307567109e-02 -6.4618239064595018e-02
      -1.8352523299221969e-02 -1.0138257423532607e-01
      -8.0651165771486275e-02 1.3472170368258335e-01
      1.1186365856821569e-02 1.1285958923649780e-03
      -3.8554858001530440e-01 2.2785461266588238e-02
      -1.1576797711491545e-01 2.7327166060982646e-02
      -5.8830392321127536e-02 -7.4971687946245993e-02
      1.2180063823914072e-01 -1.9467446218814785e-02
      3.2017165584355002e-02 1.1219711321408883e-01
      4.7138384754970203e-02 2.9892183129873823e-02
      -2.8967544637698271e-02 2.5656727204150503e-01
      3.6240401078173216e-02 -7.1980643238103159e-02
      1.0765547728730124e-01 2.0700993427422168e-02
      -4.8585307804444255e-02 -7.1697090076719025e-02
      5.2953780341930337e-02 -9.4644423876280762e-02
      2.1140764342999113e-01 5.7609750554020185e-02
      2.2946329019771786e-02 -1.0541130308387761e-01
      -1.0985132962505272e-01 1.0877839212321760e-01
      7.8332834311514804e-02 1.6256324337098615e-01
      -1.4496273164411930e-01 5.2830703310445135e-02
      -4.7521936731016505e-02 1.6639162358422842e-02
      2.1644381938155537e-02 1.0165757537460191e-01
      1.2662790699789825e-01 -1.2134259508214691e-01
      2.3958804318834185e-02 -2.9603467226887348e-01
      -1.7856023094303668e-02 6.7685412158860911e-02
      5.5611739000672906e-02 8.8695520921296594e-02
      -5.2421938506609977e-02 1.6734505451510576e-01
      9.2458529936621223e-02 -1.4781057696163344e-01
      -1.0093677224866744e-01 2.3909855722537252e-01
      1.0963126135932326e-02 4.7441681482303232e-02
      -1.0617392190149597e-01 -1.4105596314114918e-02
      1.3725856412379536e-01 -2.4709919199581428e-02
      -4.9387421977236744e-02 9.0646714109610504e-02
      4.6128345688031855e-02 -3.9184868104338175e-02
      -5.8423147755690436e-02 8.2925036448629977e-03
      -6.9585155025077922e-02 -8.8804073669750530e-02
      -1.1291068356903107e-02 6.4801006350754479e-03
      -1.1184118306933463e-01 6.4669280236822294e-02
      -6.1367882820619286e-02 -4.0919216193194628e-02
      -1.4667970658702968e-03 -1.4693662589118775e-01
      -5.1143218465575487e-03 1.2525323981345154e-01
      -1.1721901834276355e-01 2.3137069269815846e-01
      -1.4607171209939620e-02 8.6686638089665691e-03
      3.3397370928309376e-02 -7.9211246979753146e-03
      8.6941309162005334e-02 -8.9251651103898169e-02
      5.2972779456562105e-02 -3.3683676256960601e-02
      -8.1541669817262838e-02 9.8203575795155346e-02
      1.5818108184710289e-01 4.0767843323443818e-02
      -4.0487082804670074e-02 -2.3697136185652531e-01
      4.1032131656656978e-02 -3.1761690409779768e-02
      -2.4228831842767432e-02 -1.6340305195175620e-01
      1.7101688177250299e-01 5.8016559136988249e-02
      -2.4607505994026169e-01 1.8724317796722437e-01
      2.4776291344901460e-01 8.0289578273037981e-02
      2.9610161108855337e-01 2.7399457354536871e-01
      -5.8087671254088820e-02 -4.5117471775949672e-02
      -4.4682212213782539e-02 3.5517333897527092e-02
      5.3952879835949728e-02 1.5514055430716734e-02
      -1.6794404460321495e-02 1.0652807154336087e-01
      1.1149365928044189e-01 1.1287020815536220e-02
      -8.1670831434523541e-02 1.0559947645912405e-02
      -2.6193792346719771e-02 2.0357332420104422e-02
      -6.0723056936175836e-02 1.0883328700287667e-01
      1.1682783343766112e-01 8.1826501967582586e-03
      1.6462000737987814e-01 2.4587801877387190e-02
      -4.2661263038568924e-02 6.0708806814106266e-02
      2.3921133572921685e-01 5.1690277297935433e-02
      -1.4829246152624687e-01 3.3272204636525110e-02
      2.1493843836877836e-02 2.3748343598900418e-01
      -1.3057448439408495e-02 2.7114270660406697e-01
      -3.4429617362244536e-02 -1.2952084888985663e-01
      2.8501695741172859e-03 -1.7927225298474507e-02
      -1.3639851504780870e-01 -1.0212900378430531e-01
      5.8938325280654194e-02 8.0780567388620619e-02
      -7.2104513001743253e-02 1.4868667858781399e-02
      9.5981445310122232e-02 1.0274912310269268e-02
      -1.4261905910728470e-01 8.7540236760794185e-02
      2.3743376225641898e-02 1.7207007886758985e-01
      1.1932709298226851e-01 3.9786617220159887e-01
      1.5011196006469220e-02 -1.6420153424505986e-02
      -1.8985687166923526e-01 -5.9241194898848770e-02
      7.3678483751428644e-02 -1.2329347191869740e-01
      1.6121480079408505e-02 1.7714652275010380e-03
      8.2257743306103012e-03 -1.8171453591445178e-02
      -1.2925067096312140e-01 -5.4976835740759657e-02
      -2.6389167621468385e-02 -1.2132208410674883e-01
      -3.8729087752479388e-03 1.0189717999636790e-01
      -7.0051470999929158e-02 2.6417459281870570e-01
      1.5664833045198620e-01 5.2083377638305747e-03
      5.2802238702347057e-02 -1.3201777110180654e-01
      1.7958596295271126e-01 1.1444883285017894e-01
      2.2744341489762794e-02 5.6049151627984933e-02
      -2.9137252843922351e-01 1.2567310018523836e-01
      9.7200545030833460e-02 -1.5573965196292733e-01
      9.7397603920247128e-02 -9.6590642971911528e-02
      1.4555499218930895e-01 3.8531320307397546e-02
      -1.2856623159912700e-01 -3.5074298457078379e-02
      -2.7257954210867692e-02 1.6814217127687114e-01
      -1.0483303031081606e-01 -3.3800172775441401e-01
      1.3216054577247507e-01 4.1838895720776323e-03
      -1.2388970286901499e-01 3.2216407122669245e-02
      4.2195511505159870e-02 4.1995916027154349e-02
      -1.2467996494160112e-01 1.0341183917811014e-01
      8.9466185305111995e-02 1.9724649788820936e-01
      -4.2118593205333560e-01 1.3972395085668729e-01
      -7.2535131747391443e-02 2.6236689052790411e-02
      -3.2684453642788741e-02 1.3082800209976905e-01
      -1.6780343546609230e-01 1.2516772096147334e-02
      7.0801941396031992e-02 1.0218399812051644e-01
      1.1832288133590053e-01 1.2123057970813967e-02
      2.8744700040287355e-02 -1.4526804239667510e-01
      2.5819649522520441e-03 8.6172421451297276e-02
      1.2889223611578524e-01 1.7592002532199008e-01
      1.7056994504092091e-01 -1.9755470598844520e-02
      -2.3242165659968689e-02 4.0401920694107099e-02
      -7.7068127630173067e-02 2.3988927640503775e-02
      -8.9920021888310765e-03 5.5472927105715414e-02
      4.3223394356753840e-02 5.7397490239702052e-02
      -6.3255924258515575e-02 -4.1839611847325521e-02
      2.9952143882262330e-02 1.2500393305227708e-01
      5.8092983031726553e-02 -3.8504010314232284e-02
      -4.7472614767886397e-02 -3.6416878208407326e-02
      -1.2789486973491515e-01 -1.4551650110274134e-01
      7.1765259116626012e-02 9.2020947199485933e-02
      -1.5122712679593764e-01 3.2747894943775939e-02
      -2.4527999592135894e-02 1.7979119869477422e-01
      -6.4495349510976963e-02 1.2305884713067798e-01
      -6.6135620481250698e-02 8.3064761323434141e-02
      -3.2053753050538154e-02 1.3650473459088397e-01
      9.5723324903702889e-02 2.9913913242266690e-02
      -1.7477138362807088e-01 -4.6240925780342439e-02
      4.0208061950467548e-02 -3.8416837539248035e-03
      1.9824832508732522e-02 6.3428308541055148e-02
      1.3068357778443315e-01 2.3207392790605538e-01
      1.0134131133769332e-01 -6.4049673059859175e-02
      -6.9019266702524645e-02 7.7422447897896448e-03
      -2.0827922335486596e-01 1.1958896873307698e-01
      1.6402648124858313e-01 2.3939137179786327e-01
      -5.9687707572316465e-02 1.4007937822764438e-02
      2.7445029508905306e-03 -9.8121856078817616e-03
      -6.4866111419525896e-04 1.9851326153305232e-02
      1.1276081698291114e-01 4.4147639016422449e-02
      -2.6263666884060782e-01 1.1088157702543386e-01
      -9.1728071258613181e-02 -1.1441352388342279e-02
      8.6575228562462192e-02 2.2498713096638086e-02
      2.5124022819300440e-01 -1.4495779776218878e-01
      -7.4669685378261796e-02 8.6704226461356601e-02
      6.2018879567602755e-02 7.5595237913477595e-02
      -1.1032322828753133e-01 -1.7317742759718448e-02
      2.2545332347396564e-02 7.5243175940192003e-02
      -3.8017795886201848e-02 -3.3883955548779682e-02
      -4.5425714636238698e-03 -6.1831395769369857e-02
      -2.4682053962203108e-02 2.2816817896755348e-01
      5.3622300727315990e-02 5.8718153257248412e-02
      5.6666475770460978e-01 2.3891890197072375e-02
      1.1116070035398561e-01 -3.7439759419998227e-02
      -3.2331451777577780e-01 1.8678813207962669e-01
      -1.1469975409984999e-01 7.4163012055764158e-02
      1.4202762088337983e-01 1.5384156934190188e-01
      5.5377957183204728e-02 1.2702486523717965e-01
      -2.1426635333865815e-01 -1.7501225521034544e-01
      1.6781279041969471e-01 8.3517220809375625e-02
      1.7362049773946214e-01 1.7847845934123513e-01
      1.4612472880586921e-02 5.5277862578537222e-02
      4.4022621293033845e-03 9.1981578145717530e-02
      7.8640157610900110e-02 -1.4665206434691469e-01
      8.5840792951877215e-02 9.8463038296144029e-02
      7.8080610708522041e-02 4.7953405849869041e-02
      -9.4906943677039599e-02 2.5722610386800532e-02
      3.4597548570109188e-02 1.0006448556554390e-02
      -9.2426400813397286e-02 3.4929418693350964e-02
      -9.8945015361439790e-06 -8.8990275016313805e-02
      -1.8793883032332986e-01 -1.7062427131457494e-01
      1.3974521211508506e-01 2.9660392447255257e-01
      -2.4413550168438475e-01 3.8922208739466745e-02
      2.4201853035573308e-03 1.6959164224744486e-02
      -2.6652403125035154e-02 -3.2706243715660964e-02
      6.9148145752998574e-02 -6.3792804723701940e-02
      -2.0789775782544687e-01 9.9130573925634860e-02
      1.5483350226347500e-01 -2.0771795186536848e-02
      4.1395739324170636e-02 -5.2623967481290480e-02
      -3.8005088305390025e-02 3.2662993802333132e-02
      -1.7854411111631116e-01 1.0776146539615589e-01
      1.8009815448817479e-01 1.9328774350205011e-01
      1.2375660136309698e-01 3.4081748097500759e-02
      -2.8998090269704815e-02 3.6781936697796759e-03
      -3.9004696080328000e-02 2.6037128163853857e-01
      1.6373028311862439e-01 -1.6891727640314927e-01
      -3.0788061695644403e-01 -5.9371776881284269e-02
      2.5587278098349042e-02 7.7657365264361386e-02
      -2.8418716204117983e-01 4.5153409411790663e-02
      -4.8743163449118963e-02 2.7213707400466115e-02
      -2.0566246194148413e-01 9.7792090372772172e-02
      1.0477699014988336e-01 -6.3432315311266210e-02
      8.6007573185569921e-03 -3.2650683370815156e-02
      1.9217925146983164e-01 -1.4231987332321408e-01
      -2.0821921537876831e-01 7.6459397002329357e-02
      -1.0025341133067830e-01 8.9091154963847115e-03
      1.0929666422169412e-01 -1.5460291810560625e-01
      -7.8097270727991164e-02 3.3023118499095269e-02
      3.9632760811182555e-02 7.4910811137822858e-02
      1.9832886663975938e-02 -6.7491159317674358e-03
      8.6995809558241349e-02 -3.2607306253059805e-02
      -6.0078012257589464e-02 -8.0005912208506086e-02
      2.5599992946624023e-01 2.5784460151156402e-02
      -2.2586203603603104e-02 9.8492299075252282e-02
      -1.9212618250919816e-01 2.2325749428816125e-01
      -1.6439923437732562e-01 1.8159137571416692e-01
      8.1885927994950605e-02 1.8852593334598690e-02
      7.1340486286273305e-02 3.0706485439415072e-02
      -1.3601567692784708e-01 -1.5991819854570086e-01
      8.6024582038181599e-02 1.2420539713006970e-01
      -3.2235435442042968e-03 1.6706731585873252e-02
      5.1700132254764726e-02 -6.0992563243765494e-02
      -2.7847468276606339e-03 -2.7672190806735931e-02
      4.6777292746663396e-04 -1.7116887576960493e-01
      -1.0579740696620994e-01 -9.0790479527876802e-03
      -4.9782391232143092e-02 -4.6128726632336962e-02
      8.6292710404776554e-02 1.2887617440615487e-01
      -6.2199094342333540e-02 -9.9893129854664559e-02
      -3.2551912126311955e-01 -1.9165981476461379e-02
      3.6461782657523638e-02 -7.4395937900905332e-02
      -8.9351739314209658e-02 1.4109768773494387e-02
      -1.4185466265117630e-01 1.2630063755163307e-01
      -1.0738825903922947e-01 7.6580606222434094e-02
      4.6523138679504916e-02 1.1395647405258083e-01
      -7.1386176883656782e-02 1.2978853695049971e-02
      -1.0124055610154000e-02 2.0298733408623447e-02
      -2.1906414643606978e-01 1.0166425996327925e-01
      2.6306309012362894e-01 5.4144820085653229e-03
      -8.8732438163912179e-03 4.6572509790140063e-02
      -1.2938933734975061e-01 -2.1282317867762343e-01
      -7.5766269206074988e-02 2.9271452902110626e-02
      4.7577432582415771e-02 6.6955567132009855e-02
      1.5573991060648598e-01 -5.6224559500862213e-02
      2.5009259633399000e-01 -1.0426099494984264e-01
      -2.3907209665700729e-02 6.5163216498079296e-02
      -1.7928047579153106e-03 -1.9008956842875629e-01
      -1.3365421504184358e-01 -6.0546429667758889e-02
      9.6251028784670373e-02 4.4208343810628235e-02
      -1.1077983733882464e-01 1.0458429425973090e-01
      -2.5879969129217032e-02 3.2227862980773410e-02
      -1.3668074446684994e-01 4.6793784174072553e-02
      7.0149452406857493e-02 -1.6212776327882206e-02
      1.2316677915632750e-01 3.8155819007939212e-02
      -9.0449081638706338e-02 -1.3144234281288000e-01
      -1.3530455770135816e-01 1.1268085796659946e-01
      1.0821796543373171e-02 2.5781593156036525e-01
      7.3966916304744584e-02 1.1041239399298737e-01
      -8.5521062927165575e-02 6.5725666335245153e-02
      9.8388590927223851e-02 1.6261520934818860e-01
      2.7623443314421670e-02 -1.1495175584320376e-01
      -7.9114225031510485e-02 6.6656840250828311e-02
      -1.3975189598276297e-01 1.0887768298586765e-01
      6.3175731601213925e-01 5.6806047774974180e-02
      -1.5107835324523075e-01 1.3865794509273158e-01
      -2.9420432884176813e-03 -5.4412651483515449e-02
      3.0900869582486289e-02 -5.9345504912604576e-02
      1.4310975745500792e-01 -1.7295134181564217e-01
      5.5617633299270990e-02 9.2740767803029422e-02
      1.0545746875267751e-02 6.5116489093609675e-02
      -7.7458867469499967e-02 7.2950484287511691e-02
      -2.1782316878691615e-02 -6.9524151755511979e-02
      1.1752538595689589e-01 -2.0704233402288816e-02
      -1.4266416535446280e-01 2.9346062780348525e-02
