<?xml version="1.0"?>
<opencv_storage>
<my_nn type_id="opencv-ml-ann-mlp">
  <layer_sizes type_id="opencv-matrix">
    <rows>1</rows>
    <cols>4</cols>
    <dt>i</dt>
    <data>
      1120 100 100 11</data></layer_sizes>
  <activation_function>SIGMOID_SYM</activation_function>
  <f_param1>5.0000000000000000e-01</f_param1>
  <f_param2>1.</f_param2>
  <min_val>-9.4999999999999996e-01</min_val>
  <max_val>9.4999999999999996e-01</max_val>
  <min_val1>-9.7999999999999998e-01</min_val1>
  <max_val1>9.7999999999999998e-01</max_val1>
  <training_params>
    <train_method>BACKPROP</train_method>
    <dw_scale>1.0000000000000000e-03</dw_scale>
    <moment_scale>1.0000000149011612e-01</moment_scale>
    <term_criteria><epsilon>1.1920928955078125e-07</epsilon>
      <iterations>1000</iterations></term_criteria></training_params>
  <input_scale>
    1. 0. 3.3912423895905124e+00 -5.9652319698687173e-01
    3.4725317357879892e+00 -5.8666746981883044e-01
    3.3585046202231426e+00 -5.9368390819252981e-01
    3.2257898739140471e+00 -6.0868725017705028e-01
    3.1157219412612651e+00 -6.2851340223353669e-01
    3.0215818425746428e+00 -6.5356941013659775e-01
    2.9153998979176539e+00 -6.8013331866951221e-01
    2.7879421343863569e+00 -7.1194646206620804e-01
    2.6860199160588403e+00 -7.3511862886390222e-01
    2.6732672589423077e+00 -7.3511981109745128e-01
    2.7519217170786616e+00 -7.0819750967583184e-01
    2.8246140911395057e+00 -6.9507356897603523e-01 1. 0. 1. 0.
    3.2278203773888587e+00 -5.9658097067587768e-01
    3.3057297803116374e+00 -5.7304740938672671e-01
    3.1722478246797041e+00 -5.7299117801946653e-01
    3.0224669873028498e+00 -5.8658932874693115e-01
    2.8889704344749583e+00 -6.1730406972665441e-01
    2.7697932328014678e+00 -6.6160324314581409e-01
    2.6198094505288836e+00 -7.2752466804121574e-01
    2.4784527919838308e+00 -8.0301661525632462e-01
    2.3832178383102751e+00 -8.6470378937845305e-01
    2.3718722326417443e+00 -8.7368437339912763e-01
    2.4505835371844777e+00 -8.1819439929964788e-01
    2.6056521599336233e+00 -7.5359458070699692e-01 1. 0. 1. 0.
    2.9274877953696730e+00 -6.2105833453901227e-01
    2.9667182248821908e+00 -5.8849427228208451e-01
    2.8317105090778321e+00 -5.8789847619005198e-01
    2.7099166085314907e+00 -5.9998167398635438e-01
    2.5833150065449870e+00 -6.3783048306717816e-01
    2.4827373687776748e+00 -6.9581491327805878e-01
    2.3416227616900112e+00 -7.9607894673648305e-01
    2.2374456255770108e+00 -9.1966193160854948e-01
    2.1867326669816927e+00 -1.0441620292486438e+00
    2.1885563068173295e+00 -1.0785845922613944e+00
    2.2224382644567982e+00 -9.8532918039075179e-01
    2.3702272603783343e+00 -8.3846808455770894e-01 1. 0. 1. 0.
    2.7045754390070811e+00 -6.4635196662124561e-01
    2.7082257628568409e+00 -6.1713889877942496e-01
    2.5867094769085983e+00 -6.1787720031629756e-01
    2.4984715375630553e+00 -6.2895304054478918e-01
    2.3997490215402544e+00 -6.7218990496261555e-01
    2.3252912758678397e+00 -7.3010445489008491e-01
    2.2214664299811977e+00 -8.3052236976558080e-01
    2.1436555409272424e+00 -9.6658692140934199e-01
    2.1262997283888900e+00 -1.1311699517689273e+00
    2.1438918118521637e+00 -1.2012760954256378e+00
    2.1524488938459441e+00 -1.0895543679211990e+00
    2.2547946822360894e+00 -8.8177430733765860e-01 1. 0. 1. 0.
    2.5589568054392058e+00 -6.8328514016320341e-01
    2.5386778561358612e+00 -6.6052431767660336e-01
    2.4404167112421775e+00 -6.6615465671355090e-01
    2.3669880443041662e+00 -6.8306667369370677e-01
    2.2881741820741981e+00 -7.2760731391993005e-01
    2.2443369184653901e+00 -7.7458734582644573e-01
    2.1794038825833630e+00 -8.4604209960175381e-01
    2.1217636518546961e+00 -9.5815648247310303e-01
    2.1022500649230640e+00 -1.1110181490137785e+00
    2.1210989984513717e+00 -1.1934130919648309e+00
    2.1253191225386456e+00 -1.0872068829126760e+00
    2.2186759195968770e+00 -8.7049526371855590e-01 1. 0. 1. 0.
    2.4644123938914353e+00 -7.1983896119766755e-01
    2.4418746354844907e+00 -7.0585696777818419e-01
    2.3618105414523187e+00 -7.1503451256690431e-01
    2.2931867438826785e+00 -7.4035301506862072e-01
    2.2301571508157640e+00 -7.8502806281160398e-01
    2.1982080409120304e+00 -8.2252451468222665e-01
    2.1627160689052349e+00 -8.6844583673322329e-01
    2.1192277859924147e+00 -9.5790369354894356e-01
    2.1025433286894573e+00 -1.0797632498086362e+00
    2.1109069509885257e+00 -1.1333532469227179e+00
    2.1235447885482208e+00 -1.0151638306661170e+00
    2.2406293971345521e+00 -8.1650692329744612e-01 1. 0. 1. 0.
    2.4246192525928647e+00 -7.4520061482290090e-01
    2.4084747172590713e+00 -7.3337803931102363e-01
    2.3400971786796592e+00 -7.4353953625270774e-01
    2.2708067156910690e+00 -7.6697308300012701e-01
    2.2149001182833215e+00 -8.0018311125524422e-01
    2.1795099882892348e+00 -8.3558460093374154e-01
    2.1462425419489080e+00 -8.8491980683352023e-01
    2.1117859824326115e+00 -9.8573720353697658e-01
    2.1033469443116499e+00 -1.0887185449667902e+00
    2.1094412579097326e+00 -1.0981244219861808e+00
    2.1360733937935064e+00 -9.4878341047838122e-01
    2.2981406870926380e+00 -7.6157750159536342e-01 1. 0. 1. 0.
    2.4102508368250999e+00 -7.5460859112723044e-01
    2.4055003151095780e+00 -7.4286569231622190e-01
    2.3445958718229796e+00 -7.4836194705363401e-01
    2.2785643808936960e+00 -7.5764001853555563e-01
    2.2263098831108774e+00 -7.7764431868805362e-01
    2.1799631661311674e+00 -8.1900071644031758e-01
    2.1366138814434121e+00 -8.9711252346272385e-01
    2.1042339287076479e+00 -1.0272595733601464e+00
    2.1079900085639842e+00 -1.1278322191664376e+00
    2.1091008622022533e+00 -1.0947983556327447e+00
    2.1496893708706732e+00 -9.1410122051200571e-01
    2.3457660264538065e+00 -7.2978928810016386e-01 1. 0. 1. 0.
    2.4011918520301156e+00 -7.5457612429142318e-01
    2.4025666129476555e+00 -7.4628692450284939e-01
    2.3404112126596468e+00 -7.4982384823867998e-01
    2.2779624367244189e+00 -7.4836980757613591e-01
    2.2303201983464089e+00 -7.5935318679582142e-01
    2.1848965562739004e+00 -7.9711284300053986e-01
    2.1307202990888645e+00 -8.8864357066596267e-01
    2.0970584935797745e+00 -1.0238122218153796e+00
    2.1039324318595427e+00 -1.1302673416538256e+00
    2.1069674922843138e+00 -1.0912497971463631e+00
    2.1504048335354824e+00 -9.1325126986603522e-01
    2.3459084809631023e+00 -7.3130185798379088e-01 1. 0. 1. 0.
    2.3880627563148011e+00 -7.5335305470537250e-01
    2.3835220297264543e+00 -7.5449947632957071e-01
    2.3179283647156956e+00 -7.6002632322994323e-01
    2.2536237008428399e+00 -7.6661396974774809e-01
    2.2105577572339845e+00 -7.7978980676519261e-01
    2.1746992403892889e+00 -8.1409206724332983e-01
    2.1305168052538384e+00 -8.8512012610361401e-01
    2.0973284571762143e+00 -9.8430212538700546e-01
    2.0948818488253753e+00 -1.0700735488974975e+00
    2.1016971073422122e+00 -1.0505351216936940e+00
    2.1435228674438025e+00 -9.1650889547301151e-01
    2.3081452233440611e+00 -7.5388232464036653e-01 1. 0. 1. 0.
    2.3860893931500140e+00 -7.4474396149876820e-01
    2.3753965111836695e+00 -7.5337664740619659e-01
    2.2988416229327422e+00 -7.7033853434275501e-01
    2.2204536942584618e+00 -8.0037807618149692e-01
    2.1717363553798981e+00 -8.3049066572236196e-01
    2.1488208622020113e+00 -8.5924895103099375e-01
    2.1281291149210348e+00 -8.8894606366942497e-01
    2.1069182240317703e+00 -9.2637153481857892e-01
    2.0945637231159293e+00 -9.7493376027547796e-01
    2.1033807361177326e+00 -9.7894634290647331e-01
    2.1417959939999522e+00 -9.0935849967393956e-01
    2.2708706522064426e+00 -7.7689625611769086e-01 1. 0. 1. 0.
    2.4123205432190788e+00 -7.2696579060036959e-01
    2.3925997354258737e+00 -7.3584637582484735e-01
    2.3069652152949649e+00 -7.6208424805617558e-01
    2.2120157271865906e+00 -8.2033729016563894e-01
    2.1547579978114459e+00 -8.7927715177005972e-01
    2.1320525414862255e+00 -9.1622355904884456e-01
    2.1222216668071492e+00 -9.0795583499316324e-01
    2.1165877503813575e+00 -8.9781564125155044e-01
    2.1097386392900752e+00 -9.0998153859674125e-01
    2.1160156996561192e+00 -9.2620657785796778e-01
    2.1472614334098434e+00 -8.9550288675058898e-01
    2.2554481035562466e+00 -7.8804761089815123e-01 1. 0. 1. 0.
    2.4490435283328376e+00 -7.0294942079061495e-01
    2.4287651109836639e+00 -7.0452651436967262e-01
    2.3381187531627075e+00 -7.3134264961393458e-01
    2.2245689728152254e+00 -8.0458788030947981e-01
    2.1493285271662073e+00 -8.9937863169551580e-01
    2.1208495505439822e+00 -9.5716740416313750e-01
    2.1126353500559771e+00 -9.3885569245478617e-01
    2.1149738864506156e+00 -9.0527546977511764e-01
    2.1129641848748766e+00 -9.0415256252947707e-01
    2.1204842459561006e+00 -9.2079620417395280e-01
    2.1520431876209716e+00 -8.9619408262287670e-01
    2.2609890586884269e+00 -7.8782473443817158e-01 1. 0. 1. 0.
    2.4720467062720637e+00 -6.9002088111523741e-01
    2.4403276035806347e+00 -6.8984041138237107e-01
    2.3624539254752159e+00 -7.0243874712765264e-01
    2.2479640933256828e+00 -7.6813337495968903e-01
    2.1516803649293741e+00 -8.7817315199353507e-01
    2.1136342587777812e+00 -9.5871447444320823e-01
    2.1051846661826481e+00 -9.5780711676356289e-01
    2.1063364723148945e+00 -9.4108746346379413e-01
    2.1031074035422193e+00 -9.4926357017392993e-01
    2.1120944816926075e+00 -9.6116938729687151e-01
    2.1527077291838932e+00 -9.0492815858511466e-01
    2.2834514938677191e+00 -7.7182107552598878e-01 1. 0. 1. 0.
    2.4649101388214851e+00 -6.9325153882213442e-01
    2.4042301139218916e+00 -7.0845669191433125e-01
    2.3453284127181937e+00 -7.0887018762215204e-01
    2.2500416623517370e+00 -7.5455843321992611e-01
    2.1534584082835408e+00 -8.5020262108419797e-01
    2.1083835598037095e+00 -9.3746380289316011e-01
    2.1023350146208255e+00 -9.6375650571249316e-01
    2.1006574683562067e+00 -9.7494697072943903e-01
    2.0953574867847169e+00 -9.9540280736306908e-01
    2.1046400086290604e+00 -9.8595338450145187e-01
    2.1595342425863926e+00 -8.8672446655492154e-01
    2.3350558075750572e+00 -7.3145779611019757e-01 1. 0. 1. 0.
    2.4599471579180676e+00 -7.1043763719309727e-01
    2.3526023953869828e+00 -7.5799955922326345e-01
    2.2881757495027482e+00 -7.6671312257724777e-01
    2.2265711621581237e+00 -7.8604719114872013e-01
    2.1628942199334720e+00 -8.4299185625222239e-01
    2.1255974409957421e+00 -9.0311095135942121e-01
    2.1193280223969468e+00 -9.4072836642884561e-01
    2.1103149975843598e+00 -9.7009525918705419e-01
    2.1030696022851578e+00 -9.8825585515825820e-01
    2.1174311299303836e+00 -9.4262109116504467e-01
    2.2128541537944830e+00 -8.1542952985131123e-01
    2.4546952444398813e+00 -6.6587909312074989e-01 1. 0. 1. 0.
    2.4931282264999699e+00 -7.2755322969703706e-01
    2.3434758391881911e+00 -8.1789681805445047e-01
    2.2618538228188800e+00 -8.5814527800977636e-01
    2.2188718622949897e+00 -8.6447621476393732e-01
    2.1902875960362178e+00 -8.7628326431506376e-01
    2.1779721662790195e+00 -8.8997346614126593e-01
    2.1798453506198978e+00 -8.9940344896523017e-01
    2.1718963858187448e+00 -9.0237723951537530e-01
    2.1701169070188215e+00 -8.8642208253535892e-01
    2.2134963440091848e+00 -8.1526433494774064e-01
    2.3845047634391219e+00 -6.9845042996291917e-01
    2.6799942688431320e+00 -5.9407107072878729e-01 1. 0. 1. 0.
    2.5928852445139277e+00 -7.3435106288078045e-01
    2.4120581146120710e+00 -8.5211017672248257e-01
    2.3217563077502903e+00 -9.3204081283491291e-01
    2.2844957805036619e+00 -9.4617711650106495e-01
    2.2734790042009561e+00 -9.2746937838564780e-01
    2.2881882953636214e+00 -8.8760520073806992e-01
    2.3217709000991547e+00 -8.3685807460227235e-01
    2.3495690067421409e+00 -7.8339261333884502e-01
    2.3931249792288516e+00 -7.2675854497749648e-01
    2.5043857800185991e+00 -6.5610645206925733e-01
    2.7678730314547644e+00 -5.8064604350198712e-01
    3.0306202835729481e+00 -5.3869540938851945e-01 1. 0. 1. 0.
    2.7869502882965773e+00 -7.1606050492879048e-01
    2.5935388959276313e+00 -8.3103379815524958e-01
    2.4817843553327590e+00 -9.2006069393037804e-01
    2.4400255818444352e+00 -9.4756999183614177e-01
    2.4411527910821018e+00 -9.2367969832319219e-01
    2.4824460198076581e+00 -8.5961850159443409e-01
    2.5881473289838426e+00 -7.6732184006854398e-01
    2.7317870147707008e+00 -6.7515125937855602e-01
    2.9199778355934947e+00 -5.9394625863189499e-01
    3.1254060373070520e+00 -5.3545165774605041e-01
    3.4248988156916123e+00 -5.0150440064683299e-01
    3.4539401848887659e+00 -5.1521923157686511e-01 1. 0. 1. 0.
    2.9341402365289153e+00 -6.9857342698004876e-01
    2.7541489398295096e+00 -7.8869938194431588e-01
    2.6309670608670142e+00 -8.6024891819715077e-01
    2.5768995557063898e+00 -8.8903367635393149e-01
    2.5831582422676700e+00 -8.7612494733303914e-01
    2.6452047726800685e+00 -8.2198592843432317e-01
    2.8046961260987091e+00 -7.3517123519344030e-01
    3.0286061202577348e+00 -6.4510930271679923e-01
    3.3130518772743880e+00 -5.6960016924954571e-01
    3.5332842313121269e+00 -5.2528752264607625e-01
    3.7311527020261259e+00 -5.1321423732580018e-01
    3.5752981625179503e+00 -5.3610277568738640e-01 1. 0. 1. 0. 1. 0. 1.
    0. 1. 0. 1. 0. 1. 0. 1. 0. 1. 0. 1. 0. 1. 0. 1. 0. 1. 0. 1. 0. 1. 0.
    3.2516090349993583e+00 -6.4313747876368488e-01
    3.2336729133858313e+00 -6.2569888503383286e-01
    3.0688497115802398e+00 -6.2195512831256683e-01
    2.8873818497077521e+00 -6.1588216012083241e-01
    2.7599986455624403e+00 -6.0825219688345233e-01
    2.6723913148008900e+00 -5.9363784174531820e-01
    2.6244146603382634e+00 -5.7839735928898928e-01
    2.6025561860261108e+00 -5.7180670111009013e-01
    2.5958611923185511e+00 -5.8171917178109611e-01
    2.5982922939302080e+00 -6.0547068708722085e-01
    2.6148912171231671e+00 -6.4182476479687489e-01
    2.6513395549143874e+00 -6.7931443280720416e-01
    2.7525382666730871e+00 -6.9943175292302595e-01
    2.8226798995870390e+00 -7.1228041506322182e-01
    3.0742948183509218e+00 -7.0107138906083855e-01
    3.0252285495122098e+00 -6.8144532693121074e-01
    2.8055392432032416e+00 -6.7483358097899770e-01
    2.6127438357577550e+00 -6.7156772690712996e-01
    2.4790821295009295e+00 -6.6995860071580959e-01
    2.3929835330559839e+00 -6.6323476097826684e-01
    2.3516112181468181e+00 -6.5214991202816563e-01
    2.3413028024793006e+00 -6.4418625223588477e-01
    2.3456940619818889e+00 -6.5114111793151286e-01
    2.3566984365800980e+00 -6.7897877751379498e-01
    2.3798700274812141e+00 -7.2574690351903659e-01
    2.4412038467311672e+00 -7.7184913971267621e-01
    2.5664661844303338e+00 -7.8928807940102919e-01
    2.6756087902390875e+00 -7.9062534668925788e-01
    2.9247338698644163e+00 -7.4773238664547104e-01
    2.8240261980115502e+00 -7.4456113521155942e-01
    2.5742036820633789e+00 -7.5685274949745640e-01
    2.3848332262218861e+00 -7.6769595350213438e-01
    2.2662349912044419e+00 -7.8554673814751341e-01
    2.1871637322979902e+00 -8.1055136175593212e-01
    2.1410053948808008e+00 -8.3371262486142250e-01
    2.1232236995207501e+00 -8.4221341482177825e-01
    2.1347716313024621e+00 -8.3975901021758081e-01
    2.1686139201458636e+00 -8.4474156406795176e-01
    2.2260882968718110e+00 -8.5988560097412747e-01
    2.3284633561830375e+00 -8.7213155679314980e-01
    2.4994894656938187e+00 -8.5341625539259924e-01
    2.6552734358040335e+00 -8.2456634564379383e-01
    2.8832674067303619e+00 -7.6485369302395778e-01
    2.7564462500637603e+00 -7.8237012131096995e-01
    2.4814497687567783e+00 -8.1855545705181276e-01
    2.2943969191199058e+00 -8.5232613833357651e-01
    2.1870693418249423e+00 -8.9291183416385811e-01
    2.1240741469277351e+00 -9.5358984474077779e-01
    2.0947810373146853e+00 -1.0189672945930150e+00
    2.0884330835118714e+00 -1.0595931099774643e+00
    2.0975059774676512e+00 -1.0632479152165972e+00
    2.1217508070520519e+00 -1.0423626579877356e+00
    2.1707778747960100e+00 -1.0073600988719813e+00
    2.2793075384626555e+00 -9.5174024918451516e-01
    2.4918115845758284e+00 -8.6753013437516058e-01
    2.7016258423352575e+00 -8.0059984476835544e-01
    2.8851267697703213e+00 -7.5723762654510962e-01
    2.7608060961250520e+00 -7.8073942185310752e-01
    2.4841279027659211e+00 -8.3132985188672615e-01
    2.2950767282117481e+00 -8.7724915289037508e-01
    2.1935091389683170e+00 -9.1923504215896368e-01
    2.1338839068116102e+00 -9.7459865816853519e-01
    2.1077248997558251e+00 -1.0378356266167268e+00
    2.1057826412570853e+00 -1.0914546254422441e+00
    2.1212301255178003e+00 -1.1099776697601622e+00
    2.1436069355775116e+00 -1.1038193470083242e+00
    2.1861323332910434e+00 -1.0616063749330731e+00
    2.2861098758712513e+00 -9.7534564747830077e-01
    2.5287447205150761e+00 -8.4746471702809167e-01
    2.7850817616190140e+00 -7.5848128138798276e-01
    2.9220036349503018e+00 -7.4368878868551580e-01
    2.8389814345136255e+00 -7.5682478784070095e-01
    2.5528679780437473e+00 -7.9848973220920016e-01
    2.3486062842452560e+00 -8.3765351462157822e-01
    2.2442259722274378e+00 -8.6032251658932868e-01
    2.1873610257817151e+00 -8.7595158016437880e-01
    2.1537138912664844e+00 -9.0210394550874273e-01
    2.1379581684428284e+00 -9.3891509448519006e-01
    2.1446153273387489e+00 -9.7210898602071427e-01
    2.1692040666018682e+00 -1.0054874860169660e+00
    2.2172280586016502e+00 -9.9359986550537227e-01
    2.3307319053329421e+00 -9.2154044505755039e-01
    2.6056723288701966e+00 -7.9560499090704584e-01
    2.8819891920484788e+00 -7.1718282078972606e-01
    2.9661841954789128e+00 -7.2398264420901615e-01
    2.9148035782300870e+00 -7.2479693042609161e-01
    2.6270524623817662e+00 -7.5709590599329202e-01
    2.4056983378754282e+00 -7.9244018853797715e-01
    2.2953393198080017e+00 -8.1230469546962492e-01
    2.2475211977252130e+00 -8.1027223604189713e-01
    2.2245415934493029e+00 -8.1478283162820464e-01
    2.2093525079826946e+00 -8.3279294290079908e-01
    2.2083625011963650e+00 -8.6303487100338316e-01
    2.2273724811865940e+00 -8.9582607900506572e-01
    2.2855912840684902e+00 -8.9142677542486914e-01
    2.4222674080431479e+00 -8.3634870239806225e-01
    2.7159342440893499e+00 -7.3937964872953876e-01
    2.9641100721982925e+00 -6.8777284130593563e-01
    3.0511341401697738e+00 -7.0403548691866136e-01
    3.0076918571158542e+00 -6.9801197291237482e-01
    2.6965072082286339e+00 -7.2420757452524009e-01
    2.4465543229206208e+00 -7.6187676654288849e-01
    2.3107304890863785e+00 -7.9963481751758170e-01
    2.2446444048347378e+00 -8.1786991751224081e-01
    2.2130629682265166e+00 -8.3883859157436524e-01
    2.1954198116481307e+00 -8.6281085044000838e-01
    2.1978008910246167e+00 -8.7971344916423588e-01
    2.2323977987984858e+00 -8.7457104863784796e-01
    2.3186254976734761e+00 -8.2641363354980502e-01
    2.4940296450724007e+00 -7.6452147001917325e-01
    2.7975916897075259e+00 -6.9679421558630550e-01
    2.9949129620996509e+00 -6.7483072103898467e-01
    3.1444440357762815e+00 -6.8925650121116600e-01
    3.0855765394118229e+00 -6.7496004216638383e-01
    2.7535986627988214e+00 -6.9353853945280697e-01
    2.4831937963629458e+00 -7.3442825188827066e-01
    2.3147671228070452e+00 -7.9241648431374356e-01
    2.2174531862188491e+00 -8.4543458789851267e-01
    2.1733722111711233e+00 -8.9843168537438445e-01
    2.1566294644991921e+00 -9.3801126819076797e-01
    2.1654465382038834e+00 -9.4215704586331162e-01
    2.2040996185083759e+00 -8.9545739988611561e-01
    2.3138546715902550e+00 -8.0386663943203596e-01
    2.5134262969386443e+00 -7.2894384315441052e-01
    2.8051875792653256e+00 -6.8183453880850908e-01
    2.9498166119848577e+00 -6.7811754891928533e-01
    3.2049018879739557e+00 -6.7881471169923768e-01
    3.1563590143728812e+00 -6.5992035870614685e-01
    2.8153049861590187e+00 -6.7056292305320109e-01
    2.5433409757497096e+00 -7.0283307273587325e-01
    2.3606144098612654e+00 -7.5447789676001864e-01
    2.2383461355516703e+00 -8.1806939253769839e-01
    2.1741020572751548e+00 -8.9212953167790277e-01
    2.1474378578100017e+00 -9.5283046906509172e-01
    2.1583229885484263e+00 -9.5291696127058534e-01
    2.1992976720883535e+00 -8.9496640298974228e-01
    2.3199629791665020e+00 -7.9349977249705306e-01
    2.5208212298992145e+00 -7.2545540128198749e-01
    2.8052460640408969e+00 -6.8787762339652536e-01
    2.9306248076097456e+00 -6.8917764120639124e-01
    3.1598444537092099e+00 -6.7350700892562043e-01
    3.1092117656907625e+00 -6.5471164617061561e-01
    2.7831079355793666e+00 -6.6361475048170182e-01
    2.5523038230717390e+00 -6.8377293251221838e-01
    2.4041383076152001e+00 -7.1095819879285294e-01
    2.2962739866402262e+00 -7.4860259685875041e-01
    2.2192633539354736e+00 -8.1106544846820638e-01
    2.1813292185750481e+00 -8.6414044429589187e-01
    2.1951749961041469e+00 -8.6758665075503827e-01
    2.2434711668438059e+00 -8.3430239519779748e-01
    2.3519399645476473e+00 -7.7855696873766778e-01
    2.5092074057787883e+00 -7.4286459954099870e-01
    2.7694456724589522e+00 -7.0975020044982795e-01
    2.9172367605704377e+00 -6.9717424173718845e-01
    3.0615976092646537e+00 -6.7007108007645499e-01
    2.9977609808030818e+00 -6.6232746201527637e-01
    2.6702506644250792e+00 -6.8346563598969423e-01
    2.4777564187434575e+00 -7.0389466030237424e-01
    2.3904797333832102e+00 -7.0325054086622707e-01
    2.3349864674052379e+00 -7.0495128048327027e-01
    2.2730750810251723e+00 -7.3631347907853106e-01
    2.2378676176597683e+00 -7.7047612413438349e-01
    2.2610937307152543e+00 -7.7492256543406213e-01
    2.3040034847708180e+00 -7.7258392098773199e-01
    2.3660791229905280e+00 -7.7150982147853531e-01
    2.4628445120679259e+00 -7.7065549710224823e-01
    2.7024064977342555e+00 -7.3381024535769801e-01
    2.8855992309532348e+00 -7.0399728499155723e-01
    2.9833179082120775e+00 -6.5728127589149754e-01
    2.8615369715125354e+00 -6.6748187667466841e-01
    2.5298131140675748e+00 -7.2066339663965728e-01
    2.3460983207424211e+00 -7.6738007047936585e-01
    2.2739084523984263e+00 -7.6887273791755006e-01
    2.2527169063292010e+00 -7.5254754534478696e-01
    2.2353834314905150e+00 -7.4886462192362713e-01
    2.2413376722920439e+00 -7.5225269953801277e-01
    2.2684702376433692e+00 -7.5257063362457632e-01
    2.2908620685559935e+00 -7.7209078219952954e-01
    2.3085980023681807e+00 -8.0196881791145769e-01
    2.3896497402557046e+00 -8.0754145448850789e-01
    2.6190374594054155e+00 -7.5369455457152301e-01
    2.8326415712023736e+00 -7.0736004610057424e-01
    2.9867492845992647e+00 -6.4558917364633506e-01
    2.8022660483158774e+00 -6.7926084569724043e-01
    2.4375317166506427e+00 -7.7452263534601595e-01
    2.2485369906828234e+00 -8.7701932478838485e-01
    2.1673766963724783e+00 -9.2523662503951420e-01
    2.1349193748456621e+00 -9.2722659437435917e-01
    2.1232616172869871e+00 -9.0627547950831577e-01
    2.1338604013163609e+00 -8.8084266417004331e-01
    2.1558144353403814e+00 -8.6856328037148911e-01
    2.1820231348418098e+00 -8.7718687031401044e-01
    2.2208795690004401e+00 -8.8541635891861992e-01
    2.3305628121163919e+00 -8.4483249599740740e-01
    2.5889559472170292e+00 -7.5630235793227574e-01
    2.8261782013085583e+00 -7.0299698441505032e-01
    3.0200181259673378e+00 -6.3777183414168082e-01
    2.7682417806232218e+00 -6.8801981484720742e-01
    2.3883152863332588e+00 -8.1320780789825042e-01
    2.2097768804694038e+00 -9.6866208879036120e-01
    2.1462717298113834e+00 -1.0911709675911414e+00
    2.1256869728651848e+00 -1.1485998233362598e+00
    2.1069121980397920e+00 -1.1387558776042617e+00
    2.0980427122307099e+00 -1.0980923865290515e+00
    2.1036437907631798e+00 -1.0600504023349357e+00
    2.1266190679738495e+00 -1.0245500491634831e+00
    2.1819345973008244e+00 -9.6000724683092076e-01
    2.3235473194959404e+00 -8.5038767973476026e-01
    2.6291887091692083e+00 -7.3332403084298003e-01
    2.8740627220294517e+00 -6.8542096582422585e-01
    3.0595992138129131e+00 -6.3292754089296099e-01
    2.7823682161589347e+00 -6.8335052868801083e-01
    2.3929798711649770e+00 -8.0566793736835840e-01
    2.2068816353903755e+00 -9.6252039660398847e-01
    2.1477939059038516e+00 -1.1147845940477989e+00
    2.1385166163422769e+00 -1.2149106713981097e+00
    2.1290529201738364e+00 -1.2403720379993304e+00
    2.1139851936238281e+00 -1.2108333968646825e+00
    2.1051841733435732e+00 -1.1484846265078785e+00
    2.1166589159020925e+00 -1.0537546519067047e+00
    2.1879186225278655e+00 -9.2562781252096782e-01
    2.3845027460011905e+00 -7.8866120023863484e-01
    2.7430520794663753e+00 -6.8474564224616463e-01
    2.9497171333102852e+00 -6.6380843083691254e-01
    3.2059013040725226e+00 -6.0376496571712313e-01
    2.9225488422645496e+00 -6.3883028352191762e-01
    2.5126903846195265e+00 -7.2341692348812126e-01
    2.2820635140750025e+00 -8.2502342954640928e-01
    2.1689264749960424e+00 -9.2541194058639320e-01
    2.1192059939601804e+00 -1.0006690034017252e+00
    2.0955307286947007e+00 -1.0332503856472153e+00
    2.0885851337387207e+00 -1.0263727359747401e+00
    2.1005468846852868e+00 -9.7370242221773129e-01
    2.1560019525059468e+00 -8.8351898933180883e-01
    2.3063505536306912e+00 -7.6965396432530397e-01
    2.5944418383876555e+00 -6.6878975302806343e-01
    2.9818032553350391e+00 -6.1517808559484533e-01
    3.0982900318890594e+00 -6.2313744336962906e-01
    3.4046455739139092e+00 -5.4653406187118314e-01
    3.1833370253377002e+00 -5.6180848555801766e-01
    2.8084616707611256e+00 -6.0541846004374866e-01
    2.5611465774859541e+00 -6.4542400943221268e-01
    2.4073578070236401e+00 -6.8194473931511179e-01
    2.3137388465987194e+00 -7.0727697398215061e-01
    2.2677624687392179e+00 -7.2118419756294116e-01
    2.2573027588911341e+00 -7.1976027402226461e-01
    2.3004387144257543e+00 -6.9765476574091456e-01
    2.4205866002384764e+00 -6.5167554695733543e-01
    2.6488163127346844e+00 -5.9749185199694221e-01
    2.9802031769138497e+00 -5.5339579961467456e-01
    3.2842264988826098e+00 -5.4698359830126031e-01
    3.2920476741325713e+00 -5.7272477483361983e-01 1. 0. 1. 0. 1. 0. 1.
    0. 1. 0. 1. 0. 1. 0. 1. 0. 1. 0. 1. 0. 1. 0. 1. 0. 1. 0. 1. 0. 1. 0.
    3.1648304603752138e+00 -6.9401610560757132e-01
    2.9841657044902687e+00 -7.1317559973682065e-01
    2.8344871105720384e+00 -7.4009952386830136e-01
    2.7640336564615580e+00 -7.4896059465037934e-01
    2.7701535101693771e+00 -7.3848184561334640e-01
    2.8313386837034162e+00 -7.1730643321664167e-01
    2.9005379629572925e+00 -6.9496387691978645e-01
    2.9154593266396143e+00 -6.8177750301840989e-01
    2.8691928105947477e+00 -6.8378030527386757e-01
    2.8124611698177371e+00 -6.9083032405340605e-01
    2.8337664602978831e+00 -6.9825870754836739e-01
    2.9154716327081971e+00 -6.7952965463801873e-01 1. 0. 1. 0.
    2.9190212599453687e+00 -7.3337658523525096e-01
    2.7007310379977243e+00 -7.8283900354183111e-01
    2.5359216702703473e+00 -8.4105177679996335e-01
    2.4653477211191701e+00 -8.6789240941977031e-01
    2.4577336441934867e+00 -8.5538627665385614e-01
    2.5120293033753947e+00 -8.0620100713053311e-01
    2.5978628007686471e+00 -7.4125638482684919e-01
    2.6763537860914086e+00 -6.9081858873967805e-01
    2.6992432966035107e+00 -6.6549638352894069e-01
    2.7041876394937128e+00 -6.6061123741689287e-01
    2.7543700075263193e+00 -6.7138246753771180e-01
    2.8466836073403341e+00 -6.7055277739079833e-01 1. 0. 1. 0.
    2.6119103684450726e+00 -8.0114237002264488e-01
    2.4172910912010632e+00 -8.8289006173885443e-01
    2.2931365346504800e+00 -9.7809734996312214e-01
    2.2491054604130216e+00 -1.0293547119058384e+00
    2.2368149405854618e+00 -1.0129739191184917e+00
    2.2597782791267536e+00 -9.3468284664440182e-01
    2.3102246076029891e+00 -8.3114647234406103e-01
    2.3938477179578670e+00 -7.3663576828808564e-01
    2.4635562427977935e+00 -6.7172753836102550e-01
    2.5177592302536169e+00 -6.4640381530237490e-01
    2.5683927946397254e+00 -6.6538365802689881e-01
    2.6354163519256413e+00 -6.9570693560228292e-01 1. 0. 1. 0.
    2.4555234201522773e+00 -8.4901304674205713e-01
    2.2981611573344192e+00 -9.4752852440688773e-01
    2.2029146667382848e+00 -1.0573311141175648e+00
    2.1785640047985906e+00 -1.1200131089798049e+00
    2.1655569395927086e+00 -1.0911113975777955e+00
    2.1709732455505510e+00 -1.0054371441290944e+00
    2.1882940197164782e+00 -8.9999863317278528e-01
    2.2392981729184016e+00 -7.9113451654959965e-01
    2.3125322601489962e+00 -6.9887022288526668e-01
    2.3884210266446999e+00 -6.5339968763745182e-01
    2.4279706831187635e+00 -6.7460406952122631e-01
    2.4536173484937116e+00 -7.3814118764696257e-01 1. 0. 1. 0.
    2.3845992386903703e+00 -8.6341505443501998e-01
    2.2538654264871196e+00 -9.5974970744364652e-01
    2.1687097619583318e+00 -1.0542688928654333e+00
    2.1451128194814504e+00 -1.0981101290024649e+00
    2.1351049685262473e+00 -1.0600590916023749e+00
    2.1385544894238553e+00 -9.9473368504547932e-01
    2.1454015351999645e+00 -9.2603301462640963e-01
    2.1732964022793273e+00 -8.3848885127410799e-01
    2.2318876727587420e+00 -7.4414773575849347e-01
    2.3047872996639729e+00 -6.8712292820572829e-01
    2.3301946472991997e+00 -7.1105597491731887e-01
    2.3361949296056950e+00 -7.9619969952563774e-01 1. 0. 1. 0.
    2.3587292723746707e+00 -8.5292938258430506e-01
    2.2417591905465963e+00 -9.3675063038288231e-01
    2.1591659198599720e+00 -1.0158577490586786e+00
    2.1316117314255592e+00 -1.0417529390350404e+00
    2.1272275869721278e+00 -1.0086783057690190e+00
    2.1302686540976623e+00 -9.6356201514189654e-01
    2.1337712498477521e+00 -9.2512167649463117e-01
    2.1470536575237795e+00 -8.5705522914630883e-01
    2.1986658762501499e+00 -7.7277536391575252e-01
    2.2588554028538921e+00 -7.2592502462765685e-01
    2.2725138755341039e+00 -7.6456931712446929e-01
    2.2748577619504062e+00 -8.6197237319009634e-01 1. 0. 1. 0.
    2.3540043990255586e+00 -8.4087137663094136e-01
    2.2460106467547347e+00 -9.1104720998631672e-01
    2.1601281707612632e+00 -9.8269916951378078e-01
    2.1283189839897356e+00 -1.0112395794755251e+00
    2.1213893438109723e+00 -9.9769715441657658e-01
    2.1202988706664092e+00 -9.6507512727573630e-01
    2.1239295257533781e+00 -9.2199514554330708e-01
    2.1446312192195021e+00 -8.4246386393978567e-01
    2.2043748572335837e+00 -7.6562326241105050e-01
    2.2469097550450865e+00 -7.4520733015348617e-01
    2.2423185289206664e+00 -8.1227083776766373e-01
    2.2485885176130740e+00 -9.1604940242720023e-01 1. 0. 1. 0.
    2.3533538185735541e+00 -8.3682088119919551e-01
    2.2596188022466439e+00 -8.9250113132748665e-01
    2.1695130224092041e+00 -9.6512447845687421e-01
    2.1285180238258290e+00 -1.0200192962599264e+00
    2.1165932063819697e+00 -1.0328599715234523e+00
    2.1091381551461783e+00 -9.9958105050991919e-01
    2.1151091186803304e+00 -9.2369794991871812e-01
    2.1529677093441490e+00 -8.1591923124946175e-01
    2.2305296219670661e+00 -7.3695088173618939e-01
    2.2565567588433075e+00 -7.4192764480411666e-01
    2.2340079473054089e+00 -8.3598097622716616e-01
    2.2457065644238590e+00 -9.4537163697223137e-01 1. 0. 1. 0.
    2.3447644920163286e+00 -8.3894323915710189e-01
    2.2693219563865314e+00 -8.8432951785042457e-01
    2.1769413954851142e+00 -9.5099641235998478e-01
    2.1288873773759502e+00 -1.0282848313463786e+00
    2.1159942425298386e+00 -1.0600582589345571e+00
    2.1098710781333265e+00 -1.0327145924120440e+00
    2.1143693222322000e+00 -9.3649919123938719e-01
    2.1599707535036976e+00 -8.1886156181834524e-01
    2.2317006654827845e+00 -7.3751025467610543e-01
    2.2471084201952376e+00 -7.4510036004264879e-01
    2.2242402335552214e+00 -8.3885401042365804e-01
    2.2419903839520696e+00 -9.4448671493607728e-01 1. 0. 1. 0.
    2.3251072252325251e+00 -8.4826012468468670e-01
    2.2699276775620412e+00 -8.7756473734140117e-01
    2.1895556501268172e+00 -9.3334764175388252e-01
    2.1394318292689380e+00 -9.9833801855028081e-01
    2.1218030282763172e+00 -1.0269384464356865e+00
    2.1154116525976514e+00 -1.0075199497603444e+00
    2.1176761633092012e+00 -9.3732312106813098e-01
    2.1433410863964886e+00 -8.5305683649985575e-01
    2.1837135711168982e+00 -7.8506274974226498e-01
    2.2071641623296214e+00 -7.8116005148031875e-01
    2.2153171754134191e+00 -8.4200274231672634e-01
    2.2399122100877946e+00 -9.3097325437991074e-01 1. 0. 1. 0.
    2.3025482630271035e+00 -8.6503622064874519e-01
    2.2619220444435229e+00 -8.8378320193282056e-01
    2.1980950537093573e+00 -9.2154979761934686e-01
    2.1520064117989861e+00 -9.5567971775767402e-01
    2.1365136359953132e+00 -9.6095984044373395e-01
    2.1301370643583337e+00 -9.5150563016337053e-01
    2.1256356068371072e+00 -9.3101127973272846e-01
    2.1266739641954935e+00 -9.0716006126436699e-01
    2.1364394519789176e+00 -8.6505316633563156e-01
    2.1663111608739416e+00 -8.4006913328121890e-01
    2.2051353395085442e+00 -8.5203523075013954e-01
    2.2385008140195257e+00 -9.1439453447669083e-01 1. 0. 1. 0.
    2.2839960721720396e+00 -8.9286266108092649e-01
    2.2455987668187567e+00 -9.0996796874059038e-01
    2.1964497991695531e+00 -9.3449947286023860e-01
    2.1614786052105668e+00 -9.3064130720627325e-01
    2.1582666593752342e+00 -9.0041902575955512e-01
    2.1501648776966604e+00 -8.8554305130625188e-01
    2.1325760263961206e+00 -9.0892772138161637e-01
    2.1180493540486847e+00 -9.3656600922809863e-01
    2.1212226940928827e+00 -9.2294180382614033e-01
    2.1560083418702121e+00 -8.8259746196139632e-01
    2.2101764004142317e+00 -8.6059402958781583e-01
    2.2491583701935070e+00 -9.0209416936106457e-01 1. 0. 1. 0.
    2.2705653611681353e+00 -9.2752002267603262e-01
    2.2217988075825263e+00 -9.5972662233901596e-01
    2.1731760812081977e+00 -9.8786238726586040e-01
    2.1459588606440656e+00 -9.5959481414014902e-01
    2.1554723924049481e+00 -8.8673700722956361e-01
    2.1599845868431538e+00 -8.5352227660553703e-01
    2.1384202228657965e+00 -8.8406964115105879e-01
    2.1219624409686406e+00 -9.2830793580529158e-01
    2.1292989737346137e+00 -9.2155904879919381e-01
    2.1669405950193301e+00 -8.7821542932764507e-01
    2.2214194689230737e+00 -8.5420219341448267e-01
    2.2587202453597195e+00 -8.9529528885132592e-01 1. 0. 1. 0.
    2.2661764361029579e+00 -9.5037412800154786e-01
    2.2039874520283003e+00 -9.9787690377641303e-01
    2.1538828193324990e+00 -1.0532856124931917e+00
    2.1302080907695902e+00 -1.0223735002225540e+00
    2.1334980215809893e+00 -9.2282256226795700e-01
    2.1511176934371430e+00 -8.5974252519233785e-01
    2.1457746390141010e+00 -8.6745485432979519e-01
    2.1396611808914527e+00 -8.8742716752045658e-01
    2.1560394983023117e+00 -8.7129143483170035e-01
    2.1920505948955253e+00 -8.3700692912931240e-01
    2.2346150663274011e+00 -8.4057158527552833e-01
    2.2635344252652918e+00 -9.0160431135074459e-01 1. 0. 1. 0.
    2.2775575836099811e+00 -9.3993551695357369e-01
    2.1992688998518526e+00 -9.8251222820752238e-01
    2.1433508876237695e+00 -1.0617639398135057e+00
    2.1203282837552822e+00 -1.0571075837527077e+00
    2.1138868762977618e+00 -9.6804535658355917e-01
    2.1321322251845483e+00 -8.9068010333392944e-01
    2.1492585578350654e+00 -8.6101727624859137e-01
    2.1613223496475737e+00 -8.4882548456601914e-01
    2.1855406284838939e+00 -8.2284135184968921e-01
    2.2094623821389678e+00 -8.1078805587993652e-01
    2.2369178325984187e+00 -8.4709688890547352e-01
    2.2625907175251703e+00 -9.3082089335547780e-01 1. 0. 1. 0.
    2.3318331090322100e+00 -8.8733377073748609e-01
    2.2369918622510503e+00 -9.0085086624497090e-01
    2.1543821506798668e+00 -9.7267694077656930e-01
    2.1245297819517743e+00 -1.0064855046534029e+00
    2.1179092102579569e+00 -9.6931765645240042e-01
    2.1346046220274228e+00 -9.1023515445280545e-01
    2.1659081542485104e+00 -8.6015673845782592e-01
    2.1912238897940477e+00 -8.2885824908133054e-01
    2.2106287942685490e+00 -8.0910584965091625e-01
    2.2163346048586452e+00 -8.2781430770460962e-01
    2.2396752399846807e+00 -8.9084609333715059e-01
    2.2782236791755888e+00 -9.7975583393218602e-01 1. 0. 1. 0.
    2.4639146785391519e+00 -8.0681790315142310e-01
    2.3726495823403488e+00 -7.8157341532160796e-01
    2.2550836199451414e+00 -8.1992473639856456e-01
    2.1951894544162274e+00 -8.6466204931676560e-01
    2.1781071670891423e+00 -8.7579461511965317e-01
    2.1929725949470922e+00 -8.6107430770728366e-01
    2.2201276336339566e+00 -8.3959507968535685e-01
    2.2287366797285126e+00 -8.3608293365939601e-01
    2.2220760419169658e+00 -8.5070308584811105e-01
    2.2253244203218783e+00 -8.9629375636962783e-01
    2.2701824978443139e+00 -9.6083928642693717e-01
    2.3255316959817343e+00 -1.0193946854005900e+00 1. 0. 1. 0.
    2.7061481496642714e+00 -7.2428233035205791e-01
    2.6703375291023459e+00 -6.6621078580779713e-01
    2.5355628378872419e+00 -6.6749710018046471e-01
    2.4290838310036973e+00 -6.9821976949735332e-01
    2.3724206012377489e+00 -7.3113356089216686e-01
    2.3642318864151943e+00 -7.5522185519068918e-01
    2.3542516203363140e+00 -7.9235091097882193e-01
    2.3172143000845256e+00 -8.4613566034333376e-01
    2.2894156324638066e+00 -9.1542273326661050e-01
    2.2991713085079484e+00 -9.7458509016711015e-01
    2.3590750886387828e+00 -1.0090200773976772e+00
    2.4178663210002544e+00 -1.0097451805343758e+00 1. 0. 1. 0.
    3.0370365016584944e+00 -6.6308140215696787e-01
    3.1456401134459369e+00 -5.8751154641950276e-01
    3.0574626306982551e+00 -5.6349704064569828e-01
    2.9256392649520895e+00 -5.7512349364898452e-01
    2.8080782193024572e+00 -6.0593354669185562e-01
    2.7376168315214011e+00 -6.4802272188359555e-01
    2.6323007814297017e+00 -7.2117660552552343e-01
    2.5164618900755671e+00 -8.1688756196509549e-01
    2.4593152171289412e+00 -9.1978814526637631e-01
    2.4687591204965389e+00 -9.7664673937707125e-01
    2.5323045406525284e+00 -9.7647266725131843e-01
    2.5776009741099832e+00 -9.3565671197672029e-01 1. 0. 1. 0.
    3.1986956594303457e+00 -6.4796878356094201e-01
    3.3807267818694111e+00 -5.8245357607023862e-01
    3.3419099708474378e+00 -5.5527001145760535e-01
    3.2373296569949535e+00 -5.5642538318261503e-01
    3.1298125856799852e+00 -5.7588749554168461e-01
    3.0404497598187050e+00 -6.1232094938120618e-01
    2.8869225390979278e+00 -6.8343420035278801e-01
    2.7109649945699337e+00 -7.7602459844468030e-01
    2.6243963762406062e+00 -8.6838757192465799e-01
    2.6131648805939447e+00 -9.1175976753709798e-01
    2.6731834880989527e+00 -9.0156641568310447e-01
    2.6941900580869942e+00 -8.6271251695646523e-01 1. 0. 1. 0. 1. 0. 1.
    0. 1. 0. 1. 0. 1. 0. 1. 0. 1. 0. 1. 0. 1. 0. 1. 0. 1. 0. 1. 0. 1. 0.
    3.0894470558074882e+00 -6.6883971353283334e-01
    2.9638017434494643e+00 -6.9229585360892021e-01
    2.6405183301781263e+00 -7.6267395482378664e-01
    2.3899135679572625e+00 -8.6344648529097090e-01
    2.2495605687217268e+00 -9.8530064482279456e-01
    2.1886476236149424e+00 -1.1161601538648622e+00
    2.1814605975227814e+00 -1.2304762195849539e+00
    2.1885226692817494e+00 -1.2946933240962517e+00
    2.1822024131643536e+00 -1.2722175951983807e+00
    2.1735093844518247e+00 -1.1692674406802208e+00
    2.2118633332625381e+00 -1.0166307252189903e+00
    2.3637501357783401e+00 -8.5699453333710940e-01
    2.6695620386299743e+00 -7.2929990522947385e-01
    2.9111709727820516e+00 -6.7283151432687971e-01
    3.2311504008926839e+00 -6.2663879418956692e-01
    3.0440105458052602e+00 -6.5264885978097520e-01
    2.6178002027024729e+00 -7.4107846701782198e-01
    2.3359548552172185e+00 -8.6078300087162118e-01
    2.1955970245560534e+00 -9.9486921043424303e-01
    2.1433922155753913e+00 -1.1233400806508260e+00
    2.1381892761113330e+00 -1.2277771561007702e+00
    2.1462361252506970e+00 -1.2892303295864733e+00
    2.1394791837242382e+00 -1.2668807563573774e+00
    2.1280298388700780e+00 -1.1558769669028996e+00
    2.1685358193853483e+00 -9.8856348054387599e-01
    2.3490360668115082e+00 -8.1238736017715751e-01
    2.7609478233339644e+00 -6.6733784535503993e-01
    3.1340242751656180e+00 -6.0493195761366958e-01
    3.2821840308664538e+00 -6.0148556319547741e-01
    3.1126337403998616e+00 -6.1698694313431279e-01
    2.6514216044451309e+00 -6.9735862493671408e-01
    2.3530819260287226e+00 -8.0411338146776834e-01
    2.2006343911177950e+00 -9.0430503144072238e-01
    2.1281011948369342e+00 -9.6956516248311730e-01
    2.0973779278774822e+00 -1.0033113335857480e+00
    2.0841803432835606e+00 -1.0223425717798706e+00
    2.0884642784164704e+00 -1.0142634383423943e+00
    2.1130276985718019e+00 -9.6103211562514668e-01
    2.1935668189681405e+00 -8.6442230477221516e-01
    2.4002849707626659e+00 -7.4083739100577850e-01
    2.8256258168632664e+00 -6.2767508478468714e-01
    3.2136644268614063e+00 -5.8164574049626916e-01
    3.2417662419638464e+00 -5.9859015943473037e-01
    3.1378608418347214e+00 -5.9998321172300084e-01
    2.7045442713405343e+00 -6.6446089085008286e-01
    2.4109892045876169e+00 -7.4801110081438515e-01
    2.2606124917137089e+00 -8.0980029854212987e-01
    2.1933945859455921e+00 -8.2717521358016044e-01
    2.1718164905844377e+00 -8.1407348543869107e-01
    2.1648462106504622e+00 -7.9982943687177721e-01
    2.1788365160149579e+00 -7.8551155409446161e-01
    2.2257211344616201e+00 -7.6421489715637880e-01
    2.3266355866199326e+00 -7.2627817018238960e-01
    2.5352230015819424e+00 -6.7093036487335189e-01
    2.9104463594285508e+00 -6.1251791424414570e-01
    3.1898879417037471e+00 -5.9851067426055371e-01
    3.1626108411817948e+00 -6.1304405491945013e-01
    3.1111947800149560e+00 -6.0802057976261759e-01
    2.7231714632143929e+00 -6.5639958338675053e-01
    2.4530323499218691e+00 -7.2739204286902348e-01
    2.3047090966563548e+00 -7.8093581077818153e-01
    2.2389543460430006e+00 -7.9863950249996352e-01
    2.2154362997627666e+00 -7.8406712206253171e-01
    2.2216922089643640e+00 -7.5650038907673411e-01
    2.2659403528928941e+00 -7.2396640127577438e-01
    2.3476955348176816e+00 -6.9108328149278586e-01
    2.4631582482701875e+00 -6.6156490481993357e-01
    2.6546301050801477e+00 -6.3449417992056223e-01
    2.9446195474972257e+00 -6.1773070167518729e-01
    3.1190003003812796e+00 -6.3081660063351386e-01
    3.1027159086333049e+00 -6.3245429429791200e-01
    3.0775885139673576e+00 -6.3167127583225779e-01
    2.7237906574643200e+00 -6.7658484513979755e-01
    2.4626445920972051e+00 -7.4927872479573587e-01
    2.3066211863068919e+00 -8.1592299763609655e-01
    2.2210958990854972e+00 -8.6302894125872787e-01
    2.1745433691734029e+00 -8.7458580772834016e-01
    2.1667540234052085e+00 -8.5393247397784211e-01
    2.2091446638926868e+00 -8.0516883998359878e-01
    2.2983373559676776e+00 -7.4428118747297933e-01
    2.4376724396195075e+00 -6.9210545896624931e-01
    2.6373683121315419e+00 -6.6029747710208675e-01
    2.9018692228041618e+00 -6.5068647951420155e-01
    3.0160926447653162e+00 -6.6514183128680782e-01
    3.1461185540823902e+00 -6.4614185677696312e-01
    3.1190265776076300e+00 -6.5352509855272622e-01
    2.7691118769666807e+00 -6.9563076127491774e-01
    2.5123062313053368e+00 -7.6426766058803464e-01
    2.3443057975968169e+00 -8.3014761708351659e-01
    2.2388462609281312e+00 -8.9609743627652827e-01
    2.1729011964571359e+00 -9.3628549248056381e-01
    2.1550984103354018e+00 -9.3309533619774399e-01
    2.1833394792300296e+00 -8.8201969114973799e-01
    2.2491280071571609e+00 -8.1359064944606652e-01
    2.3675741757107329e+00 -7.5719363578314847e-01
    2.5375779043014695e+00 -7.2180586038610262e-01
    2.8018771075057569e+00 -6.9974107819040643e-01
    2.9277264527295683e+00 -6.9658747092174056e-01
    3.1995500832976953e+00 -6.5154457574012070e-01
    3.1021183333464903e+00 -6.6838738496028605e-01
    2.7479149227505135e+00 -7.2004684573538946e-01
    2.5177263409541411e+00 -7.8080304623626806e-01
    2.3728494592795810e+00 -8.2355723739311804e-01
    2.2753131815100005e+00 -8.6399998644410414e-01
    2.2086605188763766e+00 -8.8748470110022049e-01
    2.1912642470113424e+00 -8.8158247122260425e-01
    2.2155651936227621e+00 -8.5406421916499453e-01
    2.2512212967901104e+00 -8.2959754498016247e-01
    2.3221113880915785e+00 -8.1724239350962158e-01
    2.4417973721553858e+00 -7.9488685475675969e-01
    2.6953642417566317e+00 -7.4905574263778685e-01
    2.8486052057876941e+00 -7.1594606878963729e-01
    3.1934258531371880e+00 -6.6209762123544902e-01
    3.0098353570517360e+00 -6.8951611708423455e-01
    2.6611359876197977e+00 -7.5453466407880254e-01
    2.4532412038451730e+00 -8.0827048483914032e-01
    2.3493946302004747e+00 -8.2858004022891230e-01
    2.2880517099115796e+00 -8.3392734753912245e-01
    2.2506869239972698e+00 -8.2550577042692830e-01
    2.2453202716175373e+00 -8.0563312635566675e-01
    2.2652404961614905e+00 -7.9383327733565412e-01
    2.2753954976544186e+00 -8.0692756624277462e-01
    2.3090303029954948e+00 -8.4027448620964151e-01
    2.3971113657884389e+00 -8.3659164541771447e-01
    2.6284140840868147e+00 -7.7841890876191389e-01
    2.8026595948608093e+00 -7.2583245280575659e-01
    3.1116786753822003e+00 -6.7646773315521236e-01
    2.9072464424636326e+00 -7.1309010129523620e-01
    2.5617417655868873e+00 -7.9070853371689986e-01
    2.3673942899053921e+00 -8.5606936605182493e-01
    2.2745577466298719e+00 -8.8242383654714729e-01
    2.2402292548201777e+00 -8.7214461856959125e-01
    2.2344192262616280e+00 -8.3524214114147433e-01
    2.2499697856800518e+00 -7.9581569155089826e-01
    2.2734378467820373e+00 -7.8485103619537233e-01
    2.2829486471288143e+00 -8.0933245840762469e-01
    2.3142485006104980e+00 -8.4736749220603202e-01
    2.4004972379492169e+00 -8.3840193113262529e-01
    2.6225905781759029e+00 -7.7287992248085757e-01
    2.8031890304772085e+00 -7.2224277890795774e-01
    3.0044849834508800e+00 -6.9710696409182638e-01
    2.8291144014704259e+00 -7.3646367278666758e-01
    2.5063704137383689e+00 -8.1770037951017072e-01
    2.3129323665434218e+00 -9.0174596347860314e-01
    2.2194584700228797e+00 -9.5899640884173820e-01
    2.1821827754134109e+00 -9.7278232064187709e-01
    2.1678866181544771e+00 -9.3397506067369063e-01
    2.1793435906373295e+00 -8.8633300835327544e-01
    2.2109080952806117e+00 -8.5989394801594943e-01
    2.2535986366857599e+00 -8.5576324084101174e-01
    2.3193304249399644e+00 -8.5080984474193000e-01
    2.4354268885907517e+00 -8.1406684431997633e-01
    2.6666986792011005e+00 -7.5057884663446317e-01
    2.8412426285623864e+00 -7.1535535023675123e-01
    2.8937349164280142e+00 -7.2131537655522682e-01
    2.7579182920181680e+00 -7.5358604826140663e-01
    2.4581889068894571e+00 -8.2557928561417726e-01
    2.2786404188062455e+00 -9.1513760085854889e-01
    2.1881686397778135e+00 -1.0048576874927879e+00
    2.1579013979593471e+00 -1.0623586990391769e+00
    2.1347707760068046e+00 -1.0558789971168849e+00
    2.1331636136228793e+00 -1.0152607865350571e+00
    2.1644869659920345e+00 -9.7095757511920644e-01
    2.2179513833097531e+00 -9.2411558698055984e-01
    2.3069344736331896e+00 -8.6015739274129666e-01
    2.4446244097694128e+00 -7.9209558342103603e-01
    2.6946040115666503e+00 -7.3079847648788898e-01
    2.8617780070090819e+00 -7.1099707663250455e-01
    2.8315439719938515e+00 -7.4901321348605732e-01
    2.7191356528945776e+00 -7.6612632203325293e-01
    2.4480772924012881e+00 -8.1359177980739517e-01
    2.2758589305385595e+00 -8.7719426177676396e-01
    2.1823492839166545e+00 -9.5429623026601484e-01
    2.1416419725926326e+00 -1.0300409422632701e+00
    2.1216729889813912e+00 -1.0693456139252566e+00
    2.1224622783134950e+00 -1.0626597548782597e+00
    2.1524589580070801e+00 -1.0161139549264835e+00
    2.2048391014919044e+00 -9.3965688688148152e-01
    2.3015924812639019e+00 -8.4823435189774399e-01
    2.4552123163842867e+00 -7.7037746070695401e-01
    2.7168131555631274e+00 -7.1839423649077994e-01
    2.8807145846868840e+00 -7.0925432862306592e-01
    2.8486376867835967e+00 -7.5790536686757937e-01
    2.7672513753202739e+00 -7.5307678211330131e-01
    2.5129233719421959e+00 -7.6258390479847638e-01
    2.3489597252218322e+00 -7.7773140634365456e-01
    2.2435865165117752e+00 -8.0838604194384156e-01
    2.1729024083658564e+00 -8.5836623960295433e-01
    2.1315965879727434e+00 -9.0995211109219909e-01
    2.1300711083218289e+00 -9.3352819082646354e-01
    2.1678571872456613e+00 -9.1162998465619105e-01
    2.2341972517914259e+00 -8.5557783991556946e-01
    2.3364458237474066e+00 -7.8821001098925436e-01
    2.4858456576812147e+00 -7.4296259066104386e-01
    2.7317103824855944e+00 -7.1438597120518976e-01
    2.8780525000975721e+00 -7.1385533182280048e-01
    2.9574066616474606e+00 -7.4796112510469026e-01
    2.8946413670960620e+00 -7.2541724026059407e-01
    2.6482607107778326e+00 -7.1013919181152807e-01
    2.4962025949300730e+00 -6.9015150039598094e-01
    2.4087013659487360e+00 -6.7561457861561314e-01
    2.3264802101389246e+00 -6.8990396177226099e-01
    2.2532993418101221e+00 -7.2630811489709435e-01
    2.2287316876340633e+00 -7.5540961972837939e-01
    2.2576923289720572e+00 -7.5876722220335902e-01
    2.3183366343255156e+00 -7.4527358037619817e-01
    2.4022187775369548e+00 -7.3031381599157419e-01
    2.5399324498585858e+00 -7.2874274215136536e-01
    2.7846670656656576e+00 -7.2152048691939774e-01
    2.9320778670085539e+00 -7.1979826661346635e-01
    3.0350350700696604e+00 -7.4476397357717683e-01
    2.9657242027130732e+00 -7.1651614921530915e-01
    2.7007308210045089e+00 -7.0169684794994847e-01
    2.5294411731026791e+00 -6.8123311789310814e-01
    2.4443637440142516e+00 -6.5909305088286896e-01
    2.3779025460315326e+00 -6.5475032659237953e-01
    2.3253014051019694e+00 -6.6939946768682368e-01
    2.3035292953674191e+00 -6.8628392949346639e-01
    2.3142306033287721e+00 -7.0256519609022072e-01
    2.3402591925699019e+00 -7.2297533126871838e-01
    2.3969364484518656e+00 -7.4579553902919637e-01
    2.5283192239643411e+00 -7.6267882589861258e-01
    2.7823824470008960e+00 -7.4905184982329454e-01
    2.9442444076038652e+00 -7.3106874735794858e-01
    3.0577398380267518e+00 -7.6671421178848098e-01
    2.9517552553985529e+00 -7.5041636034918147e-01
    2.6454183124563126e+00 -7.5825429323139071e-01
    2.4365488684649383e+00 -7.7091124756805229e-01
    2.3161830214311561e+00 -7.7750771700414012e-01
    2.2433466130580011e+00 -7.8530706780241000e-01
    2.2057679630021414e+00 -7.9427753531459866e-01
    2.1947252542819542e+00 -8.0105729337950216e-01
    2.2126037261719809e+00 -8.1439369222974201e-01
    2.2522388147852350e+00 -8.3830340009521431e-01
    2.3347555083229072e+00 -8.5799841743052541e-01
    2.4975002393139105e+00 -8.4992900215859934e-01
    2.7756064094636961e+00 -8.0070506965789445e-01
    2.9693056944140963e+00 -7.5668171243833371e-01
    2.9094013773075855e+00 -8.2328888556187152e-01
    2.8147684521845941e+00 -8.2651024791989169e-01
    2.5513979052256412e+00 -8.5983025585624917e-01
    2.3621734340887075e+00 -9.2128307255984132e-01
    2.2485388150397450e+00 -9.8439495620752837e-01
    2.1883850228880224e+00 -1.0367556827482127e+00
    2.1619767665107616e+00 -1.0635152766221525e+00
    2.1588889221139116e+00 -1.0692440227739364e+00
    2.1831905273308863e+00 -1.0650949967658379e+00
    2.2347021944212710e+00 -1.0503271532454770e+00
    2.3237487394064451e+00 -1.0158818355561159e+00
    2.4743039532362303e+00 -9.5037162859426794e-01
    2.7076107467195012e+00 -8.6058872677805198e-01
    2.8570086905348067e+00 -8.0256933127452112e-01 1. 0. 1. 0. 1. 0. 1.
    0. 1. 0. 1. 0. 1. 0. 1. 0. 1. 0. 1. 0. 1. 0. 1. 0. 1. 0. 1. 0.</input_scale>
  <output_scale>
    5.2631578947368418e-01 4.9999999999999994e-01 5.2631578947368418e-01
    4.9999999999999994e-01 5.2631578947368418e-01 4.9999999999999994e-01
    5.2631578947368418e-01 4.9999999999999994e-01 5.2631578947368418e-01
    4.9999999999999994e-01 5.2631578947368418e-01 4.9999999999999994e-01
    5.2631578947368418e-01 4.9999999999999994e-01 5.2631578947368418e-01
    4.9999999999999994e-01 5.2631578947368418e-01 4.9999999999999994e-01
    5.2631578947368418e-01 4.9999999999999994e-01 5.2631578947368418e-01
    4.9999999999999994e-01</output_scale>
  <inv_output_scale>
    1.8999999999999999e+00 -9.4999999999999996e-01
    1.8999999999999999e+00 -9.4999999999999996e-01
    1.8999999999999999e+00 -9.4999999999999996e-01
    1.8999999999999999e+00 -9.4999999999999996e-01
    1.8999999999999999e+00 -9.4999999999999996e-01
    1.8999999999999999e+00 -9.4999999999999996e-01
    1.8999999999999999e+00 -9.4999999999999996e-01
    1.8999999999999999e+00 -9.4999999999999996e-01
    1.8999999999999999e+00 -9.4999999999999996e-01
    1.8999999999999999e+00 -9.4999999999999996e-01
    1.8999999999999999e+00 -9.4999999999999996e-01</inv_output_scale>
  <weights>
    <_>
      -1.6483334265683595e-03 1.6964859752973071e-03
      -6.3787243790898462e-04 -1.2773838059763120e-04
      -1.1357641019384872e-03 -1.0064281349241792e-03
      2.6865073523947873e-04 1.4965471013094278e-04
      7.1214664640321417e-05 -8.6509307849704853e-04
      -1.0433467499668056e-03 1.4611515084423396e-03
      1.3942164257485623e-04 -1.6808149030925791e-03
      5.2899285596592698e-04 3.1493996087256497e-04
      2.5157846159837093e-04 2.6543638013273547e-05
      -1.7692285826209906e-03 1.7356382185849251e-04
      8.1050246974259069e-04 -1.0624919526198294e-04
      -9.2351104936299754e-04 5.1128334159424623e-04
      1.2085623535638076e-03 -5.8553885603540329e-04
      -3.7389125151682110e-04 -8.1543555688552596e-04
      -1.2333778500753234e-03 7.7343290379051530e-04
      5.3309038749423641e-04 -1.3816555940758760e-03
      1.7672435051513419e-03 1.7229579579804170e-03
      1.2843175123625284e-03 -1.7351281264204139e-03
      3.6971372460746065e-04 -6.8077884497173705e-04
      -1.6843208900442922e-04 -1.3501241058522513e-03
      -7.4477730091785884e-04 -1.7478393249486493e-04
      -1.0944282350822702e-03 -6.4682142152779586e-04
      -1.3003776345685909e-03 1.4855750745347617e-03
      1.4002024120900436e-03 5.9242912510212799e-04
      1.5820358798281579e-03 -1.7644678743764118e-03
      -9.3785058952655686e-04 -1.1819197292311644e-03
      1.4010789093117984e-03 -1.5284835990815471e-03
      1.0416850778659963e-03 7.1006489426130384e-04
      1.4988088470111473e-03 -1.1496043272741564e-03
      -1.5891000057514431e-03 -1.7373099381772855e-03
      -1.3846650912453338e-03 3.9239236591707304e-04
      -1.3754913201052168e-03 -1.8461174531891948e-05
      1.1779517065641856e-03 1.3053929482647443e-03
      1.2865878202071969e-03 3.1192858513442632e-04
      3.4952520876420411e-04 1.5697998969655754e-03
      7.8791665423057721e-04 4.7586611623377524e-04
      1.5248798529472025e-03 6.0418344400194751e-04
      -1.7206048444787189e-03 1.0817603637804929e-03
      -4.4859732324984016e-04 -1.4207199843518864e-03
      -1.5479350263988179e-03 -5.9213709317025923e-04
      -2.9661717425292507e-04 -1.3154073831326593e-03
      1.6835347336778448e-03 2.5846703013984149e-04
      7.1496123904132836e-04 -1.4067368399903087e-03
      -5.4269221023645607e-04 -6.5848194138541671e-04
      5.9596189876867016e-04 8.8352624850066063e-04
      3.1356114098059587e-04 -1.7849170454125902e-03
      -1.6025844876869405e-03 2.5191655325245010e-05
      -5.2762313771910333e-04 5.4906312247621160e-04
      7.3150927295574924e-04 9.1471106820118062e-04
      4.3617812183854187e-04 1.4089887835871499e-03
      -1.1874624353026267e-01 1.9547284768546905e-03
      2.0341366593148791e-01 -5.6244037488470721e-03
      -1.9182805939771785e-01 1.2221606181187626e-01
      1.0826142241117645e-01 -8.1424813389892312e-02
      2.9353999238239142e-02 1.6155464609348308e-01
      2.3241620876021066e-01 2.6307641380444290e-03
      -3.4552331556448775e-02 9.8596547151697911e-02
      -1.3806455912859263e-02 -2.9508117180271516e-04
      -5.7464229406435245e-02 4.6459730969887397e-02
      -1.5762696128398545e-03 -8.5697658837839946e-02
      4.7343887599296357e-02 6.7387186934790622e-02
      -3.5812119448114930e-02 -3.4622709561452733e-02
      6.1491953495002374e-02 -7.3539641524858521e-02
      1.9773060701417686e-01 1.4659926153893058e-01
      4.5549791401193022e-03 -1.9049682922390826e-01
      -7.6186359441950458e-02 1.2208882442793598e-01
      5.1111983124863938e-02 -5.3609582514742217e-02
      -9.6706588360445864e-03 -4.7498849796466347e-02
      7.9718223864465448e-02 -1.2365272254631814e-01
      2.7575847593598657e-02 1.9421275085250492e-01
      6.5180691168274296e-02 5.4602683971953780e-02
      1.7768820491615167e-01 -4.3307802945611165e-02
      3.5322562452319073e-02 -5.0487163245473365e-02
      2.0264664281865997e-02 -7.0150847213265075e-02
      -1.3945234951033111e-01 -1.4172368842667854e-01
      -4.9396565907717939e-02 3.6170710536723029e-02
      -7.6623380116362411e-02 4.0613382899654354e-02
      5.8872111644739607e-02 1.1616346194751581e-01
      7.3547195222216311e-02 -7.7852757765240380e-02
      1.0998290586396342e-01 1.8622203513721333e-01
      -1.0104866411883898e-01 -9.6280365156328943e-02
      -3.6623009449239220e-04 1.1061354797632859e-01
      1.7089365073095270e-01 1.0075801168953574e-01
      9.3558313859892928e-03 -1.9519286480760328e-02
      1.3674903478942074e-01 -6.4640485527657970e-02
      -2.7421932445776242e-02 9.7359344898237526e-02
      8.9262929366243193e-02 2.4484352551779573e-01
      5.3929457881358250e-02 7.0517811931465699e-03
      5.4846878313419611e-02 -1.1743494049479932e-02
      1.1551188756160999e-02 -8.2730054915833337e-02
      3.0470805511676372e-02 1.4464905122103413e-02
      -3.6000618752228479e-02 3.8584668717310068e-02
      1.1278091956922537e-01 -6.8427767874551709e-02
      1.8072871153766434e-02 -1.5482924615566526e-01
      -1.8275784404236578e-01 5.3193971126862659e-02
      -1.8543622041218205e-01 6.6022059219288956e-02
      -1.4651575918990457e-02 2.2067085992020081e-02
      -1.7336867154491058e-02 2.5968211296177751e-01
      -1.2142470163748867e-01 -5.2294141133222942e-02
      -4.1138959877542056e-02 -4.2426488434598335e-02
      -1.7401178790735430e-01 2.6813940080419825e-02
      1.2936417332076663e-01 -5.1199188380015227e-02
      -7.3063686738477115e-02 -1.0916161615358754e-02
      1.5147811105857864e-01 -4.5443880572748140e-02
      2.2001250005351528e-02 1.3272989278318487e-01
      -7.1285593843177800e-02 -2.8404475101137555e-02
      -8.7861713693743279e-02 -9.7273206851242522e-02
      8.3367029091222483e-02 -6.0229552039514581e-03
      -3.6552060663043805e-02 1.6474568808718100e-03
      2.3278710143104209e-03 4.0347835420815679e-02
      9.7837385192984551e-03 1.1799470066003134e-01
      5.5398730843995707e-02 2.8525206122027042e-02
      -7.0939534179184721e-02 -3.3345629942919779e-02
      -1.1063583396676960e-02 4.4041920226299158e-02
      3.9987799997176623e-02 -2.9481313093223721e-01
      -1.4078744151274995e-02 9.3354742615175956e-02
      1.5027934671200732e-02 -1.5036616817622972e-01
      -8.1119669158297686e-02 9.3851044617347473e-02
      9.4850349779507306e-02 -1.1357827975831866e-01
      -1.1422951177714996e-01 -1.3820508681626073e-01
      1.4058017957390943e-03 2.3424575015079864e-02
      -1.2244129412895784e-01 4.6105057993525489e-02
      -1.1246067896749169e-01 -2.3655951866709465e-01
      -4.1353516797409812e-02 4.7507059945780389e-03
      -3.2995889769451656e-02 -8.1979201766997967e-02
      1.7118016060513402e-01 -5.6896462734587760e-02
      7.7160842654213690e-02 6.7082623236022400e-03
      -2.0634720816264296e-01 -1.5486878145272584e-01
      -1.0936661719455688e-01 -1.0024961723492658e-01
      8.9636063277944798e-03 2.7441572587289929e-02
      -7.4605287659422356e-02 -1.5133948392791394e-01
      3.6836545181164186e-02 1.4949903389860522e-01
      2.0032081591063944e-01 1.3947835350345472e-01
      6.7987478826763564e-03 6.5859324687981086e-02
      -6.8029670469705802e-02 1.1095080348609210e-01
      -1.6999923632073252e-01 7.3807839089282623e-02
      5.1461301076410393e-02 1.1154927632936108e-01
      -1.8247918886139874e-01 -1.0304093949545526e-01
      9.6097061418336086e-02 -5.9648845302978815e-02
      -8.4738313268810053e-02 6.9638856761575343e-02
      1.5223724475045516e-02 -1.1392154322074098e-02
      3.9445554113133170e-02 1.5829697095513680e-03
      -1.9473916157647243e-02 1.2326441366659846e-01
      -2.3324160796661188e-02 7.3709507406914555e-03
      3.9678797527807959e-02 1.7459977507177465e-01
      8.5317936386215681e-02 -1.0739478850148858e-01
      -6.8012371530825231e-03 2.7763128825556312e-02
      -5.5640847864061482e-02 4.9450234785130998e-02
      1.4517216448808535e-02 7.5412363597215953e-02
      -1.3071605316741283e-01 -1.1314638111232123e-01
      -7.5099631403006337e-02 4.9588683522452826e-02
      -4.3655260342538485e-02 1.0277437033884102e-02
      4.3822930176959159e-02 -2.4120774518597454e-02
      5.7785292495151401e-02 1.1325711401755514e-01
      4.0707903782213922e-02 -2.7733644946328250e-02
      -2.9804809836708496e-02 1.8604830627812011e-01
      -1.7481990057504804e-03 1.1726225131156950e-01
      -4.8308730514591704e-02 -8.0331559765689134e-02
      8.7468697988387106e-02 -7.8333353507812620e-02
      3.7063426091126471e-02 -1.4964725892259336e-02
      1.0978682450611290e-02 9.2353936720087071e-02
      8.3593678035786823e-02 -1.7309957823694256e-02
      -8.3629225356121856e-02 -1.3309930851753038e-01
      -3.7236320283086738e-01 7.2615017738055732e-02
      8.1120249796449231e-02 -1.0708012676081836e-01
      8.1481364892133132e-02 7.7830452528274113e-02
      1.8964588745848038e-01 -1.1719496015905316e-01
      -5.0340473228178202e-02 2.2998923654065126e-02
      1.0941743426889469e-01 -1.2399157716571117e-01
      6.1753954059328230e-02 -5.7459325607074008e-02
      9.2038014025047243e-02 2.8730687311698231e-02
      -7.0315523040142366e-02 8.5543390940092071e-02
      -3.1728769419624762e-02 -1.2582505372885575e-01
      -1.5037656658730247e-01 -6.7238120801265372e-02
      -4.3156692632586743e-02 -2.9890695294893360e-01
      9.1948205092366370e-02 -3.3121499955648427e-02
      9.8752525684623713e-02 2.3000735530176470e-02
      -5.0854717442693674e-02 5.9787636041528341e-02
      -9.8082151427285269e-02 -1.3570688915444626e-01
      -1.0115401659773381e-01 7.9855214246424971e-02
      -9.4428706677078186e-02 6.9012622048268510e-02
      1.5552170541528213e-02 5.2888044442663089e-02
      1.1642668995694351e-01 3.6196220369290773e-02
      -5.1768355336709912e-02 -1.4791422917189384e-01
      -4.9431790354043130e-03 1.5372062897090743e-02
      -4.6364229364016379e-02 8.6992259046148379e-02
      1.0728415331232366e-02 -2.0214792068496606e-02
      -1.2254074984493714e-01 -5.8869139089117173e-02
      -8.6846975911076207e-02 -5.7790705714533659e-02
      -1.0436613244550363e-01 -3.4720878903458714e-02
      -8.0297129377985305e-02 -8.3173292971571999e-02
      2.0156648620419822e-02 -2.6358163197573423e-02
      2.3880804569078925e-03 3.5688158243471921e-02
      1.1144987403329247e-02 1.9594017432598660e-02
      9.8334984860473499e-04 1.0482300594128702e-01
      4.5691088076043475e-02 3.8796252435334716e-02
      -1.2296457459249177e-01 7.1822205295951777e-02
      1.9388506944939533e-02 -7.9643838713526580e-02
      2.1611877114514729e-02 -3.6403091776803190e-02
      1.3106194541683480e-01 -4.8492434982976102e-03
      4.9229226600304521e-01 -1.1244699121216636e-02
      -2.9263298964401243e-02 6.3545855396033496e-02
      -5.2331347047007114e-02 5.2943927152673723e-02
      -3.9416035956045557e-02 3.3971684572948038e-02
      -8.3766471969452874e-02 5.0033512124226152e-02
      8.5725825346474570e-03 2.4964212475207533e-02
      -8.8650722795061560e-02 6.6614475079124144e-02
      3.6903546010579678e-02 -2.0851060059378687e-02
      -2.3630381801604792e-02 -3.1655247532543758e-03
      -2.7088105911235106e-02 -8.1354819659963412e-02
      1.7031991936778717e-02 -2.6553453937856554e-02
      -9.2441020780900385e-02 6.0429178101955583e-02
      -1.5943946551735480e-01 -6.0842063149700580e-02
      -2.2243881127360343e-01 -1.0161997533556348e-01
      1.8358417451390975e-02 -7.2740792914229246e-02
      9.9710148415181957e-02 1.1607710596197213e-01
      1.3565987905861093e-01 -5.0842073711416129e-02
      1.4361869497102278e-01 -3.4322072827030355e-03
      2.0682265542387288e-01 -4.3466894095311834e-02
      -9.9875528073992997e-02 -1.2246625639536597e-01
      1.1047153135525604e-01 1.4656390076165730e-02
      1.0190235547144663e-01 1.2503972985217210e-01
      3.8360594501742069e-02 -1.4503068810860859e-01
      -1.1651030273218482e-02 -1.0347740895180783e-02
      -1.2053568256667664e-01 1.1155842973789820e-02
      -1.3978481945426573e-02 -7.8612247504466180e-03
      -4.8332034989219806e-02 -3.3412429595466475e-02
      -4.6781601746264268e-03 -2.1589994949239091e-02
      -7.2064800573602705e-02 1.0128036619181431e-01
      -6.9747665467911113e-02 -9.7967582137441396e-04
      -1.2470095145969780e-01 6.9023235331084495e-02
      -5.5438970447899978e-02 6.3626598119152056e-02
      -1.6060089256500829e-01 6.2504259221040206e-02
      -3.4633407415278483e-02 -4.7022990144228380e-02
      1.5056154503505756e-01 7.6407914843946503e-03
      -8.9719316159218132e-02 1.1003841730115854e-01
      -2.5488551945699465e-02 -9.3170359255135646e-03
      1.2414307613149685e-02 2.0802127575128876e-01
      -1.2061248407199171e-01 4.2511983008498774e-02
      -6.7896777081822138e-02 8.0523385404829492e-02
      -5.7425174447792385e-03 -1.2784093717845849e-01
      -4.5469029554555257e-02 7.2805634169627945e-02
      -1.8158817296414473e-01 -6.3213246995486527e-02
      -8.2691107984307566e-02 -1.5397860464276819e-02
      1.3067622388216472e-02 -1.0779057239504732e-02
      1.0009786664464571e-01 1.1388464593215708e-02
      -7.0848979201637075e-02 1.0899212138518231e-01
      -4.2214358052452230e-02 -6.2501618035867040e-02
      -1.6536735756959425e-01 4.2123982996369304e-02
      5.6840552596574008e-02 -6.9542329102811315e-02
      7.1395302879707273e-02 1.5628119152999057e-01
      -1.1326874600920084e-01 1.0770832532130810e-01
      -1.0396554980331077e-01 5.3949710580775509e-02
      4.6506691827967487e-03 -1.5376422080862959e-03
      5.0311767109241096e-02 -9.8227886479560975e-03
      1.0066499652422896e-01 -6.6617351911769374e-02
      -1.3227406313669657e-01 -1.9847123607499639e-02
      -3.1897798699130599e-02 -1.7945722544103926e-01
      1.4516540349255974e-01 6.7155105859864658e-02
      -1.2663148421365411e-01 2.5137385382219844e-02
      2.1786011969407163e-02 6.9355778177482397e-02
      -1.2514090514505846e-01 2.9295990698647349e-02
      -1.2006799565940766e-01 1.0332823247653210e-01
      -1.7910603366240188e-01 1.3249411824716531e-01
      -1.1110201995830651e-01 -1.1533740556434745e-01
      4.7395759454361516e-02 -2.4605377222725860e-02
      2.0282212932637780e-01 4.1286195144059665e-02
      -4.5095781832718639e-02 3.9707137619515526e-02
      -1.4294567830841584e-01 -1.3392520684401596e-01
      -7.9774178622700143e-02 -1.9164314327763696e-01
      2.0578685203459329e-01 3.6428127604118045e-02
      1.2528671330040986e-02 3.2385944665099831e-01
      9.3316715464870817e-02 -3.1339981401619685e-02
      -2.9740356592756262e-03 7.6346334958221088e-02
      -1.4773509419229311e-01 8.0220174424302224e-02
      -1.2666777839938371e-02 -2.6601512979092389e-03
      -1.8351036823423848e-02 5.7062153265069838e-02
      3.1004068734881155e-02 1.2467858162998245e-01
      8.3794280897334428e-02 1.3346052936485370e-01
      1.0356421632346952e-01 1.2783620459160566e-01
      1.0757477010011987e-02 -5.2838444152713713e-03
      1.8732319075227585e-02 1.8618792993561201e-01
      -6.1032418711246629e-02 -1.6032323316212885e-01
      -2.1424093344682277e-01 -9.2146541486550534e-02
      1.4383895482141140e-01 2.5054630591524445e-02
      6.2985950925268278e-02 -7.0726977565017432e-02
      -2.8951839690674816e-02 -1.0512872525962386e-01
      -5.6935603103810319e-03 8.1833039724231837e-02
      5.2136707371295256e-02 2.7451686646625508e-03
      3.3369147134269831e-03 -5.0154569009852587e-02
      -3.3632110123578168e-02 6.9730827862155897e-02
      -1.9439697181073322e-02 1.2057683808658845e-01
      -2.8628665175012325e-02 1.0411802594681118e-02
      -6.2970449015039551e-02 9.6442258696689612e-02
      1.4368831752517294e-02 -6.6834588617673607e-02
      -1.1833907999490047e-01 -1.1412215233678899e-02
      4.9491450494861351e-03 4.3922218115469720e-03
      4.2732817281620691e-02 -1.7185096301791133e-01
      -3.3171658119918214e-02 6.4139801151425799e-02
      -8.4033892758829193e-02 -1.2917477413159842e-01
      -5.8137305734548617e-01 1.1669293656881949e-01
      -8.0197080211214897e-02 7.2375698863669416e-02
      -1.9409589520192436e-01 -3.5769269535430172e-02
      1.1160026124652851e-01 3.6777157281529568e-02
      -6.8231107781769103e-03 9.8290482109609792e-02
      -4.0342352106079553e-02 -1.4469633958448608e-01
      -7.3955376105503970e-02 2.7987130852312952e-02
      -4.0617784631120230e-02 -3.1229039238461674e-02
      1.9049068851168680e-02 1.7165622492426513e-01
      8.4000980453405233e-02 -1.0778342297452098e-01
      1.2136860071041941e-01 -3.1134484597015354e-02
      1.2220293816522936e-02 9.7561512982610281e-03
      -7.2520048264811635e-02 2.6945111134377298e-02
      2.3947500955686887e-02 1.9796863716591018e-01
      9.6447640522963590e-02 -1.5797389278493421e-01
      -1.2476838075695273e-01 1.3404555416104955e-01
      1.3821780047782700e-01 -2.8601310610780771e-02
      -1.7198851082290265e-01 -1.2791957598128992e-01
      2.1416746835303266e-01 -9.4352311408542056e-02
      -1.4225654779330452e-02 -1.8657943439695765e-01
      6.0129818959007618e-02 7.5984454645131552e-02
      2.5633625238958141e-01 3.1526146570512448e-02
      2.7806909655085166e-01 -2.8072755489446665e-02
      -2.7759624247996131e-02 6.2516914644624036e-03
      -3.3875852060096211e-02 4.2414794597543708e-02
      -1.3074389592029051e-01 1.6812310395514088e-01
      -6.3241303056610881e-02 1.6003556552771789e-02
      -3.2824671747644432e-02 2.8525036322349685e-02
      -1.6780295733371101e-02 -2.5047842310028368e-02
      1.6575392545369147e-01 1.4668755951603354e-01
      1.5399782528026160e-01 -5.3875928242662317e-02
      1.6173535811006882e-02 6.0012156678140777e-02
      4.2003545558915306e-02 -1.3360029659855854e-01
      5.9379091021071514e-02 2.8932429192340549e-02
      8.5839957978701142e-02 -4.9351143272973942e-02
      -2.3046149142403865e-02 9.0055060291848038e-03
      2.9268346119694370e-02 -1.3875374915858479e-02
      -7.4519952319919407e-03 -3.4908628164030266e-02
      -1.1217819007492204e-01 -8.9507758345856864e-02
      1.9441559900971761e-01 -7.9543851501693977e-02
      6.3245746947586015e-02 6.0662562950227712e-02
      1.1347706240463075e-01 -2.5238681270142498e-02
      3.7720074652257150e-02 -3.7962754650760371e-02
      7.7009485155273658e-02 -7.4688565454967257e-02
      -2.3825556805864093e-01 3.7021122380693820e-02
      -9.1731264682616803e-02 -7.0241843299660781e-02
      -1.1955581015280170e-01 -1.3287828510257510e-01
      -1.1840092680062705e-01 8.8499798395468825e-03
      -2.8777010204629812e-02 -5.6921814414410188e-02
      -8.5162432256893923e-03 -1.4939974646266063e-01
      -3.9201667600152107e-01 -8.3628117602778274e-02
      -1.6428754934023574e-02 1.4872778938281664e-01
      -1.2685614906965270e-01 -3.7542687683662854e-02
      1.7517318215024613e-02 2.5943299526218457e-02
      1.5053118369576637e-01 1.0584812474154119e-01
      -4.2251046358586730e-02 -3.0403749803256549e-02
      1.3905650399000083e-02 -1.0485391350990597e-01
      1.0432609475820834e-01 -6.3287395096495752e-02
      1.3381117734694337e-01 -3.2273938293365022e-02
      1.5239396264543836e-01 -1.0757890891235614e-01
      6.7266715103976707e-02 1.7926822250966777e-02
      4.0631010373048559e-02 1.0672297017578061e-02
      -1.4048895211272858e-01 -5.8804479208945604e-02
      1.0648917451656068e-01 7.1792634333697272e-02
      7.3262945524963485e-02 -3.0032905501363064e-02
      -5.7201503966104227e-03 1.1961380466392897e-01
      1.8356052332100534e-01 -5.6117442756364648e-02
      -1.3339992751914354e-01 -1.6815699103074333e-01
      1.5431120065417924e-02 -1.3375412432524250e-01
      -5.2363477483550476e-02 -1.1064700422988337e-01
      6.9200313612214334e-02 8.8945630654559835e-02
      1.8359804556731429e-01 2.2361312557674845e-01
      1.2789954587172833e-01 -1.9949371297040036e-01
      -9.9061097262789000e-02 4.7156034417308701e-02
      1.4622953310808595e-01 -2.7541959462586668e-02
      -5.0603385573093546e-02 -4.6313853767641681e-02
      -1.4522153247576894e-01 6.4599090183526039e-02
      -5.6009424262189543e-02 2.0290097962508632e-02
      3.2513448785202834e-02 -7.5970380609115984e-02
      2.0729985228962197e-01 1.0844961190091821e-02
      4.9426007252206375e-02 -6.1616747677527721e-02
      1.3281776725109251e-01 4.6328308392507331e-02
      -8.8827494468534232e-02 -6.2894543085838361e-02
      -9.1932825443695063e-02 -7.0761335688711027e-02
      2.9778936151553449e-02 9.5840270862784044e-02
      -2.8080068461569869e-02 3.0777852717472482e-02
      -4.2477546590190374e-02 -3.7113921289906898e-02
      -6.5610124873644760e-02 3.3887651770444650e-02
      -1.1654547007121224e-01 -4.2565464572450279e-02
      7.8188468246466150e-02 -9.3713999059864023e-02
      -5.1809657432499968e-02 1.0426520112087577e-01
      5.3269811625141397e-02 -5.7255228328303216e-02
      6.0717643423675902e-02 -3.0435838098805612e-01
      -3.2936845251924647e-02 -6.9591457733046466e-02
      -3.9336949333589201e-02 -1.5878767646417352e-01
      -5.4423379140422563e-02 -1.3651404205935294e-01
      1.7753597055037412e-01 -8.5172488585905870e-02
      2.8763389964264812e-03 -2.3638773480757512e-02
      1.1580291969262958e-01 -6.1321331318529404e-02
      7.2857594100430412e-02 -5.5246643846431472e-02
      2.4442020631404973e-01 -1.1147915290897117e-02
      -3.8091321974170818e-02 2.0065354577913130e-01
      -3.2770117073602278e-02 -1.8921141058605911e-01
      -1.9368643245827591e-03 4.1686240680043236e-02
      1.4470657530016645e-01 1.6077792343490527e-01
      -1.2431825186344903e-01 2.3073376319165041e-02
      -1.9335077129091768e-02 -1.3142258989612865e-01
      1.5167798029303581e-01 -1.0384140430752298e-01
      1.4684094093827774e-01 -1.2227094584661129e-02
      6.0644359734525671e-02 1.2930852737391502e-01
      2.2415983428014857e-01 8.3052728538141787e-02
      1.1831289682544896e-02 4.2918030676469668e-02
      -1.2813574125871743e-02 -1.1767655408659787e-04
      -1.6103606612334186e-02 6.2864131565258221e-03
      -1.6856762795665250e-01 1.3165999481078661e-02
      6.7373753715131560e-02 2.1804596771371221e-01
      -1.2501594213203698e-01 -1.5648051202297578e-01
      -1.1454475505224487e-01 -6.4867436351343205e-02
      -1.0692109293786216e-01 -1.8813890930082713e-01
      -1.0245432377877589e-01 -1.1748683039686497e-01
      6.9638020778085591e-02 1.7604408314913525e-01
      1.1097890867399822e-01 2.2698842034016875e-01
      1.4610922513724550e-01 -1.4917941902228374e-01
      1.2736935548852704e-02 6.1275592188601638e-02
      2.0198958768674505e-02 4.9645170127296107e-02
      6.8932128056103112e-03 -8.6847107377075933e-02
      -1.7402876876868090e-01 -7.2743408157542572e-02
      3.6331311526538956e-02 -1.1224445307571682e-01
      -2.2623517624141348e-01 -4.3917958529849283e-02
      -2.3220178933755536e-02 8.6914396325110957e-02
      5.1460992331861771e-02 -6.0594539624956060e-03
      2.1400376907641264e-01 3.4403653738464178e-02
      1.3978104054772050e-01 1.3881947859129160e-01
      4.2393453282824629e-02 2.2768712454925840e-02
      8.4466477276489843e-02 1.3420189710754513e-01
      1.1021152134328976e-01 1.9361236704895660e-01
      1.9308064903587649e-02 -4.6956959167797893e-02
      -1.4945949639257855e-01 2.8052005932101009e-02
      -1.1119201004095380e-01 4.6893807774134239e-02
      -4.9286886909472707e-02 -2.2489942822792491e-01
      9.1626674262260885e-02 4.9872518898657306e-02
      5.3172401090563044e-02 -7.5854651604709653e-02
      1.4681568669724570e-02 -1.4529828698361444e-01
      -5.5249561905836601e-03 -4.6415729705945458e-02
      1.0428227625235424e-01 1.3100593810445085e-02
      8.4251501783401309e-02 -1.9594724837814978e-02
      1.5520692265520084e-01 -1.3487176906152076e-01
      1.1735039363804917e-01 -3.7390429605544645e-02
      5.2257384695598326e-02 5.1857954039394062e-02
      1.8206646973091659e-01 -5.8074288897787332e-02
      9.3099945140787754e-01 -7.9936018064432859e-02
      -3.3700935621801549e-02 4.6573466869306690e-02
      -4.3128197350410249e-02 3.4464970341295986e-03
      5.7889563347467032e-02 4.3330396964385176e-02
      8.1729109170550915e-02 3.1542381685465283e-02
      -6.0298047578466747e-02 -3.9511614347558247e-02
      9.0768188863720872e-02 -2.2200007655175904e-02
      5.6046738804808240e-02 -1.9449147544948676e-02
      1.3836812276199212e-01 8.7753718667376163e-02
      -1.4084722129674226e-01 6.3838132280490636e-02
      -8.8670547290242901e-02 -1.1524665576184807e-01
      -2.5087231708137196e-02 -1.1823577838499057e-01
      -9.5061581147508706e-02 -7.5717885921835646e-03
      -1.6703447503435701e-01 1.2746770483165802e-02
      -1.2130733831426301e-01 2.2066145424974332e-02
      -1.4209885479326356e-01 4.5362699604611603e-02
      1.6113213164005102e-01 -1.4758010610050923e-01
      -8.5317239181856575e-02 -4.8888900020270229e-02
      -1.0656250630968379e-01 -2.6778281343619093e-02
      -4.1953617014181308e-02 -1.3910365383333298e-01
      1.7165785816969154e-01 -1.6004451203825490e-01
      7.1655178306529121e-02 -6.4562229780856212e-02
      5.4724182641374623e-02 -6.5141409060816238e-02
      -3.8185122191777651e-02 1.8967651333458987e-01
      9.7672870170884066e-02 2.0707618078421915e-02
      -9.8818545488228715e-02 -1.2301125929559958e-01
      -7.7234579103847761e-02 -5.9896454631549821e-02
      4.9953175015279340e-04 -1.3336221124923950e-01
      -1.2626768725433471e-01 -9.9768837601023092e-02
      -6.0841708138046499e-02 3.0140396490804289e-02
      1.5904261214156681e-01 -6.5237254325108116e-02
      -2.8361017299720355e-02 -5.9144864265795731e-02
      -2.0590275844487943e-01 -4.5853812125659039e-02
      -1.3927440738275124e-01 1.4461685944986979e-01
      2.0124872106408806e-01 1.5969212068718150e-01
      8.0827965515400557e-02 -3.2736417745382621e-02
      -1.3463508414287048e-01 1.5265438825350324e-02
      -1.3302394336688331e-01 1.7657191178181191e-02
      -9.3127278548359130e-02 1.2923993114013464e-02
      -9.7684042519719683e-02 -2.1240863670728305e-01
      3.5778682634882437e-02 9.8956725088158712e-02
      6.5727334267941792e-02 -6.7746820258919399e-02
      -6.5506634232328040e-02 6.1152790956619421e-02
      -2.8940789970682362e-02 -5.5042061919601974e-02
      -1.8740782792128534e-02 2.5703199116383489e-02
      3.0001279311762757e-02 -1.0063063429584768e-01
      4.5865215324799258e-02 -2.2021284023401147e-01
      2.7569862502104303e-01 1.0854719649626175e-01
      3.0594714719220040e-02 1.6475781737765335e-01
      7.0590577126303537e-03 -8.6540011387778656e-02
      8.6437023234258292e-01 -1.9022013708610796e-02
      -1.8863223118721575e-01 4.3521660532661807e-02
      -9.4049540191887229e-02 -3.0621568050451409e-02
      6.2046358016207719e-02 5.6877714148320907e-02
      -5.2489713207355813e-02 9.0828627233328005e-02
      -4.6869607746500716e-02 1.8877814571245722e-03
      -3.9776870104486758e-02 2.2757819054373019e-02
      -1.9931015967427732e-02 7.1607731116173745e-02
      1.4544553010844985e-01 -8.9905960006814264e-02
      1.7948375522811470e-02 5.3580770316572317e-02
      7.7763441430982710e-02 -1.8924124172987231e-01
      -4.3458650735575914e-02 6.6245144944157910e-02
      -5.1507183213069180e-03 9.2818609425865534e-02
      -6.4128752859746530e-03 3.9315541687235944e-03
      -5.5486238295181699e-02 -7.7712907457736846e-02
      -7.0777411942544638e-02 -2.0886541528668100e-03
      1.6071156935586622e-01 6.3422823817706449e-03
      -2.7794965400550826e-02 -8.8749209439356866e-02
      -7.6498577178364335e-02 -8.8361025177387573e-02
      -1.8139016818211784e-02 -6.6455713271555542e-02
      5.6197673322321093e-03 -2.0294806864994946e-01
      1.1056437562345725e-01 -5.1454838537194668e-03
      1.3860975033648262e-01 8.0662255976830192e-03
      1.0205776142019864e-01 1.2078401784043835e-01
      -1.8898080678717625e-02 1.2868449761064146e-01
      -3.2763907922887921e-02 -1.8643599026458429e-02
      -8.9295120031212871e-02 -1.9785827262506456e-02
      -3.6881457920415493e-02 -1.6853398702449371e-01
      -5.7231432539507993e-02 -6.4604263972251497e-02
      -8.9268671076632541e-02 4.9187141702647125e-02
      1.3343544276954054e-02 -4.6986816888271533e-02
      3.6313408413403421e-02 1.7493483492192902e-01
      -2.8826496478966540e-02 6.5216275555333575e-02
      -6.6447448707841847e-02 -2.7438691173949838e-03
      4.8550852975276976e-02 1.9823717100082485e-02
      -5.0531257101344387e-02 4.8510448078164951e-02
      -7.5333291233833422e-02 4.3486058807437465e-02
      8.4164407316411408e-03 -3.0181441758095961e-02
      -1.0062879325627408e-01 1.2603283184119385e-01
      -2.7218321131879535e-02 -3.6383350607619977e-02
      -5.3904153654614220e-02 1.0399616028279005e-01
      1.2910985176587683e-01 1.1426138394722757e-01
      6.5059886494364172e-02 -3.0246853339141382e-02
      8.8385805977064233e-02 -1.1542340958635801e-01
      -5.2268765568528094e-02 -2.7253496928962395e-01
      -7.5892220680801953e-02 -2.5041413252665784e-01
      -7.7668735594772789e-02 -3.4836379598806325e-02
      -7.8630389222336186e-03 -5.5278231129592736e-02
      -6.0370131738965715e-02 -7.4767238586355117e-02
      1.2659351038115393e-01 1.4571328976387388e-01
      1.1267420219500432e+00 7.8750431892904219e-03
      8.7674389442281134e-02 -5.3734499337114536e-02
      -9.0841289976372905e-02 -1.6660534381157413e-01
      3.3317362690573421e-02 -8.4103627637370379e-02
      -1.3320102366081585e-01 7.0423551210194515e-02
      -1.0825330296900383e-01 4.3388863459209746e-02
      8.3263522390091951e-02 -3.6421187258574822e-02
      -4.5365255377756063e-02 -8.7200085743704026e-02
      5.7756405808787305e-02 -4.1305001881869342e-02
      -2.5915145869610645e-01 3.8713718179282874e-02
      -4.0135648458009474e-02 -1.8357493147406573e-01
      -1.6647957441381681e-01 7.6342109795685523e-02
      3.4329706502191179e-02 6.4612577439168331e-02
      -3.1309088724627121e-02 -6.4452849853054925e-02
      -1.8107990057739706e-01 -3.0531006332425250e-02
      1.4385745603045269e-01 -1.0762924768070829e-01
      4.7844344876749170e-02 1.0452263039229570e-01
      -3.0305340932397409e-02 -8.5277275933493935e-02
      -3.8989435162194608e-02 1.0324599882434778e-01
      1.4629526793927075e-01 1.1269948266998864e-02
      3.9494776079173115e-02 -9.7231657553253803e-02
      -3.7478601492425920e-02 -3.8735164179590741e-02
      1.0237308441273002e-01 -1.0545447003232482e-01
      8.9649823735664796e-02 1.9945422415338157e-01
      5.9472328104169372e-02 8.3171275240825224e-02
      -9.7394044289213152e-02 5.6446059297201433e-03
      1.9772871507432024e-02 2.2997126992242812e-02
      -7.1487654554579505e-02 -2.8493050675429954e-02
      9.0417931455136782e-02 -5.7387818099528448e-02
      -7.8855949742702269e-02 -2.1030219321541598e-02
      -1.1794739241590010e-01 -6.9016466070203923e-03
      9.1356890754198238e-03 1.1511891220644828e-01
      -2.9739364895768658e-02 2.1928496572170247e-01
      -2.6850543810003388e-02 -2.3086121038472310e-01
      -2.9580225019426195e-02 -1.7752710556076767e-01
      -1.0231586441188836e-01 5.9933791886490638e-02
      -9.7505420971241569e-02 9.8584743236524677e-02
      3.8732915528854488e-02 -1.8926461370720540e-02
      -1.1418052473153457e-01 1.0774691210021134e-01
      -9.6926752940487151e-02 -3.2953239195572990e-03
      4.9278873974580410e-02 8.1425181572369734e-02
      -2.2038477087507519e-02 2.9896311577806610e-02
      4.0193417766552837e-02 -7.0918752394918710e-02
      7.4965511172092811e-02 2.8589685041187717e-02
      4.5625529924632521e-02 -1.0970836187406681e-01
      -4.2670046804450619e-03 -1.5054238746427234e-01
      -9.0484750228924368e-02 -3.7208392964050575e-02
      -6.6944320327035373e-02 1.1737197744282819e-02
      1.9668992627615105e-02 -1.1623429570530597e-01
      2.1685553106599556e-01 -1.1912570760627185e-02
      3.6614666149032998e-01 7.2549207127581616e-02
      -8.8992309024660599e-02 8.9005584587666026e-02
      -4.5804860100982850e-02 -5.3789346239280923e-02
      1.2721807069547567e-01 1.0112862964868649e-01
      -3.9844566795182064e-02 -8.5618260365501797e-02
      7.9264744596147602e-02 1.4923797550667769e-01
      -3.7174684193685435e-02 -1.2451152142966318e-01
      -4.2404344923817734e-02 1.4598463584609897e-01
      -1.0240497905319945e-01 1.4626503238277055e-01
      -7.0553706403915950e-02 -2.9844417701594465e-02
      -1.4823654116269941e-01 -7.4703963418417438e-02
      3.9959268932597762e-02 -1.2703504764769039e-01
      2.1065685731231545e-02 -6.5217708950239039e-02
      4.7278346458115968e-02 -1.8158128744478065e-03
      -1.0211955092317268e-01 1.2847045085098055e-01
      4.7780693925798937e-02 -2.4518895151685347e-01
      -1.0037556100570019e-02 1.2789241650621444e-01
      3.4529221729684846e-02 -4.4678602684391680e-02
      -5.5087681806197053e-02 8.5656034781366339e-02
      5.2289455779530494e-02 -1.8945743333411796e-02
      -5.5993651851526771e-02 -2.0869356257791315e-02
      -4.6019372033285627e-02 -1.3825889165349184e-01
      -2.6856926767552011e-02 -1.1881909518596012e-01
      1.9966867505811059e-01 6.0161898153202290e-02
      2.5532537738207281e-02 -1.0777752477526423e-01
      4.1561623047119675e-02 4.0044186100949904e-02
      -4.0042002947881419e-02 -1.0879938327264511e-01
      2.0400165497336805e-02 -1.6141589229014638e-01
      -2.3665309741215459e-02 1.1599885346768331e-01
      -1.8705789868935601e-02 8.2117409598862712e-02
      -1.1677903276902962e-01 1.1004226324785540e-01
      -1.6375353494495706e-01 1.7615281079883999e-01
      -6.4582601708312884e-02 -4.9530324580284134e-02
      -1.5125243781080100e-01 -2.9123006654807149e-02
      -4.8989314910117300e-02 -1.3814005430376283e-01
      1.1405143540614540e-01 8.6686420424769053e-02
      1.9422548990834142e-02 -1.7667748286740715e-02
      5.1727253322574517e-02 -1.0504778799919004e-01
      -7.9318284803766570e-02 -2.8518265180040902e-03
      1.4450030401876676e-01 1.5437876511411883e-01
      -3.2246701958493912e-02 2.0561099512486883e-01
      -3.8414650691289187e-02 1.0632260371426089e-01
      2.8304860250511637e-02 -9.6708003696197326e-03
      2.8694082440191053e-02 -2.9670427143464212e-02
      6.9871834680923312e-02 -1.4059587040412294e-01
      8.0842745403431199e-02 -5.3469708321215838e-03
      -5.7400691516202258e-02 -6.2618874474999989e-02
      6.2108439104876803e-02 5.7880200795038368e-02
      3.1078247134534047e-02 -6.0901186516758306e-02
      3.9439503930753718e-02 -2.6411234227830434e-02
      1.3401416441321157e-04 8.9151882983370761e-04
      8.7740508199539793e-05 2.9552784467645781e-04
      9.0898777355457943e-04 -1.7176866647366591e-03
      -1.0698379895817929e-04 1.7282658156109131e-03
      -5.9462071528404068e-04 -3.5096244113966635e-05
      -1.3807315310243159e-03 -1.3252955198767948e-03
      1.1417828234776680e-03 6.0458687063408506e-04
      3.5814711895111438e-04 -5.0450255933372407e-04
      5.0983540139833247e-04 1.7304336327206200e-03
      1.6437286804582283e-04 9.6974436967266241e-04
      -5.5506903181922992e-04 7.4917210281706583e-04
      -4.0850877041635270e-04 -1.2653459328148734e-04
      -7.6987134280915269e-04 6.0062457913216054e-04
      -1.3027963466941614e-03 -3.7143309481311933e-04
      -1.5561720872770419e-03 4.8026694394346964e-04
      -1.6217615786450997e-03 -1.1027540098688450e-03
      1.3864392909727593e-03 1.7567108932593735e-03
      -2.4082583881464063e-05 -6.5290981206755309e-04
      -1.5301345988824571e-03 -6.8079749444572549e-04
      -3.6535054366731821e-04 1.2536946952580743e-03
      1.3275231973031573e-03 -1.9919590451073399e-04
      -7.4876686139743406e-04 -1.5519347081917254e-03
      1.0328316898900946e-03 1.6706634705547882e-03
      -1.2556486047715794e-03 1.6478141532730508e-03
      1.0838624815157933e-03 4.6291666312733485e-04
      7.2124322006818719e-04 -1.5377178426963546e-03
      1.2777694894909350e-03 8.4632613939165219e-04
      1.7126512227008197e-03 -4.2340192213712621e-04
      1.7371477068343088e-03 -1.5715550205335973e-03
      2.7586222162587725e-04 -1.1281510927678571e-04
      -9.6119864902909438e-04 -3.7726436696484684e-04
      -1.1587450016095902e-03 -1.2413320934515063e-04
      1.4755451559530551e-03 1.4286209961314389e-03
      1.6589698606479027e-04 -1.5757116542664646e-04
      9.2863019866150061e-04 1.4457617901583537e-03
      -1.0001987777552273e-03 -9.5544228191701906e-04
      8.1055305927923377e-05 -3.0875229475080159e-04
      -1.4708105487794359e-03 1.3142966767309137e-03
      -1.9287402521794703e-04 1.3668841432136051e-03
      1.2928268032071631e-03 1.6357960524926510e-03
      1.8147418623139504e-04 -1.6151882303258953e-03
      5.3267800033864488e-04 1.1157743479457709e-03
      -6.9461137798854024e-04 -2.9858483239409697e-04
      1.5510440891555479e-03 -1.5411112132801925e-03
      -9.5445287132499474e-04 1.4904368167995934e-03
      -1.1914249998283386e-03 -1.3299833068495528e-04
      9.9967140803307862e-04 -1.4081088509125615e-03
      1.0635868748550342e-03 -1.7083658797362549e-04
      1.4716123467876342e-03 -1.5565929567811559e-03
      2.8069425482051322e-04 -4.4830516936229852e-04
      -5.3996954361684344e-04 -4.4428564334723670e-04
      -1.7405469806225707e-03 -5.6497428064476989e-04
      9.4198705799736508e-04 1.2953465456362510e-03
      7.9978527985025550e-04 -1.7085938617370311e-03
      -1.3069075359958281e-04 1.2403939037388279e-04
      -1.7519828284376779e-03 3.0161936628464225e-04
      -1.2975387133083215e-03 -1.1617812729260717e-03
      -7.2661167624560297e-04 1.4308391488680593e-03
      -9.7531270239138647e-04 8.2537927720769376e-04
      2.7978068316709205e-04 1.0757032812437346e-03
      -3.1570268296625848e-04 9.7965982666647802e-04
      1.6737604183887052e-03 -1.1570111002212017e-03
      9.4709784726891230e-04 -6.5850417944065230e-04
      2.1884435696848843e-04 1.0048442397997631e-03
      1.3417712011590968e-03 3.2565754718044237e-04
      1.0456563643085235e-03 -1.5705027091688472e-03
      6.3149331105054264e-04 -1.6321852333797463e-03
      -1.4731324053053815e-03 3.3458442150864447e-04
      -1.1346652388766259e-03 4.1643729743830513e-04
      -1.3250025664429590e-03 9.7624269478566715e-04
      -7.7546663888741969e-04 1.5745639786350419e-03
      1.1519899021767085e-03 8.7011510576016942e-05
      -5.0614625264247851e-04 4.0097037652103473e-04
      -4.1794094467054117e-04 -1.5370723328172354e-03
      -1.7839520030997510e-03 -3.4678520633364831e-04
      9.4098200809303545e-05 1.2348252005036577e-03
      1.0757926627645068e-03 -8.1666985695980044e-04
      -8.0314309502548681e-04 -1.4689049216001406e-03
      3.2337028013424503e-04 -1.5756920436307779e-03
      1.1485624339387245e-03 -7.3752755311815021e-04
      -1.0688716485070383e-03 1.8037556250635506e-04
      7.2428697545721585e-04 1.1399233106163143e-03
      -1.3991404434098701e-04 -3.5766244562283932e-04
      -4.8995899029044717e-04 1.2452082104489782e-03
      -8.4589228618814187e-05 1.4244880300632260e-03
      -1.0803661864489773e-04 -1.5164841707535105e-03
      1.7481449854259853e-03 1.5330543366265709e-03
      -1.8686309409326557e-04 -1.3153382047196788e-03
      1.6004753520037231e-03 1.6561961566264013e-03
      -1.2059479191036473e-03 9.1909248179830182e-04
      -1.1762429941261281e-03 6.3353299187474468e-04
      -1.6476109599219478e-03 -1.6463977347858545e-03
      -1.0630367112010987e-03 7.7340609162272885e-04
      5.4102535552656521e-04 1.3966777361722198e-03
      -7.6351540397162241e-04 1.5641387017056856e-03
      -6.7862507181897370e-04 -1.1934417498819271e-04
      1.7138006600638492e-03 3.3824344941381715e-04
      1.1119321910879620e-03 -1.7295936085260498e-03
      -1.7586768560757661e-04 1.4618041418014243e-03
      -4.8579244451867119e-04 1.3659474730586055e-03
      7.8125820738508309e-02 5.2148921663533604e-02
      1.2313563741206374e-02 -8.3728649976472239e-02
      4.2548657788038263e-02 1.2812153246942856e-01
      1.9949893108256150e-02 1.8344798798411988e-02
      -2.3422059267980699e-02 9.7626115042157360e-02
      2.0657336175350052e-02 -9.4683633703101608e-02
      1.3442267009575262e-01 2.0060834148323231e-01
      -9.0326361240328751e-02 -6.7574004601954313e-02
      7.4978865999907260e-02 -7.3006808993678868e-02
      9.7609323049946628e-02 -5.6712170183596998e-02
      7.9072780503123746e-02 -7.3166869214585095e-02
      5.0314141736146047e-02 -1.7675179524810333e-01
      -3.3175133689617622e-02 3.9894379285336783e-02
      7.1249467433428693e-02 1.7116942066031079e-01
      -4.5730224294248667e-03 -9.8692973229006747e-02
      -3.4744943537289102e-02 9.1891538719667213e-03
      4.0458224886935339e-02 -4.5257427330755814e-02
      1.4486605469335612e-01 -1.8697166114245434e-01
      -3.4433510879666542e-02 -7.9591703061293262e-02
      5.6687292441382722e-02 -2.3338621359259761e-02
      6.2829104212593105e-03 1.8423946770729175e-02
      8.3375247839544392e-02 1.1379447207654806e-02
      -8.3120022101207322e-03 -6.4256244664223042e-02
      4.3230507082295810e-03 -6.2841927816324042e-02
      -2.2173480756784697e-01 -9.6459748421335714e-02
      5.5138998003995236e-02 -3.8783433472253992e-02
      -5.2422445973959682e-02 -1.3604254534037130e-01
      1.2226209626582794e-02 9.9650132070658981e-02
      1.2576714369473788e-02 1.4131876073720817e-01
      -4.3135748411268597e-02 7.6975134521074573e-02
      4.5060513845484734e-02 -2.0803179241320505e-01
      1.3070592161089020e-01 6.7971480412081661e-02
      1.4307741124795277e-02 -3.6805744057753803e-02
      2.7373872035299469e-02 2.1262498116801320e-02
      1.5325962337689947e-01 5.7602303895821563e-03
      -1.1713119309488741e-01 6.8461824301230018e-02
      -6.2008386051273179e-02 1.4599720762762725e-01
      2.1393742989023867e-02 1.3044290672552233e-01
      6.4955739965812928e-02 -2.9160920795045689e-02
      5.8828481638302926e-02 -4.0362163359886939e-02
      -4.8106746925331241e-02 -3.3458958552352057e-02
      9.9219580309190217e-02 9.7264564175311458e-02
      2.6858119681818934e-02 5.2587027846284053e-03
      -3.8243794414013210e-02 -1.3480303682527192e-01
      -1.1058753032788365e-01 6.5708122233766347e-02
      -9.1180869296081227e-02 3.8889496610511165e-02
      -7.1784441011765079e-02 7.1679758223111345e-02
      4.9214294855034840e-02 -2.1951583217104879e-02
      6.6797556782915539e-03 2.0274789723508144e-02
      -1.3789875960106994e-02 -7.9685621440944931e-02
      -1.0319747226280875e+00 6.0004471996764419e-03
      -9.4215637744706326e-03 8.9719755303440448e-03
      -3.0596469944586530e-01 7.4179579826181341e-02
      8.1615672266857082e-03 9.3886332818530482e-02
      8.0934742949184957e-03 1.3079207738424639e-01
      -1.4191698099374071e-02 1.1935751281038529e-03
      -2.9025318930050682e-03 -5.0915482107984245e-02
      -9.3653611018299096e-02 -1.2487334700400186e-01
      -6.5665948725222842e-02 -6.6930908037458159e-02
      4.0493587405441261e-02 -3.6137482820148566e-02
      -4.0061106556078446e-02 -1.2368956906574122e-01
      7.6219514216594508e-02 9.6262927028734610e-02
      -8.4719399480423521e-02 4.7562913657787240e-02
      1.1626625903810377e-01 1.6608705646494573e-01
      -3.7613112463133661e-02 -2.2476551732889508e-01
      2.9339543641865948e-02 1.7111756048826213e-01
      1.8911683019753675e-01 -1.1617097076143791e-01
      -5.5681078427647010e-02 -1.0749737957035770e-01
      9.8939284212630457e-02 -2.3324379855746719e-02
      2.5806399063225530e-02 8.1226134219837751e-02
      1.5986057591683925e-01 7.5491552505298015e-02
      2.0101507272345082e-01 4.8418759737391195e-02
      -2.2907362456915878e-04 -1.6636611219313718e-01
      -1.0172085073087687e-01 2.9206365278889500e-02
      -5.4452140948515408e-02 -5.7751621742413210e-02
      -1.3171143868039806e-01 -1.2434556493730453e-02
      1.3278083009473526e-01 9.0466315658363963e-03
      -8.5376207090467920e-02 -1.2136385711478785e-01
      -9.9882379951897624e-02 -4.4579061213742381e-02
      1.1896475787660029e-02 1.0994804050469131e-01
      3.6676534202823026e-02 -1.2514771564839591e-01
      1.8350385631969470e-02 6.0715039290466490e-02
      8.7336379877092862e-02 -7.1810241662130195e-02
      -2.1183803614619398e-02 -6.3288349997810134e-02
      1.7205834187051652e-02 1.2695399438605195e-01
      -6.9445097203468836e-02 -1.9103621506333990e-02
      1.1794708865034888e-02 8.9992040312163749e-02
      -8.7291841190989886e-02 -2.8300115463303716e-02
      5.2682041443751514e-02 2.5807081410000703e-02
      1.0333075659441679e-01 2.6872512303504219e-02
      1.4070405254946416e-01 -3.8351990853619229e-03
      -6.1117640323829679e-02 4.4852746444796088e-02
      2.4744984261815029e-02 2.7388069710393897e-02
      -9.9750795294430497e-02 -1.5654059246792482e-01
      6.6317593256579224e-02 8.7563825763528599e-02
      1.7589130353594183e-02 5.4573215214916279e-04
      -3.4674557664194278e-02 1.6505245137074204e-01
      -2.0065296454469281e-02 -1.5101377478623335e-01
      -1.5344423845774313e-02 -5.1405287818813060e-02
      2.4190214699650610e-02 -3.5980383153419761e-02
      -5.4737178019690846e-01 1.7099166336928404e-02
      -1.2164765632745250e-02 1.1817291705897888e-02
      -2.5960420869197254e-01 9.2576199492837349e-03
      -1.9628384835739827e-02 1.3058680475016987e-01
      7.2439260246429882e-02 1.5060584696013293e-01
      -7.1807066854303936e-02 1.9448619036760517e-03
      9.7322321267967152e-02 4.5525077542688391e-02
      -2.8778710860813479e-02 3.1397480133714371e-02
      -1.5438280278952665e-02 -1.3001251747812856e-01
      1.1669140252820920e-01 1.5394796423679675e-02
      3.0026854197385690e-02 4.1436461988312745e-02
      1.1344356131851467e-01 6.8733255386274353e-02
      -1.1511906929628708e-01 -1.3149271918706779e-01
      -2.2571562730372505e-01 1.8599563167929972e-01
      -5.9863993802630980e-02 -1.6700959595023618e-01
      -1.8983235168573039e-02 1.8969159105478745e-01
      1.2890904978613879e-01 -1.5375833097151209e-01
      -1.0640157530195014e-02 -1.2051905702074509e-01
      -3.0266625859337513e-02 1.0066031064231224e-02
      -2.5973093341924332e-02 -1.0348747210851964e-03
      -3.2140888504091754e-02 -3.6754906501032095e-02
      1.0674032254348521e-02 -1.4715715267989770e-02
      5.3582126509408766e-02 -1.2338649414841947e-01
      -9.9783424274533669e-02 1.3343744243792288e-01
      -2.4460261882731992e-02 -1.9747957552738536e-02
      -4.3348783868009076e-02 -1.2792921828579024e-01
      1.4862251340950422e-01 5.4840149796909043e-02
      2.2429159084204314e-02 -7.4794813802501109e-02
      -9.7683338745054971e-02 -6.0156554875940314e-02
      2.6980897632424905e-01 1.0839121401863311e-01
      3.1809309681176449e-02 2.9800906875914801e-02
      -1.5846874953968814e-02 1.3757356601331347e-01
      -8.3525392145409327e-02 3.4505578565010825e-02
      -6.4161298331484942e-02 -1.6291595021773955e-01
      8.7497290780609957e-02 6.1690395910960580e-02
